{"learner":{"attributes":{"best_iteration":"229","best_score":"0.8573395445134575","scikit_learn":"{\"_estimator_type\": \"classifier\"}"},"feature_names":["age_filled","gender_encoded","field_filled","race_filled","adventure_score","cultural_score","social_score","relaxed_score","exphappy_filled","age_diff","same_race","interest_corr_filled","attractive_partner","sincere_partner","intelligence_partner","funny_partner","ambition_partner","shared_interests_partner","attractive_o","sinsere_o","intelligence_o","funny_o","ambitous_o","shared_interests_o","attractive_important","sincere_important","intellicence_important","funny_important","ambtition_important","shared_interests_important","like","guess_prob_liked"],"feature_types":["float","float","float","float","float","float","float","float","float","float","int","float","float","float","float","float","float","float","float","float","float","float","float","float","float","float","float","float","float","float","float","float"],"gradient_booster":{"model":{"cats":{"enc":[],"feature_segments":[],"sorted_idx":[]},"gbtree_model_param":{"num_parallel_tree":"1","num_trees":"260"},"iteration_indptr":[0,1,2,3,4,5,6,7,8,9,10,11,12,13,14,15,16,17,18,19,20,21,22,23,24,25,26,27,28,29,30,31,32,33,34,35,36,37,38,39,40,41,42,43,44,45,46,47,48,49,50,51,52,53,54,55,56,57,58,59,60,61,62,63,64,65,66,67,68,69,70,71,72,73,74,75,76,77,78,79,80,81,82,83,84,85,86,87,88,89,90,91,92,93,94,95,96,97,98,99,100,101,102,103,104,105,106,107,108,109,110,111,112,113,114,115,116,117,118,119,120,121,122,123,124,125,126,127,128,129,130,131,132,133,134,135,136,137,138,139,140,141,142,143,144,145,146,147,148,149,150,151,152,153,154,155,156,157,158,159,160,161,162,163,164,165,166,167,168,169,170,171,172,173,174,175,176,177,178,179,180,181,182,183,184,185,186,187,188,189,190,191,192,193,194,195,196,197,198,199,200,201,202,203,204,205,206,207,208,209,210,211,212,213,214,215,216,217,218,219,220,221,222,223,224,225,226,227,228,229,230,231,232,233,234,235,236,237,238,239,240,241,242,243,244,245,246,247,248,249,250,251,252,253,254,255,256,257,258,259,260],"tree_info":[0,0,0,0,0,0,0,0,0,0,0,0,0,0,0,0,0,0,0,0,0,0,0,0,0,0,0,0,0,0,0,0,0,0,0,0,0,0,0,0,0,0,0,0,0,0,0,0,0,0,0,0,0,0,0,0,0,0,0,0,0,0,0,0,0,0,0,0,0,0,0,0,0,0,0,0,0,0,0,0,0,0,0,0,0,0,0,0,0,0,0,0,0,0,0,0,0,0,0,0,0,0,0,0,0,0,0,0,0,0,0,0,0,0,0,0,0,0,0,0,0,0,0,0,0,0,0,0,0,0,0,0,0,0,0,0,0,0,0,0,0,0,0,0,0,0,0,0,0,0,0,0,0,0,0,0,0,0,0,0,0,0,0,0,0,0,0,0,0,0,0,0,0,0,0,0,0,0,0,0,0,0,0,0,0,0,0,0,0,0,0,0,0,0,0,0,0,0,0,0,0,0,0,0,0,0,0,0,0,0,0,0,0,0,0,0,0,0,0,0,0,0,0,0,0,0,0,0,0,0,0,0,0,0,0,0,0,0,0,0,0,0,0,0,0,0,0,0,0,0,0,0,0,0,0,0,0,0,0,0],"trees":[{"base_weights":[5.7836547E-3,-8.9334E-1,6.6984653E-1,-1.380321E0,-3.5502583E-1,-1.4161639E-1,1.2002982E0,-1.6917033E0,-9.325946E-1,-9.8011273E-1,2.5027892E-1,-1.0165608E0,2.4175471E-1,8.3579344E-1,1.4518268E0,-9.123462E-3,-8.6250186E-2,-8.22916E-2,-1.8518444E-2,-5.859795E-2,-2.7350378E-3,-5.512225E-3,5.1801573E-2,-2.5827587E-2,-7.8058295E-2,-7.8006536E-7,3.5964966E-2,2.4575038E-2,5.526192E-2,5.692628E-2,8.0287956E-2],"categories":[],"categories_nodes":[],"categories_segments":[],"categories_sizes":[],"default_left":[0,0,0,0,0,0,0,0,0,0,0,0,0,0,0,0,0,0,0,0,0,0,0,0,0,0,0,0,0,0,0],"id":0,"left_children":[1,3,5,7,9,11,13,15,17,19,21,23,25,27,29,-1,-1,-1,-1,-1,-1,-1,-1,-1,-1,-1,-1,-1,-1,-1,-1],"loss_changes":[1.1760626E3,2.1843518E2,4.880631E2,5.853003E1,1.5160977E2,1.5110268E2,6.0789124E1,1.2241638E1,7.2436005E1,3.474504E1,5.807888E1,3.5945694E1,3.6260216E1,2.532898E1,1.643518E1,0E0,0E0,0E0,0E0,0E0,0E0,0E0,0E0,0E0,0E0,0E0,0E0,0E0,0E0,0E0,0E0],"parents":[2147483647,0,0,1,1,2,2,3,3,4,4,5,5,6,6,7,7,8,8,9,9,10,10,11,11,12,12,13,13,14,14],"right_children":[2,4,6,8,10,12,14,16,18,20,22,24,26,28,30,-1,-1,-1,-1,-1,-1,-1,-1,-1,-1,-1,-1,-1,-1,-1,-1],"split_conditions":[6.5E0,5.5E0,6.5E0,6E0,7E0,6E0,7E0,8E0,6.5E0,8.5E0,7E0,1.1E1,7.5E0,7.5E0,8E0,-9.123462E-3,-8.6250186E-2,-8.22916E-2,-1.8518444E-2,-5.859795E-2,-2.7350378E-3,-5.512225E-3,5.1801573E-2,-2.5827587E-2,-7.8058295E-2,-7.8006536E-7,3.5964966E-2,2.4575038E-2,5.526192E-2,5.692628E-2,8.0287956E-2],"split_indices":[30,30,18,15,18,21,31,26,21,20,17,29,21,21,18,0,0,0,0,0,0,0,0,0,0,0,0,0,0,0,0],"split_type":[0,0,0,0,0,0,0,0,0,0,0,0,0,0,0,0,0,0,0,0,0,0,0,0,0,0,0,0,0,0,0],"sum_hessian":[1.9667418E3,8.3521466E2,1.1315271E3,4.3718613E2,3.9802853E2,4.4764673E2,6.8388043E2,2.5526494E2,1.8192119E2,1.9543886E2,2.0258968E2,1.3570924E2,3.119375E2,2.8204074E2,4.0183966E2,5.785326E0,2.4947961E2,7.883832E1,1.0308288E2,1.6145924E2,3.3979618E1,1.3966847E2,6.2921196E1,7.2370926E1,6.3338314E1,2.0794836E2,1.0398913E2,1.2584511E2,1.5619565E2,1.3675136E2,2.6508832E2],"tree_param":{"num_deleted":"0","num_feature":"32","num_nodes":"31","size_leaf_vector":"1"}},{"base_weights":[-2.949463E-3,-8.562664E-1,4.74994E-1,-1.3034308E0,-3.90315E-1,-2.9165438E-1,9.852849E-1,-1.5842261E0,-9.011897E-1,-1.3431E0,-2.226766E-2,-1.2701374E0,1.1316377E-1,6.0883373E-1,1.3309703E0,-8.124398E-2,1.5272886E-3,-1.5234171E-2,-5.789073E-2,1.697431E-2,-7.33788E-2,7.169661E-3,-4.7897853E-2,-6.859752E-2,1.7694497E-2,-6.6746175E-3,3.0705879E-2,5.4947627E-3,4.4991888E-2,-1.7034827E-2,6.866287E-2],"categories":[],"categories_nodes":[],"categories_segments":[],"categories_sizes":[],"default_left":[0,0,0,0,0,0,0,0,0,0,0,0,0,0,0,0,0,0,0,0,0,0,0,0,0,0,0,0,0,0,0],"id":1,"left_children":[1,3,5,7,9,11,13,15,17,19,21,23,25,27,29,-1,-1,-1,-1,-1,-1,-1,-1,-1,-1,-1,-1,-1,-1,-1,-1],"loss_changes":[7.9777075E2,1.453988E2,4.909652E2,3.8003235E1,1.2121394E2,1.992104E2,9.65965E1,1.3919922E1,2.238533E1,2.1042297E1,3.9243816E1,2.5157227E1,4.4215855E1,5.2516617E1,2.8458801E1,0E0,0E0,0E0,0E0,0E0,0E0,0E0,0E0,0E0,0E0,0E0,0E0,0E0,0E0,0E0,0E0],"parents":[2147483647,0,0,1,1,2,2,3,3,4,4,5,5,6,6,7,7,8,8,9,9,10,10,11,11,12,12,13,13,14,14],"right_children":[2,4,6,8,10,12,14,16,18,20,22,24,26,28,30,-1,-1,-1,-1,-1,-1,-1,-1,-1,-1,-1,-1,-1,-1,-1,-1],"split_conditions":[6.5E0,6.5E0,6.5E0,6E0,5E0,6E0,7E0,9.666667E0,1.471E1,5E0,1.8E1,8.5E0,7.5E0,7.5E0,4E0,-8.124398E-2,1.5272886E-3,-1.5234171E-2,-5.789073E-2,1.697431E-2,-7.33788E-2,7.169661E-3,-4.7897853E-2,-6.859752E-2,1.7694497E-2,-6.6746175E-3,3.0705879E-2,5.4947627E-3,4.4991888E-2,-1.7034827E-2,6.866287E-2],"split_indices":[21,12,12,21,21,15,31,7,27,25,29,31,15,21,23,0,0,0,0,0,0,0,0,0,0,0,0,0,0,0,0],"split_type":[0,0,0,0,0,0,0,0,0,0,0,0,0,0,0,0,0,0,0,0,0,0,0,0,0,0,0,0,0,0,0],"sum_hessian":[1.9530114E3,7.0081067E2,1.2522007E3,3.5612952E2,3.4468118E2,5.0058337E2,7.516173E2,2.0698306E2,1.4914645E2,9.486171E1,2.4981947E2,1.456279E2,3.5495547E2,3.619189E2,3.8969836E2,2.019513E2,5.03177E0,4.5967903E1,1.0317854E2,6.3005567E0,8.856115E1,2.1323087E2,3.6588604E1,1.3731387E2,8.314025E0,2.3844986E2,1.1650561E2,1.3421382E2,2.277051E2,9.295195E0,3.8040317E2],"tree_param":{"num_deleted":"0","num_feature":"32","num_nodes":"31","size_leaf_vector":"1"}},{"base_weights":[-1.3235201E-2,-8.737587E-1,6.206907E-1,-1.2888404E0,-4.1198218E-1,-5.7512754E-1,9.432339E-1,-1.3359056E0,5.2211642E-2,-9.3122786E-1,1.4337039E-1,-1.4214936E0,4.560508E-2,5.5901915E-1,1.2467408E0,-7.530819E-2,-4.1548587E-2,-5.7636864E-2,-3.6914455E-4,-7.5598992E-3,4.411038E-2,-2.352363E-2,-7.6616324E-2,-2.6202694E-2,1.8003339E-2,1.0513024E-2,4.4918932E-2,3.545938E-2,6.831501E-2],"categories":[],"categories_nodes":[],"categories_segments":[],"categories_sizes":[],"default_left":[0,0,0,0,0,0,0,0,0,0,0,0,0,0,0,0,0,0,0,0,0,0,0,0,0,0,0,0,0],"id":2,"left_children":[1,3,5,7,9,11,13,15,-1,17,19,21,23,25,27,-1,-1,-1,-1,-1,-1,-1,-1,-1,-1,-1,-1,-1,-1],"loss_changes":[1.0552605E3,1.5632336E2,4.3045004E2,4.9485107E1,1.12964096E2,1.24994095E2,1.011402E2,3.4297302E1,0E0,4.1258682E1,4.1630577E1,9.320877E0,2.5055744E1,4.5796524E1,2.9770874E1,0E0,0E0,0E0,0E0,0E0,0E0,0E0,0E0,0E0,0E0,0E0,0E0,0E0,0E0],"parents":[2147483647,0,0,1,1,2,2,3,3,4,4,5,5,6,6,7,7,9,9,10,10,11,11,12,12,13,13,14,14],"right_children":[2,4,6,8,10,12,14,16,-1,18,20,22,24,26,28,-1,-1,-1,-1,-1,-1,-1,-1,-1,-1,-1,-1,-1,-1],"split_conditions":[6.5E0,5.5E0,6E0,9.5E0,7E0,6E0,7.5E0,7.5E0,5.2211642E-2,7E0,7E0,6E0,5E0,7.5E0,7E0,-7.530819E-2,-4.1548587E-2,-5.7636864E-2,-3.6914455E-4,-7.5598992E-3,4.411038E-2,-2.352363E-2,-7.6616324E-2,-2.6202694E-2,1.8003339E-2,1.0513024E-2,4.4918932E-2,3.545938E-2,6.831501E-2],"split_indices":[30,30,18,12,18,21,21,18,0,23,17,12,18,12,12,0,0,0,0,0,0,0,0,0,0,0,0,0,0],"split_type":[0,0,0,0,0,0,0,0,0,0,0,0,0,0,0,0,0,0,0,0,0,0,0,0,0,0,0,0,0],"sum_hessian":[1.9314166E3,8.191079E2,1.1123087E3,4.2983484E2,3.892731E2,2.3597066E2,8.763381E2,4.2200565E2,7.8291683E0,2.007448E2,1.885283E2,9.908914E1,1.3688152E2,3.8877417E2,4.875639E2,3.132192E2,1.0878644E2,1.6153404E2,3.9210754E1,1.3554521E2,5.2983086E1,1.1257944E1,8.783119E1,4.8216953E1,8.866456E1,1.9307532E2,1.9569887E2,9.075449E1,3.9680942E2],"tree_param":{"num_deleted":"0","num_feature":"32","num_nodes":"29","size_leaf_vector":"1"}},{"base_weights":[2.6440475E-2,-6.7872036E-1,5.7813334E-1,-1.3212261E0,-3.198562E-1,-1.1563599E0,7.98394E-1,-7.9555E-2,-9.964058E-1,-8.6091787E-1,1.5667722E-1,-1.665929E0,-4.255445E-1,3.80093E-1,1.2174901E0,-6.878235E-2,-2.8260905E-2,-1.55746685E-2,-5.4234564E-2,-7.659101E-2,1.3360147E-2,-8.959418E-2,-4.92716E-2,-3.648403E-2,1.565907E-2,-3.0403163E-3,3.890254E-2,4.827072E-2,6.895932E-2],"categories":[],"categories_nodes":[],"categories_segments":[],"categories_sizes":[],"default_left":[0,0,0,0,0,0,0,0,0,0,0,0,0,0,0,0,0,0,0,0,0,0,0,0,0,0,0,0,0],"id":3,"left_children":[1,3,5,7,9,11,13,-1,15,17,19,21,23,25,27,-1,-1,-1,-1,-1,-1,-1,-1,-1,-1,-1,-1,-1,-1],"loss_changes":[7.691795E2,1.9929901E2,4.2516446E2,2.457544E1,1.443763E2,4.5486893E1,1.7187463E2,0E0,2.2359451E1,3.1572815E1,5.616474E1,3.3634796E0,1.2444458E1,8.706703E1,1.779663E1,0E0,0E0,0E0,0E0,0E0,0E0,0E0,0E0,0E0,0E0,0E0,0E0,0E0,0E0],"parents":[2147483647,0,0,1,1,2,2,3,3,4,4,5,5,6,6,8,8,9,9,10,10,11,11,12,12,13,13,14,14],"right_children":[2,4,6,8,10,12,14,-1,16,18,20,22,24,26,28,-1,-1,-1,-1,-1,-1,-1,-1,-1,-1,-1,-1,-1,-1],"split_conditions":[6.5E0,6E0,5E0,5E0,6.5E0,6E0,7.5E0,-7.9555E-2,6.5E0,-2E-2,3.5E0,2.128E1,8.666667E0,6.5E0,7.5E0,-6.878235E-2,-2.8260905E-2,-1.55746685E-2,-5.4234564E-2,-7.659101E-2,1.3360147E-2,-8.959418E-2,-4.92716E-2,-3.648403E-2,1.565907E-2,-3.0403163E-3,3.890254E-2,4.827072E-2,6.895932E-2],"split_indices":[18,21,12,21,12,15,15,0,12,11,18,27,5,12,12,0,0,0,0,0,0,0,0,0,0,0,0,0,0],"split_type":[0,0,0,0,0,0,0,0,0,0,0,0,0,0,0,0,0,0,0,0,0,0,0,0,0,0,0,0,0],"sum_hessian":[1.9741743E3,8.663279E2,1.1078464E3,3.089273E2,5.574006E2,1.2406208E2,9.837844E2,1.6537314E2,1.4355415E2,2.6055887E2,2.9684174E2,7.188401E1,5.2178074E1,4.9391025E2,4.8987418E2,7.450635E1,6.904781E1,7.657682E1,1.8398204E2,1.6996283E1,2.7984543E2,5.8465725E1,1.34182825E1,3.706997E1,1.5108104E1,2.3479703E2,2.5911322E2,1.9576353E2,2.9411063E2],"tree_param":{"num_deleted":"0","num_feature":"32","num_nodes":"29","size_leaf_vector":"1"}},{"base_weights":[8.131728E-3,-7.6808196E-1,5.899493E-1,-1.2355678E0,-2.781796E-1,-1.1672169E-1,1.0427577E0,-1.4855436E0,-5.898154E-1,-7.8835106E-1,2.2318456E-1,-9.535944E-1,2.4677339E-1,7.779532E-1,1.2792671E0,-7.750346E-2,-3.1730067E-2,-5.4204937E-2,6.723333E-3,-5.015626E-2,3.9596157E-3,-2.4026046E-2,1.8315962E-2,-6.1324473E-2,1.6380132E-3,-1.1127152E-2,2.3569925E-2,1.991118E-2,5.0863516E-2,3.6065247E-2,7.0901535E-2],"categories":[],"categories_nodes":[],"categories_segments":[],"categories_sizes":[],"default_left":[0,0,0,0,0,0,0,0,0,0,0,0,0,0,0,0,0,0,0,0,0,0,0,0,0,0,0,0,0,0,0],"id":4,"left_children":[1,3,5,7,9,11,13,15,17,19,21,23,25,27,29,-1,-1,-1,-1,-1,-1,-1,-1,-1,-1,-1,-1,-1,-1,-1,-1],"loss_changes":[8.7983875E2,1.9047849E2,3.5662057E2,6.7331055E1,1.0508266E2,1.3310442E2,4.0823975E1,1.5129822E1,4.385926E1,3.8116776E1,2.116724E1,3.583699E1,3.2355804E1,2.8726105E1,2.5824036E1,0E0,0E0,0E0,0E0,0E0,0E0,0E0,0E0,0E0,0E0,0E0,0E0,0E0,0E0,0E0,0E0],"parents":[2147483647,0,0,1,1,2,2,3,3,4,4,5,5,6,6,7,7,8,8,9,9,10,10,11,11,12,12,13,13,14,14],"right_children":[2,4,6,8,10,12,14,16,18,20,22,24,26,28,30,-1,-1,-1,-1,-1,-1,-1,-1,-1,-1,-1,-1,-1,-1,-1,-1],"split_conditions":[6.5E0,6E0,6.5E0,7E0,7E0,6E0,8E0,6.4E-1,6E0,7E0,4.5E0,6E0,5.5E0,7.5E0,5.5E0,-7.750346E-2,-3.1730067E-2,-5.4204937E-2,6.723333E-3,-5.015626E-2,3.9596157E-3,-2.4026046E-2,1.8315962E-2,-6.1324473E-2,1.6380132E-3,-1.1127152E-2,2.3569925E-2,1.991118E-2,5.0863516E-2,3.6065247E-2,7.0901535E-2],"split_indices":[30,30,18,23,18,21,12,11,12,23,31,18,23,21,31,0,0,0,0,0,0,0,0,0,0,0,0,0,0,0,0],"split_type":[0,0,0,0,0,0,0,0,0,0,0,0,0,0,0,0,0,0,0,0,0,0,0,0,0,0,0,0,0,0,0],"sum_hessian":[1.9452407E3,8.3311475E2,1.1121261E3,4.2503802E2,4.0807672E2,4.3466418E2,6.7746185E2,3.0490237E2,1.2013564E2,2.019351E2,2.061416E2,1.3097083E2,3.036934E2,3.2284717E2,3.546147E2,2.8215698E2,2.2745378E1,7.1044495E1,4.909115E1,1.6176778E2,4.016733E1,3.4126778E1,1.7201482E2,1.0238118E2,2.858964E1,9.816429E1,2.0552908E2,1.2651577E2,1.963314E2,7.262215E1,2.8199252E2],"tree_param":{"num_deleted":"0","num_feature":"32","num_nodes":"31","size_leaf_vector":"1"}},{"base_weights":[2.7139565E-2,-7.3496664E-1,5.649605E-1,-1.139132E0,-3.045871E-1,-1.583637E-1,1.0192742E0,-1.378893E0,-3.583578E-1,-7.124961E-1,1.3200156E-1,-9.7319084E-1,1.9101703E-1,7.0421016E-1,1.2168999E0,-7.089783E-2,6.2736194E-3,-6.832373E-2,8.694361E-3,-5.0340928E-2,-1.1857758E-2,-8.205405E-3,4.2019833E-2,-6.512542E-2,-2.9104345E-3,-3.207293E-3,3.1900387E-2,1.4481701E-2,4.898979E-2,3.3219025E-2,6.392524E-2],"categories":[],"categories_nodes":[],"categories_segments":[],"categories_sizes":[],"default_left":[0,0,0,0,0,0,0,0,0,0,0,0,0,0,0,0,0,0,0,0,0,0,0,0,0,0,0,0,0,0,0],"id":5,"left_children":[1,3,5,7,9,11,13,15,17,19,21,23,25,27,29,-1,-1,-1,-1,-1,-1,-1,-1,-1,-1,-1,-1,-1,-1,-1,-1],"loss_changes":[8.046053E2,1.4060178E2,3.7854178E2,7.7363464E1,7.0629585E1,1.27105316E2,4.2556396E1,1.9159546E1,5.432792E1,2.817086E1,4.058498E1,4.0110184E1,3.579289E1,3.1021927E1,1.3247681E1,0E0,0E0,0E0,0E0,0E0,0E0,0E0,0E0,0E0,0E0,0E0,0E0,0E0,0E0,0E0,0E0],"parents":[2147483647,0,0,1,1,2,2,3,3,4,4,5,5,6,6,7,7,8,8,9,9,10,10,11,11,12,12,13,13,14,14],"right_children":[2,4,6,8,10,12,14,16,18,20,22,24,26,28,30,-1,-1,-1,-1,-1,-1,-1,-1,-1,-1,-1,-1,-1,-1,-1,-1],"split_conditions":[6.5E0,5.5E0,6.5E0,7E0,7E0,6E0,7.5E0,2.5E1,6.5E0,7.5E0,7E0,6E0,7.5E0,7.5E0,5.5E0,-7.089783E-2,6.2736194E-3,-6.832373E-2,8.694361E-3,-5.0340928E-2,-1.1857758E-2,-8.205405E-3,4.2019833E-2,-6.512542E-2,-2.9104345E-3,-3.207293E-3,3.1900387E-2,1.4481701E-2,4.898979E-2,3.3219025E-2,6.392524E-2],"split_indices":[30,30,18,15,18,21,30,29,21,20,17,18,21,21,17,0,0,0,0,0,0,0,0,0,0,0,0,0,0,0,0],"split_type":[0,0,0,0,0,0,0,0,0,0,0,0,0,0,0,0,0,0,0,0,0,0,0,0,0,0,0,0,0,0,0],"sum_hessian":[1.9600643E3,8.106361E2,1.1494282E3,4.166559E2,3.9398022E2,4.437229E2,7.0570526E2,3.1779114E2,9.886478E1,2.0330836E2,1.9067186E2,1.3244414E2,3.1127878E2,2.7486063E2,4.3084464E2,3.0989673E2,7.8944087E0,3.341354E1,6.545124E1,1.24396675E2,7.891168E1,1.351785E2,5.5493366E1,9.684383E1,3.560032E1,1.9883537E2,1.1244339E2,1.111268E2,1.6373381E2,4.5155468E1,3.8568918E2],"tree_param":{"num_deleted":"0","num_feature":"32","num_nodes":"31","size_leaf_vector":"1"}},{"base_weights":[-4.682436E-2,-7.9041165E-1,4.9464306E-1,-1.1756893E0,-3.672096E-1,-1.759081E-1,9.254365E-1,-1.3480724E0,-5.7480377E-1,-6.327906E-1,1.0624067E-1,-8.7256485E-1,1.3235134E-1,6.144747E-1,1.1719105E0,-1.4669587E-2,-7.180837E-2,3.4319639E-4,-5.7601698E-2,-4.75918E-2,-1.3537635E-2,-3.3556934E-2,1.7867392E-2,2.5749503E-2,-4.8519786E-2,-2.671375E-2,1.3322233E-2,-2.8154433E-3,3.8468298E-2,4.7150698E-2,6.4702496E-2],"categories":[],"categories_nodes":[],"categories_segments":[],"categories_sizes":[],"default_left":[0,0,0,0,0,0,0,0,0,0,0,0,0,0,0,0,0,0,0,0,0,0,0,0,0,0,0,0,0,0,0],"id":6,"left_children":[1,3,5,7,9,11,13,15,17,19,21,23,25,27,29,-1,-1,-1,-1,-1,-1,-1,-1,-1,-1,-1,-1,-1,-1,-1,-1],"loss_changes":[7.538217E2,1.27828156E2,3.1325793E2,4.133661E1,4.7714554E1,9.1498024E1,4.9319336E1,2.8836182E1,3.1896767E1,2.7521423E1,2.7086899E1,1.8529007E1,2.6626043E1,3.0798439E1,8.186432E0,0E0,0E0,0E0,0E0,0E0,0E0,0E0,0E0,0E0,0E0,0E0,0E0,0E0,0E0,0E0,0E0],"parents":[2147483647,0,0,1,1,2,2,3,3,4,4,5,5,6,6,7,7,8,8,9,9,10,10,11,11,12,12,13,13,14,14],"right_children":[2,4,6,8,10,12,14,16,18,20,22,24,26,28,30,-1,-1,-1,-1,-1,-1,-1,-1,-1,-1,-1,-1,-1,-1,-1,-1],"split_conditions":[6.5E0,6E0,6.5E0,6.5E0,7E0,6E0,8E0,3.3333333E0,1.957E1,6.5E0,5.3333335E0,5E0,6.5E0,6.5E0,7.5E0,-1.4669587E-2,-7.180837E-2,3.4319639E-4,-5.7601698E-2,-4.75918E-2,-1.3537635E-2,-3.3556934E-2,1.7867392E-2,2.5749503E-2,-4.8519786E-2,-2.671375E-2,1.3322233E-2,-2.8154433E-3,3.8468298E-2,4.7150698E-2,6.4702496E-2],"split_indices":[30,30,18,15,12,21,12,4,24,18,4,25,15,15,18,0,0,0,0,0,0,0,0,0,0,0,0,0,0,0,0],"split_type":[0,0,0,0,0,0,0,0,0,0,0,0,0,0,0,0,0,0,0,0,0,0,0,0,0,0,0,0,0,0,0],"sum_hessian":[1.8692223E3,7.87398E2,1.0818242E3,4.1064694E2,3.7675107E2,4.2341434E2,6.584099E2,3.1752356E2,9.31234E1,2.4117232E2,1.3557877E2,1.2914014E2,2.942742E2,2.9361655E2,3.6479333E2,2.5065666E1,2.924579E2,4.7035366E1,4.6088036E1,1.2675223E2,1.1442008E2,3.239202E1,1.03186745E2,8.016879E0,1.2112325E2,4.840637E1,2.4586784E2,5.513852E1,2.3847803E2,1.3176244E2,2.330309E2],"tree_param":{"num_deleted":"0","num_feature":"32","num_nodes":"31","size_leaf_vector":"1"}},{"base_weights":[7.2139534E-3,-6.1487544E-1,4.8861048E-1,-8.264353E-1,1.5126677E-1,-1.5443443E-2,1.0396332E0,-1.0480925E0,-3.8636836E-1,-2.5984943E-1,4.9919885E-1,-1.1236175E0,1.823791E-1,-1.4051395E-2,1.0999485E0,-6.281044E-2,-3.8943004E-2,-5.6126475E-2,-6.3324138E-3,-4.6652906E-2,1.9957762E-2,-4.31107E-3,3.689815E-2,-6.9415905E-2,-2.7167132E-2,-1.9140981E-2,2.6793763E-2,-2.8148813E-2,3.4033783E-2,1.6096575E-2,5.712981E-2],"categories":[],"categories_nodes":[],"categories_segments":[],"categories_sizes":[],"default_left":[0,0,0,0,0,0,0,0,0,0,0,0,0,0,0,0,0,0,0,0,0,0,0,0,0,0,0,0,0,0,0],"id":7,"left_children":[1,3,5,7,9,11,13,15,17,19,21,23,25,27,29,-1,-1,-1,-1,-1,-1,-1,-1,-1,-1,-1,-1,-1,-1,-1,-1],"loss_changes":[5.843357E2,1.3821487E2,3.0567447E2,6.434158E1,2.6730091E1,1.26655914E2,3.3540527E1,2.313733E1,4.2882908E1,3.868245E1,1.4282461E1,1.2118652E1,9.820259E1,1.1947675E1,1.5803528E1,0E0,0E0,0E0,0E0,0E0,0E0,0E0,0E0,0E0,0E0,0E0,0E0,0E0,0E0,0E0,0E0],"parents":[2147483647,0,0,1,1,2,2,3,3,4,4,5,5,6,6,7,7,8,8,9,9,10,10,11,11,12,12,13,13,14,14],"right_children":[2,4,6,8,10,12,14,16,18,20,22,24,26,28,30,-1,-1,-1,-1,-1,-1,-1,-1,-1,-1,-1,-1,-1,-1,-1,-1],"split_conditions":[6.5E0,6.5E0,7.5E0,5.5E0,1.795E1,5E0,3.5E0,7.5E0,5E0,6.5E0,6.5E0,7.3333335E0,5.5E0,2.479E1,5E0,-6.281044E-2,-3.8943004E-2,-5.6126475E-2,-6.3324138E-3,-4.6652906E-2,1.9957762E-2,-4.31107E-3,3.689815E-2,-6.9415905E-2,-2.7167132E-2,-1.9140981E-2,2.6793763E-2,-2.8148813E-2,3.4033783E-2,1.6096575E-2,5.712981E-2],"split_indices":[12,17,21,31,27,21,31,20,12,31,21,4,31,26,23,0,0,0,0,0,0,0,0,0,0,0,0,0,0,0,0],"split_type":[0,0,0,0,0,0,0,0,0,0,0,0,0,0,0,0,0,0,0,0,0,0,0,0,0,0,0,0,0,0,0],"sum_hessian":[1.9482593E3,8.496575E2,1.0986019E3,6.658143E2,1.8384319E2,5.744208E2,5.241811E2,4.4125766E2,2.2455661E2,8.431225E1,9.953094E1,8.602219E1,4.883986E2,2.835329E1,4.958278E2,2.4556544E2,1.9569221E2,5.716309E1,1.6739352E2,4.147315E1,4.2839096E1,2.8990156E1,7.054078E1,5.7521732E1,2.8500456E1,1.8776968E2,3.006289E2,1.6077991E1,1.22753E1,2.6555075E1,4.6927274E2],"tree_param":{"num_deleted":"0","num_feature":"32","num_nodes":"31","size_leaf_vector":"1"}},{"base_weights":[-0E0,-6.539214E-1,4.8900354E-1,-1.0241395E0,-2.6913914E-1,-1.19715184E-1,8.847632E-1,-1.2213936E0,-3.8182712E-1,-6.819728E-1,1.4865257E-1,-8.344641E-1,1.376348E-1,5.9708536E-1,1.1265615E0,-7.025758E-2,-4.997706E-2,-4.416021E-2,2.2717584E-2,-4.3105584E-2,3.382419E-3,-5.14432E-3,3.568392E-2,-5.625661E-2,1.6384479E-2,-4.5908414E-2,1.2398855E-2,3.2976132E-2,-2.6773069E-2,-1.6716043E-2,5.8535863E-2],"categories":[],"categories_nodes":[],"categories_segments":[],"categories_sizes":[],"default_left":[0,0,0,0,0,0,0,0,0,0,0,0,0,0,0,0,0,0,0,0,0,0,0,0,0,0,0,0,0,0,0],"id":8,"left_children":[1,3,5,7,9,11,13,15,17,19,21,23,25,27,29,-1,-1,-1,-1,-1,-1,-1,-1,-1,-1,-1,-1,-1,-1,-1,-1],"loss_changes":[6.038806E2,1.1456067E2,2.6052652E2,5.1229736E1,6.891697E1,7.8769905E1,4.4383606E1,1.0442841E1,4.2105755E1,2.7277618E1,2.847007E1,3.891799E1,3.698165E1,2.1934502E1,2.3507446E1,0E0,0E0,0E0,0E0,0E0,0E0,0E0,0E0,0E0,0E0,0E0,0E0,0E0,0E0,0E0,0E0],"parents":[2147483647,0,0,1,1,2,2,3,3,4,4,5,5,6,6,7,7,8,8,9,9,10,10,11,11,12,12,13,13,14,14],"right_children":[2,4,6,8,10,12,14,16,18,20,22,24,26,28,30,-1,-1,-1,-1,-1,-1,-1,-1,-1,-1,-1,-1,-1,-1,-1,-1],"split_conditions":[7E0,5.5E0,6.5E0,7E0,7E0,5E0,8E0,4.5E0,7E0,7E0,7E0,7E0,4E0,8E0,4E0,-7.025758E-2,-4.997706E-2,-4.416021E-2,2.2717584E-2,-4.3105584E-2,3.382419E-3,-5.14432E-3,3.568392E-2,-5.625661E-2,1.6384479E-2,-4.5908414E-2,1.2398855E-2,3.2976132E-2,-2.6773069E-2,-1.6716043E-2,5.8535863E-2],"split_indices":[30,30,18,15,18,18,12,30,23,23,17,23,23,9,23,0,0,0,0,0,0,0,0,0,0,0,0,0,0,0,0],"split_type":[0,0,0,0,0,0,0,0,0,0,0,0,0,0,0,0,0,0,0,0,0,0,0,0,0,0,0,0,0,0,0],"sum_hessian":[1.8854736E3,8.065077E2,1.0789661E3,4.0963007E2,3.968776E2,4.254201E2,6.535459E2,3.122348E2,9.739529E1,1.992666E2,1.9761101E2,1.1183655E2,3.1358356E2,3.0102325E2,3.5252267E2,1.6615718E2,1.4607762E2,6.0909107E1,3.6486176E1,1.6058524E2,3.8681366E1,1.3746432E2,6.014668E1,8.9568306E1,2.2268244E1,2.854686E1,2.8503668E2,2.8597238E2,1.5050858E1,9.986882E0,3.425358E2],"tree_param":{"num_deleted":"0","num_feature":"32","num_nodes":"31","size_leaf_vector":"1"}},{"base_weights":[-1.467704E-2,-7.1988857E-1,4.7389334E-1,-9.627294E-1,-1.685992E-1,-6.291047E-1,6.641988E-1,-1.2505745E0,-6.2091804E-1,-4.9225357E-1,5.52953E-1,-1.068603E0,-2.0038939E-1,3.5117725E-1,9.2833686E-1,-5.958069E-3,-6.391828E-2,-4.746259E-2,-6.8574226E-3,-5.2853536E-2,-3.8843502E-3,-9.058348E-3,3.4330707E-2,-6.410139E-2,-2.3985235E-3,-3.7645634E-2,1.0123975E-2,6.2696524E-3,3.822141E-2,-2.6789356E-2,4.795411E-2],"categories":[],"categories_nodes":[],"categories_segments":[],"categories_sizes":[],"default_left":[0,0,0,0,0,0,0,0,0,0,0,0,0,0,0,0,0,0,0,0,0,0,0,0,0,0,0,0,0,0,0],"id":9,"left_children":[1,3,5,7,9,11,13,15,17,19,21,23,25,27,29,-1,-1,-1,-1,-1,-1,-1,-1,-1,-1,-1,-1,-1,-1,-1,-1],"loss_changes":[6.497002E2,1.0296561E2,2.3443231E2,5.13183E1,5.597151E1,3.0564041E1,7.79917E1,8.717743E0,3.9065804E1,3.843548E1,7.5270424E0,1.7377869E1,1.9266329E1,4.0606823E1,2.3975647E1,0E0,0E0,0E0,0E0,0E0,0E0,0E0,0E0,0E0,0E0,0E0,0E0,0E0,0E0,0E0,0E0],"parents":[2147483647,0,0,1,1,2,2,3,3,4,4,5,5,6,6,7,7,8,8,9,9,10,10,11,11,12,12,13,13,14,14],"right_children":[2,4,6,8,10,12,14,16,18,20,22,24,26,28,30,-1,-1,-1,-1,-1,-1,-1,-1,-1,-1,-1,-1,-1,-1,-1,-1],"split_conditions":[6.5E0,7E0,6E0,6E0,7E0,5E0,7.5E0,-4.6E-1,8E0,7E0,6E0,8.333333E0,7.5E0,7E0,5E0,-5.958069E-3,-6.391828E-2,-4.746259E-2,-6.8574226E-3,-5.2853536E-2,-3.8843502E-3,-9.058348E-3,3.4330707E-2,-6.410139E-2,-2.3985235E-3,-3.7645634E-2,1.0123975E-2,6.2696524E-3,3.822141E-2,-2.6789356E-2,4.795411E-2],"split_indices":[30,23,21,30,12,23,21,11,19,5,7,4,12,23,12,0,0,0,0,0,0,0,0,0,0,0,0,0,0,0,0],"split_type":[0,0,0,0,0,0,0,0,0,0,0,0,0,0,0,0,0,0,0,0,0,0,0,0,0,0,0,0,0,0,0],"sum_hessian":[1.8826167E3,7.7027783E2,1.1123387E3,5.338279E2,2.3644998E2,1.6309084E2,9.49248E2,2.8746677E2,2.4636111E2,1.636566E2,7.279338E1,7.931193E1,8.377891E1,4.3619733E2,5.1305066E2,7.168215E0,2.8029855E2,1.457743E2,1.00586815E2,6.818859E1,9.5468E1,1.1014745E1,6.1778637E1,6.5196526E1,1.4115406E1,3.48829E1,4.8896008E1,2.835007E2,1.5269661E2,9.978372E0,5.0307227E2],"tree_param":{"num_deleted":"0","num_feature":"32","num_nodes":"31","size_leaf_vector":"1"}},{"base_weights":[-6.978138E-3,-6.173084E-1,3.420296E-1,-1.0653725E0,-2.4589667E-1,-4.069856E-2,8.269985E-1,-1.2439167E0,-4.0415192E-1,-7.332063E-1,3.6441039E-3,-6.257094E-1,1.6942717E-1,-2.2610371E-1,8.9550984E-1,-6.480137E-2,3.327232E-2,-4.128112E-2,1.6538046E-2,-6.2624454E-2,-7.823691E-3,-4.2130664E-2,7.0877695E-3,-4.4421613E-2,-8.973297E-3,-6.6543516E-4,3.787726E-2,8.312899E-3,-6.2853426E-2,3.299285E-2,5.502465E-2],"categories":[],"categories_nodes":[],"categories_segments":[],"categories_sizes":[],"default_left":[0,0,0,0,0,0,0,0,0,0,0,0,0,0,0,0,0,0,0,0,0,0,0,0,0,0,0,0,0,0,0],"id":10,"left_children":[1,3,5,7,9,11,13,15,17,19,21,23,25,27,29,-1,-1,-1,-1,-1,-1,-1,-1,-1,-1,-1,-1,-1,-1,-1,-1],"loss_changes":[3.959277E2,1.1201614E2,2.1958748E2,3.519821E1,4.529271E1,8.1600006E1,3.8011353E1,2.52406E1,2.1331272E1,3.732036E1,2.9008575E1,2.0220901E1,5.2558956E1,1.3761601E1,2.241513E1,0E0,0E0,0E0,0E0,0E0,0E0,0E0,0E0,0E0,0E0,0E0,0E0,0E0,0E0,0E0,0E0],"parents":[2147483647,0,0,1,1,2,2,3,3,4,4,5,5,6,6,7,7,8,8,9,9,10,10,11,11,12,12,13,13,14,14],"right_children":[2,4,6,8,10,12,14,16,18,20,22,24,26,28,30,-1,-1,-1,-1,-1,-1,-1,-1,-1,-1,-1,-1,-1,-1,-1,-1],"split_conditions":[7E0,6E0,7E0,8.333333E0,4.5E0,5E0,3.5E0,9.5E0,5.5E0,8E0,4E0,8E0,7.5E0,1E0,7.5E0,-6.480137E-2,3.327232E-2,-4.128112E-2,1.6538046E-2,-6.2624454E-2,-7.823691E-3,-4.2130664E-2,7.0877695E-3,-4.4421613E-2,-8.973297E-3,-6.6543516E-4,3.787726E-2,8.312899E-3,-6.2853426E-2,3.299285E-2,5.502465E-2],"split_indices":[15,12,23,6,31,23,31,31,17,19,23,19,31,10,12,0,0,0,0,0,0,0,0,0,0,0,0,0,0,0,0],"split_type":[0,0,0,0,0,0,0,0,0,0,0,0,0,0,0,0,0,0,0,0,0,0,0,0,0,0,0,0,0,0,0],"sum_hessian":[1.8556125E3,6.747577E2,1.1808549E3,3.044287E2,3.7032898E2,6.606502E2,5.202046E2,2.3854352E2,6.5885185E1,1.24566246E2,2.4576273E2,1.7392766E2,4.8672256E2,3.1475676E1,4.8872894E2,2.3272614E2,5.8173876E0,4.184063E1,2.404456E1,6.453173E1,6.0034515E1,3.330648E1,2.1245625E2,1.0839837E2,6.552929E1,3.7233066E2,1.1439192E2,2.3639954E1,7.8357205E0,2.3052689E2,2.5820206E2],"tree_param":{"num_deleted":"0","num_feature":"32","num_nodes":"31","size_leaf_vector":"1"}},{"base_weights":[1.9795373E-2,-5.7794684E-1,4.4348356E-1,-8.2379717E-1,-1.737048E-2,-6.316743E-1,6.328874E-1,-1.1562424E0,-4.4956434E-1,-3.6818504E-1,4.3520233E-1,-1.0491225E0,-2.32032E-2,3.575016E-1,9.661777E-1,-6.0851127E-2,-1.7735764E-2,-3.4696452E-2,1.0103679E-3,-3.1985074E-2,2.460595E-2,-5.043992E-2,2.8496826E-2,-3.543856E-2,-7.130757E-2,-8.034887E-2,1.4419871E-2,-6.076017E-3,2.6573425E-2,-3.5563607E-2,5.043332E-2],"categories":[],"categories_nodes":[],"categories_segments":[],"categories_sizes":[],"default_left":[0,0,0,0,0,0,0,0,0,0,0,0,0,0,0,0,0,0,0,0,0,0,0,0,0,0,0,0,0,0,0],"id":11,"left_children":[1,3,5,7,9,11,13,15,17,19,21,23,25,27,29,-1,-1,-1,-1,-1,-1,-1,-1,-1,-1,-1,-1,-1,-1,-1,-1],"loss_changes":[4.7488257E2,1.0708063E2,2.2407405E2,6.630151E1,3.8141438E1,4.1776978E1,8.506287E1,1.3085602E1,2.9574184E1,3.212352E1,2.1212374E1,1.0814163E1,3.4773254E1,4.2963013E1,3.1144958E1,0E0,0E0,0E0,0E0,0E0,0E0,0E0,0E0,0E0,0E0,0E0,0E0,0E0,0E0,0E0,0E0],"parents":[2147483647,0,0,1,1,2,2,3,3,4,4,5,5,6,6,7,7,8,8,9,9,10,10,11,11,12,12,13,13,14,14],"right_children":[2,4,6,8,10,12,14,16,18,20,22,24,26,28,30,-1,-1,-1,-1,-1,-1,-1,-1,-1,-1,-1,-1,-1,-1,-1,-1],"split_conditions":[6.5E0,7E0,6E0,6E0,6.5E0,6E0,8E0,8.5E0,7E0,6.5E0,6E0,5.5E0,6.5E0,6E0,3E0,-6.0851127E-2,-1.7735764E-2,-3.4696452E-2,1.0103679E-3,-3.1985074E-2,2.460595E-2,-5.043992E-2,2.8496826E-2,-3.543856E-2,-7.130757E-2,-8.034887E-2,1.4419871E-2,-6.076017E-3,2.6573425E-2,-3.5563607E-2,5.043332E-2],"split_indices":[30,23,21,30,15,18,18,18,12,12,18,22,12,23,31,0,0,0,0,0,0,0,0,0,0,0,0,0,0,0,0],"split_type":[0,0,0,0,0,0,0,0,0,0,0,0,0,0,0,0,0,0,0,0,0,0,0,0,0,0,0,0,0,0,0],"sum_hessian":[1.8721416E3,7.762378E2,1.0959038E3,5.3897736E2,2.3726044E2,1.6353888E2,9.323649E2,2.8362283E2,2.5535454E2,1.3393813E2,1.033223E2,9.62529E1,6.728598E1,5.123979E2,4.1996704E2,2.627928E2,2.0830036E1,1.67646E2,8.770854E1,1.0218795E2,3.1750177E1,7.9240336E0,9.539827E1,5.299676E1,4.325614E1,1.0089451E1,5.7196533E1,1.3647852E2,3.7591937E2,9.733287E0,4.1023373E2],"tree_param":{"num_deleted":"0","num_feature":"32","num_nodes":"31","size_leaf_vector":"1"}},{"base_weights":[-5.6105563E-3,-5.8255917E-1,4.1806388E-1,-8.051541E-1,-6.8602905E-2,-1.3386917E-1,7.67192E-1,-1.0728952E0,-5.1083785E-1,-9.992714E-1,1.3561884E-1,-8.397303E-1,1.1000461E-1,4.383064E-1,9.7394466E-1,-5.568394E-2,3.7234437E-2,-4.4810876E-2,1.5586958E-3,-6.7517415E-2,-6.5259174E-3,-3.1627525E-2,2.3210246E-2,-5.0941195E-2,3.2046136E-2,-5.2721262E-2,1.0665355E-2,-4.3679554E-2,2.4649767E-2,1.2172473E-2,5.1827278E-2],"categories":[],"categories_nodes":[],"categories_segments":[],"categories_sizes":[],"default_left":[0,0,0,0,0,0,0,0,0,0,0,0,0,0,0,0,0,0,0,0,0,0,0,0,0,0,0,0,0,0,0],"id":12,"left_children":[1,3,5,7,9,11,13,15,17,19,21,23,25,27,29,-1,-1,-1,-1,-1,-1,-1,-1,-1,-1,-1,-1,-1,-1,-1,-1],"loss_changes":[4.529071E2,8.958893E1,2.060556E2,4.2138855E1,4.5692886E1,7.165979E1,4.3733215E1,2.2406708E1,5.5210716E1,1.2780109E1,5.0181416E1,2.9353264E1,3.7506477E1,1.8946594E1,1.7810211E1,0E0,0E0,0E0,0E0,0E0,0E0,0E0,0E0,0E0,0E0,0E0,0E0,0E0,0E0,0E0,0E0],"parents":[2147483647,0,0,1,1,2,2,3,3,4,4,5,5,6,6,7,7,8,8,9,9,10,10,11,11,12,12,13,13,14,14],"right_children":[2,4,6,8,10,12,14,16,18,20,22,24,26,28,30,-1,-1,-1,-1,-1,-1,-1,-1,-1,-1,-1,-1,-1,-1,-1,-1],"split_conditions":[6.5E0,7E0,6.5E0,5.5E0,6E0,5E0,7.5E0,9.5E0,7E0,1.538E1,4.5E0,7.5E0,3.5E0,3E0,4.5E0,-5.568394E-2,3.7234437E-2,-4.4810876E-2,1.5586958E-3,-6.7517415E-2,-6.5259174E-3,-3.1627525E-2,2.3210246E-2,-5.0941195E-2,3.2046136E-2,-5.2721262E-2,1.0665355E-2,-4.3679554E-2,2.4649767E-2,1.2172473E-2,5.1827278E-2],"split_indices":[30,23,18,30,7,18,30,15,18,29,31,23,31,31,31,0,0,0,0,0,0,0,0,0,0,0,0,0,0,0,0],"split_type":[0,0,0,0,0,0,0,0,0,0,0,0,0,0,0,0,0,0,0,0,0,0,0,0,0,0,0,0,0,0,0],"sum_hessian":[1.849786E3,7.830808E2,1.0667052E3,5.456953E2,2.3738553E2,4.135565E2,6.531487E2,2.8349258E2,2.622027E2,4.1754444E1,1.9563109E2,1.05357605E2,3.0819888E2,2.5410397E2,3.9904474E2,2.7789307E2,5.5995307E0,1.5277869E2,1.0942401E2,2.9062992E1,1.2691451E1,5.810384E1,1.3752724E2,9.446671E1,1.0890889E1,2.3909643E1,2.8428925E2,9.196875E0,2.4490709E2,3.2202408E1,3.6684232E2],"tree_param":{"num_deleted":"0","num_feature":"32","num_nodes":"31","size_leaf_vector":"1"}},{"base_weights":[-5.2040707E-2,-6.408172E-1,3.7229204E-1,-1.1542829E0,-4.7654828E-1,-5.5972916E-1,5.3387403E-1,2.8503207E-2,-1.2184591E0,-6.763013E-1,-4.7383547E-2,-3.5293064E-1,-1.2204055E0,2.1557222E-1,8.114118E-1,-6.917696E-2,-4.3235492E-2,-3.855324E-2,2.3190252E-2,-5.272161E-2,5.959962E-3,-4.580271E-2,-4.879992E-3,-6.8946006E-3,-7.022999E-2,-1.4801365E-2,2.0672813E-2,1.7887715E-2,4.4386756E-2],"categories":[],"categories_nodes":[],"categories_segments":[],"categories_sizes":[],"default_left":[0,0,0,0,0,0,0,0,0,0,0,0,0,0,0,0,0,0,0,0,0,0,0,0,0,0,0,0,0],"id":13,"left_children":[1,3,5,7,9,11,13,-1,15,17,19,21,23,25,27,-1,-1,-1,-1,-1,-1,-1,-1,-1,-1,-1,-1,-1,-1],"loss_changes":[4.520084E2,6.2927795E1,1.5878316E2,2.1298996E1,4.9327835E1,2.0508503E1,7.886842E1,0E0,8.285034E0,4.3063354E1,3.1312946E1,1.7165977E1,6.8251305E0,4.271334E1,1.5964294E1,0E0,0E0,0E0,0E0,0E0,0E0,0E0,0E0,0E0,0E0,0E0,0E0,0E0,0E0],"parents":[2147483647,0,0,1,1,2,2,3,3,4,4,5,5,6,6,8,8,9,9,10,10,11,11,12,12,13,13,14,14],"right_children":[2,4,6,8,10,12,14,-1,16,18,20,22,24,26,28,-1,-1,-1,-1,-1,-1,-1,-1,-1,-1,-1,-1,-1,-1],"split_conditions":[6.5E0,4E0,5E0,2E0,2.128E1,4E-1,7E0,2.8503207E-2,3.6E-1,7.5E0,4.5E0,7.5E0,6.5E0,1.915E1,5.5E0,-6.917696E-2,-4.3235492E-2,-3.855324E-2,2.3190252E-2,-5.272161E-2,5.959962E-3,-4.580271E-2,-4.879992E-3,-6.8946006E-3,-7.022999E-2,-1.4801365E-2,2.0672813E-2,1.7887715E-2,4.4386756E-2],"split_indices":[30,31,23,25,26,11,31,0,11,17,30,14,14,26,23,0,0,0,0,0,0,0,0,0,0,0,0,0,0],"split_type":[0,0,0,0,0,0,0,0,0,0,0,0,0,0,0,0,0,0,0,0,0,0,0,0,0,0,0,0,0],"sum_hessian":[1.8061722E3,7.5627905E2,1.0498932E3,1.8096779E2,5.753113E2,1.544862E2,8.9540704E2,6.013341E0,1.7495445E2,3.91836E2,1.8347528E2,1.19525986E2,3.4960213E1,4.184834E2,4.7692365E2,1.1611784E2,5.883661E1,3.622959E2,2.9540113E1,2.4992556E1,1.5848273E2,3.5955067E1,8.357092E1,5.5439806E0,2.9416233E1,1.1637192E2,3.0211148E2,7.009967E1,4.0682397E2],"tree_param":{"num_deleted":"0","num_feature":"32","num_nodes":"29","size_leaf_vector":"1"}},{"base_weights":[3.971878E-2,-4.7287548E-1,4.149891E-1,-7.9878396E-1,-1.5253848E-1,-5.353771E-2,7.2945976E-1,-9.5829654E-1,-1.01460755E-1,-4.9865833E-1,1.7228034E-1,-6.549222E-1,1.4480734E-1,-1.4600758E-1,7.983244E-1,-5.0526775E-2,1.8719358E-2,-5.241238E-2,2.3391051E-2,-5.6000955E-2,-1.72374E-2,-1.6114906E-3,3.4971092E-2,-5.024874E-2,1.989342E-2,1.4756207E-2,-1.4636071E-2,-5.8715094E-2,2.0550167E-2,2.4737068E-2,4.9495857E-2],"categories":[],"categories_nodes":[],"categories_segments":[],"categories_sizes":[],"default_left":[0,0,0,0,0,0,0,0,0,0,0,0,0,0,0,0,0,0,0,0,0,0,0,0,0,0,0,0,0,0,0],"id":14,"left_children":[1,3,5,7,9,11,13,15,17,19,21,23,25,27,29,-1,-1,-1,-1,-1,-1,-1,-1,-1,-1,-1,-1,-1,-1,-1,-1],"loss_changes":[3.5483557E2,8.111453E1,1.5704292E2,4.267688E1,4.4589867E1,5.1365612E1,3.8674652E1,2.247702E1,4.0486126E1,1.7621696E1,2.2182158E1,4.0018303E1,2.141944E1,2.8093967E1,3.3512726E1,0E0,0E0,0E0,0E0,0E0,0E0,0E0,0E0,0E0,0E0,0E0,0E0,0E0,0E0,0E0,0E0],"parents":[2147483647,0,0,1,1,2,2,3,3,4,4,5,5,6,6,7,7,8,8,9,9,10,10,11,11,12,12,13,13,14,14],"right_children":[2,4,6,8,10,12,14,16,18,20,22,24,26,28,30,-1,-1,-1,-1,-1,-1,-1,-1,-1,-1,-1,-1,-1,-1,-1,-1],"split_conditions":[6.5E0,6E0,6.5E0,2.7E1,6.5E0,5E0,5E0,8.5E0,4.5E0,5.5E0,7E0,7E0,5E0,6.6666665E0,7.5E0,-5.0526775E-2,1.8719358E-2,-5.241238E-2,2.3391051E-2,-5.6000955E-2,-1.72374E-2,-1.6114906E-3,3.4971092E-2,-5.024874E-2,1.989342E-2,1.4756207E-2,-1.4636071E-2,-5.8715094E-2,2.0550167E-2,2.4737068E-2,4.9495857E-2],"split_indices":[30,30,18,26,18,18,23,15,30,15,17,23,9,4,30,0,0,0,0,0,0,0,0,0,0,0,0,0,0,0,0],"split_type":[0,0,0,0,0,0,0,0,0,0,0,0,0,0,0,0,0,0,0,0,0,0,0,0,0,0,0,0,0,0,0],"sum_hessian":[1.8416295E3,7.7811694E2,1.0635126E3,3.8443906E2,3.9367792E2,4.275044E2,6.360081E2,3.1229648E2,7.214256E1,1.903501E2,2.0332784E2,1.0529624E2,3.2220816E2,4.6151974E1,5.898562E2,3.0093784E2,1.1358631E1,2.6681509E1,4.5461056E1,3.5790943E1,1.5455914E2,1.4737192E2,5.595592E1,7.9144005E1,2.6152237E1,2.4035045E2,8.185772E1,1.5694906E1,3.0457067E1,2.3050737E2,3.5934882E2],"tree_param":{"num_deleted":"0","num_feature":"32","num_nodes":"31","size_leaf_vector":"1"}},{"base_weights":[3.1130247E-2,-4.0051532E-1,3.797416E-1,-1.1309403E0,-2.3620005E-1,-2.236765E-1,6.5390056E-1,-1.2124283E0,2.2963755E-2,-7.4316674E-1,-4.6732135E-2,-8.6098546E-1,7.56584E-2,3.6157858E-1,8.0369896E-1,-6.630749E-2,-2.937378E-2,-1.8884094E-2,-4.6229605E-2,-3.357097E-2,3.3319672E-3,-5.97766E-2,-1.5669173E-2,9.09037E-3,-5.655699E-2,-3.595233E-3,3.1202028E-2,-1.3878215E-3,4.453028E-2],"categories":[],"categories_nodes":[],"categories_segments":[],"categories_sizes":[],"default_left":[0,0,0,0,0,0,0,0,0,0,0,0,0,0,0,0,0,0,0,0,0,0,0,0,0,0,0,0,0],"id":15,"left_children":[1,3,5,7,9,11,13,15,-1,17,19,21,23,25,27,-1,-1,-1,-1,-1,-1,-1,-1,-1,-1,-1,-1,-1,-1],"loss_changes":[2.747464E2,9.736282E1,1.6737245E2,2.0256348E1,6.402405E1,6.0569073E1,2.9883972E1,8.766632E0,0E0,1.1378441E1,3.4684673E1,1.786345E1,2.7969818E1,2.7252031E1,3.3225983E1,0E0,0E0,0E0,0E0,0E0,0E0,0E0,0E0,0E0,0E0,0E0,0E0,0E0,0E0],"parents":[2147483647,0,0,1,1,2,2,3,3,4,4,5,5,6,6,7,7,9,9,10,10,11,11,12,12,13,13,14,14],"right_children":[2,4,6,8,10,12,14,16,-1,18,20,22,24,26,28,-1,-1,-1,-1,-1,-1,-1,-1,-1,-1,-1,-1,-1,-1],"split_conditions":[6.5E0,3.5E0,6.5E0,5.5E1,5E0,5E0,7.5E0,7E0,2.2963755E-2,1.569E1,6E0,7.5E0,8E0,8E0,4.5E0,-6.630749E-2,-2.937378E-2,-1.8884094E-2,-4.6229605E-2,-3.357097E-2,3.3319672E-3,-5.97766E-2,-1.5669173E-2,9.09037E-3,-5.655699E-2,-3.595233E-3,3.1202028E-2,-1.3878215E-3,4.453028E-2],"split_indices":[18,31,15,24,23,17,15,23,0,25,15,14,9,18,31,0,0,0,0,0,0,0,0,0,0,0,0,0,0],"split_type":[0,0,0,0,0,0,0,0,0,0,0,0,0,0,0,0,0,0,0,0,0,0,0,0,0,0,0,0,0],"sum_hessian":[1.8228397E3,8.141994E2,1.00864026E3,1.47792E2,6.664074E2,3.1507602E2,6.935642E2,1.4098662E2,6.8053923E0,1.7996274E2,4.8644467E2,9.9900055E1,2.1517596E2,2.369533E2,4.5661093E2,1.1772195E2,2.326467E1,6.1414955E1,1.1854778E2,7.372297E1,4.127217E2,6.07988E1,3.9101254E1,1.9902663E2,1.6149336E1,8.962927E1,1.4732402E2,4.3197803E1,4.1341312E2],"tree_param":{"num_deleted":"0","num_feature":"32","num_nodes":"29","size_leaf_vector":"1"}},{"base_weights":[-2.5159411E-2,-3.3346045E-1,4.514141E-1,-6.468878E-1,6.6167824E-2,-2.1134767E-1,6.623345E-1,-1.2297307E0,-4.891919E-1,-2.0625414E-1,5.455291E-1,3.168E-1,-4.538853E-1,3.4448478E-1,8.0456936E-1,-7.5835097E-3,-6.502073E-2,-3.6676574E-2,-8.741085E-3,-1.7115053E-2,3.0997846E-2,3.0727899E-2,-6.076181E-2,2.5092367E-2,-2.5021479E-2,-4.70902E-2,1.8569408E-2,-3.3246723E-3,3.240628E-2,8.847806E-3,4.369333E-2],"categories":[],"categories_nodes":[],"categories_segments":[],"categories_sizes":[],"default_left":[0,0,0,0,0,0,0,0,0,0,0,0,0,0,0,0,0,0,0,0,0,0,0,0,0,0,0,0,0,0,0],"id":16,"left_children":[1,3,5,7,9,11,13,15,17,19,21,23,25,27,29,-1,-1,-1,-1,-1,-1,-1,-1,-1,-1,-1,-1,-1,-1,-1,-1],"loss_changes":[2.578361E2,1.335987E2,9.660477E1,5.384436E1,6.153091E1,2.1674833E1,2.3128662E1,9.16893E0,3.6041725E1,3.4057255E1,2.1810493E1,8.458458E0,4.7080326E1,2.0666601E1,1.5328796E1,0E0,0E0,0E0,0E0,0E0,0E0,0E0,0E0,0E0,0E0,0E0,0E0,0E0,0E0,0E0,0E0],"parents":[2147483647,0,0,1,1,2,2,3,3,4,4,5,5,6,6,7,7,8,8,9,9,10,10,11,11,12,12,13,13,14,14],"right_children":[2,4,6,8,10,12,14,16,18,20,22,24,26,28,30,-1,-1,-1,-1,-1,-1,-1,-1,-1,-1,-1,-1,-1,-1,-1,-1],"split_conditions":[7E0,6.5E0,5.5E0,5E0,7E0,6.67E0,1.9E1,3.6666667E0,6E0,7.5E0,3.2E1,1.026E1,1.552E1,6.5E0,4.5E0,-7.5835097E-3,-6.502073E-2,-3.6676574E-2,-8.741085E-3,-1.7115053E-2,3.0997846E-2,3.0727899E-2,-6.076181E-2,2.5092367E-2,-2.5021479E-2,-4.70902E-2,1.8569408E-2,-3.3246723E-3,3.240628E-2,8.847806E-3,4.369333E-2],"split_indices":[23,18,17,21,17,29,26,5,31,31,0,28,29,31,31,0,0,0,0,0,0,0,0,0,0,0,0,0,0,0,0],"split_type":[0,0,0,0,0,0,0,0,0,0,0,0,0,0,0,0,0,0,0,0,0,0,0,0,0,0,0,0,0,0,0],"sum_hessian":[1.7518887E3,1.0641426E3,6.877461E2,5.9601324E2,4.6812933E2,1.6591736E2,5.2182874E2,1.24613014E2,4.7140024E2,2.9890628E2,1.6922305E2,5.1940536E1,1.1397682E2,1.6312724E2,3.587015E2,8.045002E0,1.1656801E2,2.6393924E2,2.0746098E2,2.5750427E2,4.1402E1,1.6383339E2,5.389661E0,4.2922684E1,9.017852E0,7.157159E1,4.2405228E1,6.9670425E1,9.345682E1,3.6340946E1,3.2236057E2],"tree_param":{"num_deleted":"0","num_feature":"32","num_nodes":"31","size_leaf_vector":"1"}},{"base_weights":[-1.1925912E-2,-4.597895E-1,3.1346798E-1,-7.537904E-1,-1.8000677E-1,-1.179154E-1,6.095912E-1,-9.3800193E-1,-3.0950394E-1,-3.755161E-1,2.4178031E-1,-2.9920292E-1,4.9255034E-1,2.8151515E-1,8.1822956E-1,-4.9106386E-2,4.327826E-2,-4.6573713E-2,1.1790805E-2,-2.9993862E-2,-9.48233E-4,-1.04513755E-2,2.982897E-2,-3.985401E-2,-5.4092365E-3,3.1880308E-2,-4.4973698E-2,5.660209E-4,3.0675754E-2,5.606193E-4,4.3840803E-2],"categories":[],"categories_nodes":[],"categories_segments":[],"categories_sizes":[],"default_left":[0,0,0,0,0,0,0,0,0,0,0,0,0,0,0,0,0,0,0,0,0,0,0,0,0,0,0,0,0,0,0],"id":17,"left_children":[1,3,5,7,9,11,13,15,17,19,21,23,25,27,29,-1,-1,-1,-1,-1,-1,-1,-1,-1,-1,-1,-1,-1,-1,-1,-1],"loss_changes":[2.5508815E2,6.0297363E1,1.2964404E2,2.8784836E1,3.1452438E1,4.5987633E1,4.07126E1,2.1386871E1,3.6856503E1,2.0729805E1,1.9575485E1,3.0217775E1,2.0050734E1,2.1121801E1,1.7232544E1,0E0,0E0,0E0,0E0,0E0,0E0,0E0,0E0,0E0,0E0,0E0,0E0,0E0,0E0,0E0,0E0],"parents":[2147483647,0,0,1,1,2,2,3,3,4,4,5,5,6,6,7,7,8,8,9,9,10,10,11,11,12,12,13,13,14,14],"right_children":[2,4,6,8,10,12,14,16,18,20,22,24,26,28,30,-1,-1,-1,-1,-1,-1,-1,-1,-1,-1,-1,-1,-1,-1,-1,-1],"split_conditions":[7E0,6E0,6.5E0,7E0,7.5E0,7.5E0,7.5E0,9.5E0,6E0,6.5E0,2.4E-1,1.818E1,8.666667E0,7.5E0,5E0,-4.9106386E-2,4.327826E-2,-4.6573713E-2,1.1790805E-2,-2.9993862E-2,-9.48233E-4,-1.04513755E-2,2.982897E-2,-3.985401E-2,-5.4092365E-3,3.1880308E-2,-4.4973698E-2,5.660209E-4,3.0675754E-2,5.606193E-4,4.3840803E-2],"split_indices":[30,30,18,23,21,21,30,15,15,18,11,26,7,15,23,0,0,0,0,0,0,0,0,0,0,0,0,0,0,0,0],"split_type":[0,0,0,0,0,0,0,0,0,0,0,0,0,0,0,0,0,0,0,0,0,0,0,0,0,0,0,0,0,0,0],"sum_hessian":[1.7473074E3,7.351517E2,1.01215564E3,3.5705402E2,3.7809766E2,4.122163E2,5.9993933E2,2.5106473E2,1.0598929E2,2.586215E2,1.1947616E2,3.1854727E2,9.366905E1,2.3477214E2,3.6516718E2,2.4578989E2,5.274833E0,4.9104195E1,5.6885098E1,1.5793576E2,1.0068572E2,5.2766045E1,6.671011E1,8.686258E1,2.316847E2,8.5630684E1,8.038366E0,1.3045502E2,1.0431713E2,2.4952024E1,3.4021518E2],"tree_param":{"num_deleted":"0","num_feature":"32","num_nodes":"31","size_leaf_vector":"1"}},{"base_weights":[3.321932E-2,-6.9988227E-1,2.2184698E-1,-9.2962277E-1,-2.3540208E-1,-5.527616E-1,3.760237E-1,-1.1233003E0,-2.758305E-1,2.0142126E-1,-9.2632794E-1,-8.0205196E-1,-1.8071863E-1,-1.6874732E-2,5.7459086E-1,-5.936271E-2,-1.3278402E-2,-4.836006E-2,1.3738192E-2,-3.138396E-2,4.3555602E-2,-6.1081003E-2,6.3388445E-3,4.931891E-3,-4.856019E-2,-3.1228611E-2,2.1638688E-2,-2.2302106E-2,1.158825E-2,1.360807E-2,4.088446E-2],"categories":[],"categories_nodes":[],"categories_segments":[],"categories_sizes":[],"default_left":[0,0,0,0,0,0,0,0,0,0,0,0,0,0,0,0,0,0,0,0,0,0,0,0,0,0,0,0,0,0,0],"id":18,"left_children":[1,3,5,7,9,11,13,15,17,19,21,23,25,27,29,-1,-1,-1,-1,-1,-1,-1,-1,-1,-1,-1,-1,-1,-1,-1,-1],"loss_changes":[2.4707222E2,3.8570602E1,1.7002939E2,3.0288269E1,3.752018E1,2.161193E1,9.262364E1,9.673157E0,2.249416E1,4.3371292E1,1.5286278E1,2.170816E1,2.6825619E1,4.2813026E1,5.7510498E1,0E0,0E0,0E0,0E0,0E0,0E0,0E0,0E0,0E0,0E0,0E0,0E0,0E0,0E0,0E0,0E0],"parents":[2147483647,0,0,1,1,2,2,3,3,4,4,5,5,6,6,7,7,8,8,9,9,10,10,11,11,12,12,13,13,14,14],"right_children":[2,4,6,8,10,12,14,16,18,20,22,24,26,28,30,-1,-1,-1,-1,-1,-1,-1,-1,-1,-1,-1,-1,-1,-1,-1,-1],"split_conditions":[5.5E0,2.222E1,6E0,8.666667E0,2.045E1,6E0,6.5E0,1.951E1,6.5E0,6.5E0,7E0,6E0,7.5E0,7E0,7.5E0,-5.936271E-2,-1.3278402E-2,-4.836006E-2,1.3738192E-2,-3.138396E-2,4.3555602E-2,-6.1081003E-2,6.3388445E-3,4.931891E-3,-4.856019E-2,-3.1228611E-2,2.1638688E-2,-2.2302106E-2,1.158825E-2,1.360807E-2,4.088446E-2],"split_indices":[30,26,21,5,24,18,12,28,18,21,12,12,12,18,21,0,0,0,0,0,0,0,0,0,0,0,0,0,0,0,0],"split_type":[0,0,0,0,0,0,0,0,0,0,0,0,0,0,0,0,0,0,0,0,0,0,0,0,0,0,0,0,0,0,0],"sum_hessian":[1.7838727E3,3.6412085E2,1.4197517E3,2.424722E2,1.2164867E2,2.3492491E2,1.1848269E3,1.861095E2,5.6362694E1,7.5091576E1,4.6557087E1,1.3946967E2,9.5455246E1,3.980624E2,7.8676447E2,1.7255096E2,1.3558534E1,2.4564354E1,3.1798338E1,3.3527786E1,4.1563793E1,3.624802E1,1.0309068E1,2.2056839E1,1.1741282E2,5.546382E1,3.999143E1,1.4573177E2,2.5233066E2,3.5219843E2,4.34566E2],"tree_param":{"num_deleted":"0","num_feature":"32","num_nodes":"31","size_leaf_vector":"1"}},{"base_weights":[4.2317968E-2,-3.880132E-1,3.4763196E-1,-7.628073E-1,-1.0269015E-1,-2.6529488E-1,5.2255845E-1,-2.224557E-1,-9.736589E-1,-8.079826E-1,5.3383343E-2,-5.520198E-1,1.7963439E-1,-2.3156938E-1,6.0316694E-1,-6.488684E-2,6.549468E-3,3.4944747E-2,-5.1307626E-2,4.1814424E-2,-5.2908372E-2,-9.033358E-3,2.781317E-2,1.2951797E-3,-3.6781505E-2,2.2382211E-2,-5.2483227E-2,-4.3013524E-2,6.5194484E-4,1.968192E-2,4.005205E-2],"categories":[],"categories_nodes":[],"categories_segments":[],"categories_sizes":[],"default_left":[0,0,0,0,0,0,0,0,0,0,0,0,0,0,0,0,0,0,0,0,0,0,0,0,0,0,0,0,0,0,0],"id":19,"left_children":[1,3,5,7,9,11,13,15,17,19,21,23,25,27,29,-1,-1,-1,-1,-1,-1,-1,-1,-1,-1,-1,-1,-1,-1,-1,-1],"loss_changes":[2.3274998E2,7.8412964E1,1.1134473E2,3.5715576E1,4.629462E1,2.9650198E1,4.9294815E1,3.501747E1,2.1101715E1,3.2688538E1,4.074857E1,1.5056736E1,3.0792353E1,1.2232204E1,2.9651855E1,0E0,0E0,0E0,0E0,0E0,0E0,0E0,0E0,0E0,0E0,0E0,0E0,0E0,0E0,0E0,0E0],"parents":[2147483647,0,0,1,1,2,2,3,3,4,4,5,5,6,6,7,7,8,8,9,9,10,10,11,11,12,12,13,13,14,14],"right_children":[2,4,6,8,10,12,14,16,18,20,22,24,26,28,30,-1,-1,-1,-1,-1,-1,-1,-1,-1,-1,-1,-1,-1,-1,-1,-1],"split_conditions":[6.5E0,6.5E0,6E0,1.471E1,6E0,6.5E0,5E0,5E0,1E0,4E0,7E0,1.2E1,8.333333E0,7.5E0,8E0,-6.488684E-2,6.549468E-3,3.4944747E-2,-5.1307626E-2,4.1814424E-2,-5.2908372E-2,-9.033358E-3,2.781317E-2,1.2951797E-3,-3.6781505E-2,2.2382211E-2,-5.2483227E-2,-4.3013524E-2,6.5194484E-4,1.968192E-2,4.005205E-2],"split_indices":[30,21,18,27,7,21,23,21,26,4,12,27,5,14,12,0,0,0,0,0,0,0,0,0,0,0,0,0,0,0,0],"split_type":[0,0,0,0,0,0,0,0,0,0,0,0,0,0,0,0,0,0,0,0,0,0,0,0,0,0,0,0,0,0,0],"sum_hessian":[1.7684866E3,7.336684E2,1.0348181E3,3.158777E2,4.177907E2,2.2946095E2,8.0535724E2,8.966053E1,2.2621718E2,7.46816E1,3.431091E2,1.3945558E2,9.000536E1,7.7380356E1,7.2797687E2,2.125924E1,6.840128E1,6.263801E0,2.1995337E2,9.3457155E0,6.533589E1,2.3465718E2,1.0845193E2,3.38029E1,1.0565268E2,7.474476E1,1.5260607E1,2.0730776E1,5.664958E1,3.559991E2,3.7197772E2],"tree_param":{"num_deleted":"0","num_feature":"32","num_nodes":"31","size_leaf_vector":"1"}},{"base_weights":[6.264092E-3,-3.9640516E-1,3.1915057E-1,-9.819674E-1,-2.6280832E-1,-2.150171E-1,5.5209804E-1,-1.0907189E0,3.919871E-2,-7.470822E-1,-1.115545E-1,-8.427387E-1,-6.1776523E-2,-2.9358816E-1,6.2137485E-1,-5.7050366E-2,-0E0,-5.094711E-2,-1.727955E-2,-1.2579125E-2,2.476467E-2,-5.7645836E-3,-6.320253E-2,-1.5947623E-2,8.918551E-3,-2.7269104E-2,6.489625E-2,-1.4316938E-3,3.4719925E-2],"categories":[],"categories_nodes":[],"categories_segments":[],"categories_sizes":[],"default_left":[0,0,0,0,0,0,0,0,0,0,0,0,0,0,0,0,0,0,0,0,0,0,0,0,0,0,0,0,0],"id":20,"left_children":[1,3,5,7,9,11,13,15,-1,17,19,21,23,25,27,-1,-1,-1,-1,-1,-1,-1,-1,-1,-1,-1,-1,-1,-1],"loss_changes":[2.1883954E2,5.8896347E1,1.218587E2,2.8274384E1,4.5241245E1,2.8479183E1,4.0220932E1,7.2749023E0,0E0,1.54088745E1,4.0505577E1,1.7477974E1,1.4991372E1,2.202255E1,3.001416E1,0E0,0E0,0E0,0E0,0E0,0E0,0E0,0E0,0E0,0E0,0E0,0E0,0E0,0E0],"parents":[2147483647,0,0,1,1,2,2,3,3,4,4,5,5,6,6,7,7,9,9,10,10,11,11,12,12,13,13,14,14],"right_children":[2,4,6,8,10,12,14,16,-1,18,20,22,24,26,28,-1,-1,-1,-1,-1,-1,-1,-1,-1,-1,-1,-1,-1,-1],"split_conditions":[6.5E0,3.5E0,5.5E0,5.5E1,5E0,4E0,5E0,8.5E0,3.919871E-2,3.2E-1,7.5E0,6E0,7E0,9.5E0,4.5E0,-5.7050366E-2,-0E0,-5.094711E-2,-1.727955E-2,-1.2579125E-2,2.476467E-2,-5.7645836E-3,-6.320253E-2,-1.5947623E-2,8.918551E-3,-2.7269104E-2,6.489625E-2,-1.4316938E-3,3.4719925E-2],"split_indices":[18,31,17,24,18,31,23,23,0,11,31,6,16,18,31,0,0,0,0,0,0,0,0,0,0,0,0,0,0],"split_type":[0,0,0,0,0,0,0,0,0,0,0,0,0,0,0,0,0,0,0,0,0,0,0,0,0,0,0,0,0],"sum_hessian":[1.734018E3,7.579081E2,9.761098E2,1.3888663E2,6.190215E2,2.9631693E2,6.797929E2,1.3142339E2,7.463243E0,1.4576175E2,4.732597E2,5.6691006E1,2.3962592E2,5.099378E1,6.2879913E2,1.25552635E2,5.8707466E0,8.538765E1,6.0374096E1,3.8537802E2,8.788168E1,2.1579378E1,3.5111626E1,1.1567394E2,1.2395197E2,4.493362E1,6.060156E0,6.3460186E1,5.653389E2],"tree_param":{"num_deleted":"0","num_feature":"32","num_nodes":"29","size_leaf_vector":"1"}},{"base_weights":[-6.3232677E-3,-4.6140918E-1,2.4775644E-1,-9.7374666E-1,-1.7560208E-1,-1.872407E-1,5.4997844E-1,3.2463234E-2,-1.0392901E0,-7.7364737E-1,3.7437066E-2,-4.597957E-1,1.3400313E-1,3.2477778E-1,6.941936E-1,-5.4324772E-2,5.4500327E-3,-5.961147E-2,-2.0934116E-2,-3.0420706E-2,1.2470062E-2,-4.917797E-2,-1.2890569E-2,2.4768913E-2,-3.399044E-3,-2.593659E-3,2.647444E-2,-1.6704356E-2,3.6267336E-2],"categories":[],"categories_nodes":[],"categories_segments":[],"categories_sizes":[],"default_left":[0,0,0,0,0,0,0,0,0,0,0,0,0,0,0,0,0,0,0,0,0,0,0,0,0,0,0,0,0],"id":21,"left_children":[1,3,5,7,9,11,13,-1,15,17,19,21,23,25,27,-1,-1,-1,-1,-1,-1,-1,-1,-1,-1,-1,-1,-1,-1],"loss_changes":[1.9774576E2,8.935971E1,1.4443845E2,2.4345688E1,5.0482834E1,3.9594654E1,2.060318E1,0E0,1.1718994E1,1.4546486E1,4.0273636E1,2.534932E1,1.5268779E1,1.9830482E1,1.3004883E1,0E0,0E0,0E0,0E0,0E0,0E0,0E0,0E0,0E0,0E0,0E0,0E0,0E0,0E0],"parents":[2147483647,0,0,1,1,2,2,3,3,4,4,5,5,6,6,8,8,9,9,10,10,11,11,12,12,13,13,14,14],"right_children":[2,4,6,8,10,12,14,-1,16,18,20,22,24,26,28,-1,-1,-1,-1,-1,-1,-1,-1,-1,-1,-1,-1,-1,-1],"split_conditions":[6.5E0,5E0,6.5E0,2.3333333E0,1.9E1,7.5E0,8E0,3.2463234E-2,7.5E0,5.5E0,5E0,5E0,1.509E1,7.5E0,6E0,-5.4324772E-2,5.4500327E-3,-5.961147E-2,-2.0934116E-2,-3.0420706E-2,1.2470062E-2,-4.917797E-2,-1.2890569E-2,2.4768913E-2,-3.399044E-3,-2.593659E-3,2.647444E-2,-1.6704356E-2,3.6267336E-2],"split_indices":[15,31,18,5,26,20,18,0,17,17,17,18,25,15,19,0,0,0,0,0,0,0,0,0,0,0,0,0,0],"split_type":[0,0,0,0,0,0,0,0,0,0,0,0,0,0,0,0,0,0,0,0,0,0,0,0,0,0,0,0,0],"sum_hessian":[1.70702E3,6.112933E2,1.0957268E3,2.1747945E2,3.938138E2,4.4929E2,6.4643677E2,7.8639874E0,2.0961546E2,1.0252551E2,2.912883E2,2.428833E2,2.0640672E2,2.5453563E2,3.9190115E2,2.0149979E2,8.115681E0,4.529404E1,5.7231472E1,7.116684E1,2.2012146E2,6.584415E1,1.7703915E2,7.340037E1,1.3300635E2,8.985021E1,1.6468541E2,1.1000729E1,3.8090045E2],"tree_param":{"num_deleted":"0","num_feature":"32","num_nodes":"29","size_leaf_vector":"1"}},{"base_weights":[-5.4715956E-3,-4.654492E-1,3.140853E-1,-1.0203655E0,-3.0536664E-1,-4.694651E-1,4.4735938E-1,2.306171E-2,-1.0754418E0,-9.465677E-1,-1.2733586E-1,-1.4677238E-1,-8.23442E-1,2.875598E-1,8.1405246E-1,-5.9354037E-2,-1.6407276E-2,-5.4786026E-2,-2.7822808E-3,-1.612354E-2,1.1230902E-2,-1.8092716E-2,4.173288E-2,-5.837158E-2,-9.086321E-3,2.830362E-3,2.6459513E-2,-1.7996455E-2,4.2421527E-2],"categories":[],"categories_nodes":[],"categories_segments":[],"categories_sizes":[],"default_left":[0,0,0,0,0,0,0,0,0,0,0,0,0,0,0,0,0,0,0,0,0,0,0,0,0,0,0,0,0],"id":22,"left_children":[1,3,5,7,9,11,13,-1,15,17,19,21,23,25,27,-1,-1,-1,-1,-1,-1,-1,-1,-1,-1,-1,-1,-1,-1],"loss_changes":[2.4767091E2,6.0765533E1,1.0412022E2,1.3362579E1,6.117391E1,1.6298735E1,4.9372375E1,0E0,1.1685181E1,1.5294312E1,2.9187698E1,1.68475E1,1.4719601E1,3.3090908E1,1.0883835E1,0E0,0E0,0E0,0E0,0E0,0E0,0E0,0E0,0E0,0E0,0E0,0E0,0E0,0E0],"parents":[2147483647,0,0,1,1,2,2,3,3,4,4,5,5,6,6,8,8,9,9,10,10,11,11,12,12,13,13,14,14],"right_children":[2,4,6,8,10,12,14,-1,16,18,20,22,24,26,28,-1,-1,-1,-1,-1,-1,-1,-1,-1,-1,-1,-1,-1,-1],"split_conditions":[6.5E0,5E0,6E0,-4.4E-1,5E0,5.5E0,7.5E0,2.306171E-2,6.5E0,6.5E0,2.083E1,2.7E1,7.3333335E0,7E0,4.3333335E0,-5.9354037E-2,-1.6407276E-2,-5.4786026E-2,-2.7822808E-3,-1.612354E-2,1.1230902E-2,-1.8092716E-2,4.173288E-2,-5.837158E-2,-9.086321E-3,2.830362E-3,2.6459513E-2,-1.7996455E-2,4.2421527E-2],"split_indices":[30,23,21,11,12,22,31,0,31,17,26,26,4,23,7,0,0,0,0,0,0,0,0,0,0,0,0,0,0],"split_type":[0,0,0,0,0,0,0,0,0,0,0,0,0,0,0,0,0,0,0,0,0,0,0,0,0,0,0,0,0],"sum_hessian":[1.6818673E3,6.893004E2,9.9256683E2,1.5238423E2,5.3691614E2,1.4362526E2,8.489416E2,5.0000925E0,1.4738414E2,1.1515031E2,4.2176584E2,7.6390526E1,6.723473E1,5.9332715E2,2.5561446E2,1.2734365E2,2.0040495E1,9.824557E1,1.6904736E1,2.7159457E2,1.5017128E2,6.3519066E1,1.2871462E1,4.2869816E1,2.436492E1,3.045248E2,2.8880234E2,6.7853904E0,2.4882906E2],"tree_param":{"num_deleted":"0","num_feature":"32","num_nodes":"29","size_leaf_vector":"1"}},{"base_weights":[3.608695E-2,-4.5044136E-1,2.998743E-1,-1.0150461E0,-2.5916412E-1,-3.494633E-1,4.6889943E-1,-3.5615E-1,-1.1876618E0,-4.2931238E-1,4.6726894E-1,-9.541134E-1,-1.3513504E-1,3.4231687E-1,8.548587E-1,-4.774003E-2,3.1276315E-2,-6.315282E-2,1.26331765E-2,-6.1454393E-2,-1.5750675E-2,6.985321E-3,4.7345024E-2,-6.5679766E-2,-2.479524E-2,3.2661624E-2,-1.5716245E-2,4.245949E-3,2.585862E-2,-5.4973713E-3,4.6399474E-2],"categories":[],"categories_nodes":[],"categories_segments":[],"categories_sizes":[],"default_left":[0,0,0,0,0,0,0,0,0,0,0,0,0,0,0,0,0,0,0,0,0,0,0,0,0,0,0,0,0,0,0],"id":23,"left_children":[1,3,5,7,9,11,13,15,17,19,21,23,25,27,29,-1,-1,-1,-1,-1,-1,-1,-1,-1,-1,-1,-1,-1,-1,-1,-1],"loss_changes":[2.2274495E2,6.536948E1,1.2378559E2,1.669777E1,5.689187E1,2.9918575E1,4.31084E1,2.1015524E1,1.3726852E1,3.3259712E1,1.3440119E1,8.833473E0,2.4860117E1,3.0287788E1,1.5725235E1,0E0,0E0,0E0,0E0,0E0,0E0,0E0,0E0,0E0,0E0,0E0,0E0,0E0,0E0,0E0,0E0],"parents":[2147483647,0,0,1,1,2,2,3,3,4,4,5,5,6,6,7,7,8,8,9,9,10,10,11,11,12,12,13,13,14,14],"right_children":[2,4,6,8,10,12,14,16,18,20,22,24,26,28,30,-1,-1,-1,-1,-1,-1,-1,-1,-1,-1,-1,-1,-1,-1,-1,-1],"split_conditions":[6.5E0,6E0,6E0,5E0,7E0,6.3333335E0,7.5E0,5.5E0,2.2E1,3.5E0,7.5E0,5.5E0,1.111E1,7.5E0,6E0,-4.774003E-2,3.1276315E-2,-6.315282E-2,1.26331765E-2,-6.1454393E-2,-1.5750675E-2,6.985321E-3,4.7345024E-2,-6.5679766E-2,-2.479524E-2,3.2661624E-2,-1.5716245E-2,4.245949E-3,2.585862E-2,-5.4973713E-3,4.6399474E-2],"split_indices":[21,30,12,16,23,6,31,23,29,18,30,30,24,21,18,0,0,0,0,0,0,0,0,0,0,0,0,0,0,0,0],"split_type":[0,0,0,0,0,0,0,0,0,0,0,0,0,0,0,0,0,0,0,0,0,0,0,0,0,0,0,0,0,0,0],"sum_hessian":[1.732623E3,6.086292E2,1.1239938E3,1.5224767E2,4.563816E2,2.3169743E2,8.922964E2,3.267962E1,1.1956804E2,3.7038065E2,8.600094E1,5.9158627E1,1.725388E2,6.742522E2,2.1804414E2,2.0388897E1,1.2290724E1,1.13861916E2,5.7061214E0,4.4374855E1,3.260058E2,5.237621E1,3.362473E1,3.145923E1,2.7699396E1,3.1115612E1,1.4142319E2,2.7388193E2,4.003703E2,1.5213363E1,2.0283078E2],"tree_param":{"num_deleted":"0","num_feature":"32","num_nodes":"31","size_leaf_vector":"1"}},{"base_weights":[2.7273986E-3,-3.8241667E-1,2.9536122E-1,-9.2847544E-1,-2.3183711E-1,-1.594993E-1,6.0884964E-1,-1.0028118E0,2.9419595E-2,-7.4880993E-1,-5.9012927E-2,-8.2950735E-1,-2.8672254E-2,3.6253637E-1,7.7824026E-1,-6.0745683E-2,-3.9249E-2,-5.223477E-2,7.144735E-3,1.4696933E-2,-1.2389231E-2,-5.1321287E-2,5.2399036E-2,2.2683695E-2,-9.378272E-3,2.5491131E-2,-1.1316174E-2,4.062998E-2,-1.7621895E-2],"categories":[],"categories_nodes":[],"categories_segments":[],"categories_sizes":[],"default_left":[0,0,0,0,0,0,0,0,0,0,0,0,0,0,0,0,0,0,0,0,0,0,0,0,0,0,0,0,0],"id":24,"left_children":[1,3,5,7,9,11,13,15,-1,17,19,21,23,25,27,-1,-1,-1,-1,-1,-1,-1,-1,-1,-1,-1,-1,-1,-1],"loss_changes":[1.8878828E2,5.9018227E1,1.3594272E2,1.8478119E1,5.068545E1,3.4018963E1,2.2996078E1,5.2537537E0,0E0,3.7851463E1,2.8632557E1,2.5069252E1,2.5203941E1,2.0399462E1,1.3399002E1,0E0,0E0,0E0,0E0,0E0,0E0,0E0,0E0,0E0,0E0,0E0,0E0,0E0,0E0],"parents":[2147483647,0,0,1,1,2,2,3,3,4,4,5,5,6,6,7,7,9,9,10,10,11,11,12,12,13,13,14,14],"right_children":[2,4,6,8,10,12,14,16,-1,18,20,22,24,26,28,-1,-1,-1,-1,-1,-1,-1,-1,-1,-1,-1,-1,-1,-1],"split_conditions":[6.5E0,6E0,6.5E0,8.5E0,5E0,5E0,7.5E0,1.957E1,2.9419595E-2,8.333333E0,1.509E1,6.6E-1,1.395E1,2.9E1,9.333333E0,-6.0745683E-2,-3.9249E-2,-5.223477E-2,7.144735E-3,1.4696933E-2,-1.2389231E-2,-5.1321287E-2,5.2399036E-2,2.2683695E-2,-9.378272E-3,2.5491131E-2,-1.1316174E-2,4.062998E-2,-1.7621895E-2],"split_indices":[12,21,18,18,12,21,21,25,0,6,24,11,25,0,7,0,0,0,0,0,0,0,0,0,0,0,0,0,0],"split_type":[0,0,0,0,0,0,0,0,0,0,0,0,0,0,0,0,0,0,0,0,0,0,0,0,0,0,0,0,0],"sum_hessian":[1.6721222E3,7.2160046E2,9.505217E2,1.5415665E2,5.674438E2,3.8798587E2,5.625359E2,1.4750233E2,6.654313E0,1.407719E2,4.266719E2,6.194912E1,3.2603677E2,2.3138156E2,3.311543E2,7.102279E1,7.6479546E1,1.0558986E2,3.518204E1,1.4820448E2,2.784674E2,5.6732048E1,5.217072E0,7.994339E1,2.4609337E2,1.8538423E2,4.5997334E1,3.2188327E2,9.271053E0],"tree_param":{"num_deleted":"0","num_feature":"32","num_nodes":"29","size_leaf_vector":"1"}},{"base_weights":[-3.0229918E-3,-3.7306353E-1,2.98907E-1,-5.067562E-1,1.9787921E-1,-4.162119E-1,4.1685688E-1,-9.8187864E-1,-3.6330596E-1,-1.7079671E-3,9.3461657E-1,3.924591E-2,-5.309211E-1,1.1919052E-2,5.064089E-1,-5.391392E-2,1.0772504E-2,3.588995E-2,-2.166591E-2,-1.739703E-2,2.9655376E-2,5.4601576E-2,1.2158367E-2,-3.8719874E-2,-1.2779764E-3,2.8599322E-2,-1.4097536E-2,-1.726841E-2,2.7724603E-2],"categories":[],"categories_nodes":[],"categories_segments":[],"categories_sizes":[],"default_left":[0,0,0,0,0,0,0,0,0,0,0,0,0,0,0,0,0,0,0,0,0,0,0,0,0,0,0,0,0],"id":25,"left_children":[1,3,5,7,9,11,13,15,17,19,21,-1,23,25,27,-1,-1,-1,-1,-1,-1,-1,-1,-1,-1,-1,-1,-1,-1],"loss_changes":[1.8478143E2,5.691291E1,7.7065956E1,4.0413773E1,2.0968891E1,1.8449818E1,2.831578E1,1.6449036E1,3.567474E1,2.3574173E1,2.773573E0,0E0,1.456097E1,2.3881433E1,2.6543472E1,0E0,0E0,0E0,0E0,0E0,0E0,0E0,0E0,0E0,0E0,0E0,0E0,0E0,0E0],"parents":[2147483647,0,0,1,1,2,2,3,3,4,4,5,5,6,6,7,7,8,8,9,9,10,10,12,12,13,13,14,14],"right_children":[2,4,6,8,10,12,14,16,18,20,22,-1,24,26,28,-1,-1,-1,-1,-1,-1,-1,-1,-1,-1,-1,-1,-1,-1],"split_conditions":[5.5E0,7.5E0,5E0,5E0,8.333333E0,-3.5E-1,5.5E0,9.5E0,2.6666667E0,8.5E0,2.041E1,3.924591E-2,6.5E0,1E1,5E0,-5.391392E-2,1.0772504E-2,3.588995E-2,-2.166591E-2,-1.739703E-2,2.9655376E-2,5.4601576E-2,1.2158367E-2,-3.8719874E-2,-1.2779764E-3,2.8599322E-2,-1.4097536E-2,-1.726841E-2,2.7724603E-2],"split_indices":[31,30,23,23,4,11,17,20,4,19,27,0,21,29,7,0,0,0,0,0,0,0,0,0,0,0,0,0,0],"split_type":[0,0,0,0,0,0,0,0,0,0,0,0,0,0,0,0,0,0,0,0,0,0,0,0,0,0,0,0,0],"sum_hessian":[1.6508118E3,7.417333E2,9.090785E2,6.012805E2,1.4045276E2,1.2805461E2,7.810239E2,1.3724527E2,4.6403522E2,1.1158453E2,2.8868223E1,1.0323243E1,1.1773137E2,1.4195326E2,6.390706E2,1.27234024E2,1.0011249E1,2.729216E1,4.3674307E2,7.102987E1,4.055467E1,2.2689186E1,6.1790366E0,7.877988E1,3.8951492E1,4.847968E1,9.347359E1,3.3541462E1,6.055292E2],"tree_param":{"num_deleted":"0","num_feature":"32","num_nodes":"29","size_leaf_vector":"1"}},{"base_weights":[8.3544785E-3,-3.4418914E-1,2.9639333E-1,-1.0471243E0,-2.1309613E-1,-5.108107E-1,4.290016E-1,-1.1614918E0,3.333171E-2,-4.236805E-1,1.8649375E-1,-1.0481894E0,-3.0430874E-1,8.746015E-2,5.9723675E-1,-6.191442E-2,-2.846157E-2,-2.8410038E-2,9.0440875E-3,2.0919876E-2,-1.0323454E-2,-6.562987E-2,8.912149E-3,-6.277689E-2,-7.363897E-3,1.4301367E-2,-2.006553E-2,8.253737E-3,4.044007E-2],"categories":[],"categories_nodes":[],"categories_segments":[],"categories_sizes":[],"default_left":[0,0,0,0,0,0,0,0,0,0,0,0,0,0,0,0,0,0,0,0,0,0,0,0,0,0,0,0,0],"id":26,"left_children":[1,3,5,7,9,11,13,15,-1,17,19,21,23,25,27,-1,-1,-1,-1,-1,-1,-1,-1,-1,-1,-1,-1,-1,-1],"loss_changes":[1.6792987E2,6.8051125E1,9.7759224E1,2.4016869E1,5.3039383E1,1.370364E1,4.4830307E1,3.750595E0,0E0,3.621572E1,2.0001497E1,1.1836208E1,1.38402605E1,2.5421785E1,4.7610413E1,0E0,0E0,0E0,0E0,0E0,0E0,0E0,0E0,0E0,0E0,0E0,0E0,0E0,0E0],"parents":[2147483647,0,0,1,1,2,2,3,3,4,4,5,5,6,6,7,7,9,9,10,10,11,11,12,12,13,13,14,14],"right_children":[2,4,6,8,10,12,14,16,-1,18,20,22,24,26,28,-1,-1,-1,-1,-1,-1,-1,-1,-1,-1,-1,-1,-1,-1],"split_conditions":[6E0,4.5E0,5E0,9.5E0,7E0,5E0,6.5E0,1.8E1,3.333171E-2,7.5E0,4E0,9E0,1.429E1,7.3333335E0,6.5E0,-6.191442E-2,-2.846157E-2,-2.8410038E-2,9.0440875E-3,2.0919876E-2,-1.0323454E-2,-6.562987E-2,8.912149E-3,-6.277689E-2,-7.363897E-3,1.4301367E-2,-2.006553E-2,8.253737E-3,4.044007E-2],"split_indices":[31,30,23,14,23,18,12,28,0,18,9,30,24,4,18,0,0,0,0,0,0,0,0,0,0,0,0,0,0],"split_type":[0,0,0,0,0,0,0,0,0,0,0,0,0,0,0,0,0,0,0,0,0,0,0,0,0,0,0,0,0],"sum_hessian":[1.6507681E3,7.419827E2,9.0878534E2,1.1485787E2,6.271248E2,1.27520294E2,7.812651E2,1.08180214E2,6.6776648E0,4.107951E2,2.1632974E2,3.35681E1,9.3952194E1,2.587796E2,5.224854E2,9.416509E1,1.4015121E1,3.3174686E2,7.904825E1,1.361433E2,8.018644E1,2.759501E1,5.9730887E0,1.1735177E1,8.221702E1,1.8460791E2,7.417171E1,1.7275099E2,3.4973447E2],"tree_param":{"num_deleted":"0","num_feature":"32","num_nodes":"29","size_leaf_vector":"1"}},{"base_weights":[3.265681E-2,-5.9557116E-1,1.87106E-1,-6.774151E-1,4.5633364E-1,-3.562077E-2,5.0464964E-1,-8.6849314E-1,-1.4947781E-1,-2.955437E-1,6.516697E-2,-6.1685234E-1,4.594118E-2,6.5197223E-1,2.624689E-1,-5.7971824E-2,-2.9937318E-2,-3.636E-2,1.0888016E-2,3.0794462E-2,-6.228894E-2,-2.2349944E-2,-6.8930306E-2,-7.832359E-3,1.5732719E-2,3.5418265E-2,1.0196716E-2,1.6537312E-2,-5.1358547E-2],"categories":[],"categories_nodes":[],"categories_segments":[],"categories_sizes":[],"default_left":[0,0,0,0,0,0,0,0,0,0,0,0,0,0,0,0,0,0,0,0,0,0,0,0,0,0,0,0,0],"id":27,"left_children":[1,3,5,7,9,11,13,15,17,19,-1,21,23,25,27,-1,-1,-1,-1,-1,-1,-1,-1,-1,-1,-1,-1,-1,-1],"loss_changes":[1.6243144E2,2.8923775E1,9.512342E1,3.0689667E1,1.6379013E1,3.760307E1,1.9429184E1,1.6447906E1,1.8021051E1,1.3529774E1,0E0,1.1522068E1,3.7924217E1,8.368225E0,1.9144897E1,0E0,0E0,0E0,0E0,0E0,0E0,0E0,0E0,0E0,0E0,0E0,0E0,0E0,0E0],"parents":[2147483647,0,0,1,1,2,2,3,3,4,4,5,5,6,6,7,7,8,8,9,9,11,11,12,12,13,13,14,14],"right_children":[2,4,6,8,10,12,14,16,18,20,-1,22,24,26,28,-1,-1,-1,-1,-1,-1,-1,-1,-1,-1,-1,-1,-1,-1],"split_conditions":[6E0,8.5E0,7.5E0,7E0,7.5E0,5E0,1.321E1,4.5E0,5.5E0,6E0,6.516697E-2,8.5E0,7.5E0,9.5E0,9.333333E0,-5.7971824E-2,-2.9937318E-2,-3.636E-2,1.0888016E-2,3.0794462E-2,-6.228894E-2,-2.2349944E-2,-6.8930306E-2,-7.832359E-3,1.5732719E-2,3.5418265E-2,1.0196716E-2,1.6537312E-2,-5.1358547E-2],"split_indices":[30,23,21,15,14,21,29,30,23,13,0,13,15,22,7,0,0,0,0,0,0,0,0,0,0,0,0,0,0],"split_type":[0,0,0,0,0,0,0,0,0,0,0,0,0,0,0,0,0,0,0,0,0,0,0,0,0,0,0,0,0],"sum_hessian":[1.6712435E3,3.288208E2,1.3424227E3,3.056673E2,2.31535E1,7.8960583E2,5.528169E2,2.2358678E2,8.208051E1,1.2720343E1,1.0433157E1,9.6106636E1,6.934992E2,3.41889E2,2.1092786E2,1.05008606E2,1.1857816E2,3.1433228E1,5.0647285E1,6.708411E0,6.011932E0,8.063776E1,1.546888E1,3.9554398E2,2.9795523E2,3.0269504E2,3.919397E1,2.0145508E2,9.472779E0],"tree_param":{"num_deleted":"0","num_feature":"32","num_nodes":"29","size_leaf_vector":"1"}},{"base_weights":[5.2305814E-2,-2.8803006E-1,2.9135174E-1,-7.4203736E-1,-1.6572621E-1,-5.077773E-1,3.7945274E-1,-1.1381739E0,-2.8988388E-1,-3.7467176E-1,2.1812837E-1,-7.42639E-1,3.3065704E-1,1.1788216E-1,6.266326E-1,-1.1075262E-2,-5.9917945E-2,-4.5532197E-2,9.322044E-3,-4.4462815E-2,-1.1855051E-2,-2.735868E-2,2.1834921E-2,-4.870788E-2,2.0823052E-2,-3.990466E-2,3.9052185E-2,-1.8545764E-3,3.065948E-2,-7.533236E-4,3.5384458E-2],"categories":[],"categories_nodes":[],"categories_segments":[],"categories_sizes":[],"default_left":[0,0,0,0,0,0,0,0,0,0,0,0,0,0,0,0,0,0,0,0,0,0,0,0,0,0,0,0,0,0,0],"id":28,"left_children":[1,3,5,7,9,11,13,15,17,19,21,23,25,27,29,-1,-1,-1,-1,-1,-1,-1,-1,-1,-1,-1,-1,-1,-1,-1,-1],"loss_changes":[1.3471498E2,3.765706E1,6.8757256E1,2.522084E1,4.3470093E1,1.953315E1,5.6521744E1,3.6704407E0,2.0891342E1,2.4387703E1,3.233114E1,2.1171783E1,1.2217092E1,3.295827E1,2.3512115E1,0E0,0E0,0E0,0E0,0E0,0E0,0E0,0E0,0E0,0E0,0E0,0E0,0E0,0E0,0E0,0E0],"parents":[2147483647,0,0,1,1,2,2,3,3,4,4,5,5,6,6,7,7,8,8,9,9,10,10,11,11,12,12,13,13,14,14],"right_children":[2,4,6,8,10,12,14,16,18,20,22,24,26,28,30,-1,-1,-1,-1,-1,-1,-1,-1,-1,-1,-1,-1,-1,-1,-1,-1],"split_conditions":[6.5E0,5E0,5E0,2.7E1,2.083E1,7E0,8E0,4.3333335E0,6E0,6E0,4.5E0,3E1,1.7E1,7.5E0,4.5E0,-1.1075262E-2,-5.9917945E-2,-4.5532197E-2,9.322044E-3,-4.4462815E-2,-1.1855051E-2,-2.735868E-2,2.1834921E-2,-4.870788E-2,2.0823052E-2,-3.990466E-2,3.9052185E-2,-1.8545764E-3,3.065948E-2,-7.533236E-4,3.5384458E-2],"split_indices":[30,23,18,0,26,23,12,6,12,7,30,26,24,31,31,0,0,0,0,0,0,0,0,0,0,0,0,0,0,0,0],"split_type":[0,0,0,0,0,0,0,0,0,0,0,0,0,0,0,0,0,0,0,0,0,0,0,0,0,0,0,0,0,0,0],"sum_hessian":[1.6528209E3,6.816345E2,9.7118634E2,1.4286885E2,5.387657E2,9.561553E1,8.7557086E2,7.4820656E1,6.80482E1,3.490577E2,1.8970798E2,7.4919716E1,2.0695816E1,4.2667493E2,4.488959E2,5.1446867E0,6.9675964E1,2.9042025E1,3.9006176E1,7.17507E1,2.77307E2,4.1541557E1,1.4816641E2,6.271803E1,1.2201684E1,5.5090604E0,1.5186756E1,3.258938E2,1.00781136E2,5.0341988E1,3.9855392E2],"tree_param":{"num_deleted":"0","num_feature":"32","num_nodes":"31","size_leaf_vector":"1"}},{"base_weights":[-1.48725E-2,-2.5746202E-1,3.6102846E-1,-4.5147476E-1,1.6035137E-1,-8.560431E-1,4.402515E-1,-3.1965834E-1,-8.886425E-1,-1.2627419E-2,6.4608365E-1,-6.355854E-2,-2.2064926E-1,1.10224105E-1,5.612852E-1,-2.6237413E-2,2.8448866E-3,1.1215887E-2,-5.3214032E-2,-2.0389466E-2,1.9990923E-2,3.976604E-2,-9.447623E-3,1.5015194E-2,-5.6357916E-2,4.0152002E-2,-9.268931E-3,2.9424205E-2,-4.5306347E-2],"categories":[],"categories_nodes":[],"categories_segments":[],"categories_sizes":[],"default_left":[0,0,0,0,0,0,0,0,0,0,0,0,0,0,0,0,0,0,0,0,0,0,0,0,0,0,0,0,0],"id":29,"left_children":[1,3,5,7,9,11,13,15,17,19,21,-1,23,25,27,-1,-1,-1,-1,-1,-1,-1,-1,-1,-1,-1,-1,-1,-1],"loss_changes":[1.4668361E2,7.940018E1,6.1348305E1,3.7964447E1,2.620721E1,9.713249E0,2.3540817E1,3.9940624E1,3.0507904E1,3.7838802E1,1.048642E1,0E0,8.767807E0,3.3319168E1,1.807164E1,0E0,0E0,0E0,0E0,0E0,0E0,0E0,0E0,0E0,0E0,0E0,0E0,0E0,0E0],"parents":[2147483647,0,0,1,1,2,2,3,3,4,4,5,5,6,6,7,7,8,8,9,9,10,10,12,12,13,13,14,14],"right_children":[2,4,6,8,10,12,14,16,18,20,22,-1,24,26,28,-1,-1,-1,-1,-1,-1,-1,-1,-1,-1,-1,-1,-1,-1],"split_conditions":[7.5E0,7E0,4.5E0,2.9E1,8E0,8E0,1.837E1,3.7E-1,8E0,2.6E-1,3.158E1,-6.355854E-2,5E0,6E0,1E1,-2.6237413E-2,2.8448866E-3,1.1215887E-2,-5.3214032E-2,-2.0389466E-2,1.9990923E-2,3.976604E-2,-9.447623E-3,1.5015194E-2,-5.6357916E-2,4.0152002E-2,-9.268931E-3,2.9424205E-2,-4.5306347E-2],"split_indices":[21,31,30,0,18,5,26,11,25,11,24,0,17,29,9,0,0,0,0,0,0,0,0,0,0,0,0,0,0],"split_type":[0,0,0,0,0,0,0,0,0,0,0,0,0,0,0,0,0,0,0,0,0,0,0,0,0,0,0,0,0],"sum_hessian":[1.60564E3,9.7631134E2,6.293287E2,6.667997E2,3.0951166E2,3.7485386E1,5.918433E2,5.144933E2,1.5230638E2,2.2915883E2,8.035282E1,2.1669538E1,1.58158455E1,1.5980067E2,4.3204263E2,3.3287134E2,1.8162196E2,2.0625355E1,1.3168103E2,1.1716406E2,1.11994774E2,6.833172E1,1.2021103E1,1.0610799E1,5.205046E0,4.7122097E1,1.1267858E2,4.2512933E2,6.913297E0],"tree_param":{"num_deleted":"0","num_feature":"32","num_nodes":"29","size_leaf_vector":"1"}},{"base_weights":[9.268832E-3,-6.3307387E-1,1.639233E-1,-3.2057405E-1,-8.921585E-1,-1.3959837E-1,3.923667E-1,-7.0338726E-1,3.1884986E-1,-4.4472384E-1,-1.0447228E0,-2.8383547E-1,2.8852907E-1,1.7983471E-1,6.736142E-1,-4.213737E-2,2.0131553E-2,4.8191067E-2,-1.7648868E-2,-5.242268E-2,1.23627065E-2,-5.6683935E-2,-2.555762E-2,-5.5290062E-2,-1.0537869E-2,2.9098231E-2,-1.2740464E-3,-6.40888E-2,1.193783E-2,-2.3534657E-2,3.5062216E-2],"categories":[],"categories_nodes":[],"categories_segments":[],"categories_sizes":[],"default_left":[0,0,0,0,0,0,0,0,0,0,0,0,0,0,0,0,0,0,0,0,0,0,0,0,0,0,0,0,0,0,0],"id":30,"left_children":[1,3,5,7,9,11,13,15,17,19,21,23,25,27,29,-1,-1,-1,-1,-1,-1,-1,-1,-1,-1,-1,-1,-1,-1,-1,-1],"loss_changes":[1.6246909E2,2.5141739E1,9.1532036E1,3.619901E1,1.0927689E1,3.5144623E1,4.4736816E1,1.4750542E1,2.4724586E1,1.9951273E1,5.010391E0,2.505677E1,1.3299387E1,3.7480255E1,1.0740448E1,0E0,0E0,0E0,0E0,0E0,0E0,0E0,0E0,0E0,0E0,0E0,0E0,0E0,0E0,0E0,0E0],"parents":[2147483647,0,0,1,1,2,2,3,3,4,4,5,5,6,6,7,7,8,8,9,9,10,10,11,11,12,12,13,13,14,14],"right_children":[2,4,6,8,10,12,14,16,18,20,22,24,26,28,30,-1,-1,-1,-1,-1,-1,-1,-1,-1,-1,-1,-1,-1,-1,-1,-1],"split_conditions":[6E0,3E0,6.5E0,7E0,1.053E1,7E0,7.5E0,8.5E0,1.591E1,7.5E0,8.666667E0,4E0,3E0,3E0,1.5E0,-4.213737E-2,2.0131553E-2,4.8191067E-2,-1.7648868E-2,-5.242268E-2,1.23627065E-2,-5.6683935E-2,-2.555762E-2,-5.5290062E-2,-1.0537869E-2,2.9098231E-2,-1.2740464E-3,-6.40888E-2,1.193783E-2,-2.3534657E-2,3.5062216E-2],"split_indices":[30,9,18,23,25,23,30,18,24,22,7,21,9,31,31,0,0,0,0,0,0,0,0,0,0,0,0,0,0,0,0],"split_type":[0,0,0,0,0,0,0,0,0,0,0,0,0,0,0,0,0,0,0,0,0,0,0,0,0,0,0,0,0,0,0],"sum_hessian":[1.6328712E3,3.1582697E2,1.3170443E3,1.4485246E2,1.7097452E2,5.6564496E2,7.5139935E2,9.0611244E1,5.4241215E1,4.513429E1,1.25840225E2,4.2365405E2,1.4199088E2,4.2958612E2,3.2181323E2,8.086907E1,9.742168E0,2.741705E1,2.6824165E1,2.3768648E1,2.136564E1,1.0625166E2,1.9588562E1,3.274782E1,3.9090625E2,7.290303E1,6.9087845E1,1.5374707E1,4.1421143E2,6.9347763E0,3.1487845E2],"tree_param":{"num_deleted":"0","num_feature":"32","num_nodes":"31","size_leaf_vector":"1"}},{"base_weights":[-4.1468773E-4,-3.0382663E-1,2.358424E-1,-7.4702626E-1,-1.9179407E-1,-1.7099718E-2,5.5645084E-1,2.0141502E-1,-8.3994853E-1,-9.0437084E-1,-1.1188507E-1,-1.7880265E-1,3.9188638E-1,5.8110845E-1,-3.0467052E-2,-2.469561E-2,5.204698E-2,-3.6989495E-3,-4.6515185E-2,-5.86148E-2,-5.2724616E-3,2.1171977E-3,-1.7248577E-2,-4.3766003E-2,-3.3476409E-3,2.9489357E-2,-3.013674E-3,3.0935531E-2,-2.756591E-3],"categories":[],"categories_nodes":[],"categories_segments":[],"categories_sizes":[],"default_left":[0,0,0,0,0,0,0,0,0,0,0,0,0,0,0,0,0,0,0,0,0,0,0,0,0,0,0,0,0],"id":31,"left_children":[1,3,5,7,9,11,13,15,17,19,21,23,25,27,-1,-1,-1,-1,-1,-1,-1,-1,-1,-1,-1,-1,-1,-1,-1],"loss_changes":[1.14624954E2,3.445694E1,7.295492E1,1.2707169E1,3.1696133E1,3.3394806E1,1.1928535E1,8.79871E0,8.68438E0,1.1724876E1,1.8255041E1,2.8033209E1,1.2903484E1,9.419403E0,0E0,0E0,0E0,0E0,0E0,0E0,0E0,0E0,0E0,0E0,0E0,0E0,0E0,0E0,0E0],"parents":[2147483647,0,0,1,1,2,2,3,3,4,4,5,5,6,6,7,7,8,8,9,9,10,10,11,11,12,12,13,13],"right_children":[2,4,6,8,10,12,14,16,18,20,22,24,26,28,-1,-1,-1,-1,-1,-1,-1,-1,-1,-1,-1,-1,-1,-1,-1],"split_conditions":[6.5E0,6E0,6.5E0,3.3333333E0,5.5E0,7.5E0,3.5E1,7E0,1E0,1.957E1,1.5E1,7E0,1.351E1,6.4E-1,-3.0467052E-2,-2.469561E-2,5.204698E-2,-3.6989495E-3,-4.6515185E-2,-5.86148E-2,-5.2724616E-3,2.1171977E-3,-1.7248577E-2,-4.3766003E-2,-3.3476409E-3,2.9489357E-2,-3.013674E-3,3.0935531E-2,-2.756591E-3],"split_indices":[18,15,17,5,20,15,26,8,9,29,29,19,28,11,0,0,0,0,0,0,0,0,0,0,0,0,0,0,0],"split_type":[0,0,0,0,0,0,0,0,0,0,0,0,0,0,0,0,0,0,0,0,0,0,0,0,0,0,0,0,0],"sum_hessian":[1.5959542E3,6.9867664E2,8.972776E2,1.3908063E2,5.59596E2,5.0218765E2,3.950899E2,1.2158049E1,1.26922585E2,5.4739235E1,5.0485678E2,3.6067462E2,1.4151305E2,3.877272E2,7.362714E0,6.9227524E0,5.2352962E0,1.3796885E1,1.131257E2,4.037346E1,1.4365776E1,3.043033E2,2.0055344E2,4.836439E1,3.1231024E2,9.8267876E1,4.3245167E1,3.662784E2,2.1448776E1],"tree_param":{"num_deleted":"0","num_feature":"32","num_nodes":"29","size_leaf_vector":"1"}},{"base_weights":[-1.0933861E-2,-5.746915E-1,1.1806287E-1,-7.9285884E-1,-7.365113E-5,-4.162385E-1,2.1987265E-1,-8.593679E-1,2.526679E-1,6.1810076E-1,-5.8323073E-1,-5.015136E-1,3.047003E-1,5.1967815E-2,4.457602E-1,-4.5511413E-2,1.101683E-2,-5.0160665E-2,6.80558E-2,-5.2785166E-2,4.7730133E-2,-6.06772E-2,1.1521833E-2,4.9262443E-3,-3.363418E-2,4.3708336E-2,-2.19628E-2,4.9517946E-3,-5.1284563E-2,1.3034086E-2,3.0698046E-2],"categories":[],"categories_nodes":[],"categories_segments":[],"categories_sizes":[],"default_left":[0,0,0,0,0,0,0,0,0,0,0,0,0,0,0,0,0,0,0,0,0,0,0,0,0,0,0,0,0,0,0],"id":32,"left_children":[1,3,5,7,9,11,13,15,17,19,21,23,25,27,29,-1,-1,-1,-1,-1,-1,-1,-1,-1,-1,-1,-1,-1,-1,-1,-1],"loss_changes":[1.1501034E2,3.6841095E1,7.009686E1,1.5221146E1,3.034008E1,1.29292755E1,4.0941513E1,1.1408005E1,2.1334478E1,2.4468342E1,2.2774155E1,1.917154E1,1.0204927E1,3.1631615E1,1.401606E1,0E0,0E0,0E0,0E0,0E0,0E0,0E0,0E0,0E0,0E0,0E0,0E0,0E0,0E0,0E0,0E0],"parents":[2147483647,0,0,1,1,2,2,3,3,4,4,5,5,6,6,7,7,8,8,9,9,10,10,11,11,12,12,13,13,14,14],"right_children":[2,4,6,8,10,12,14,16,18,20,22,24,26,28,30,-1,-1,-1,-1,-1,-1,-1,-1,-1,-1,-1,-1,-1,-1,-1,-1],"split_conditions":[5.5E0,7E0,5E0,9E0,1.702E1,1E1,8E0,2.2E1,5.5E0,5.5E0,2.778E1,-1.2E-1,7E0,9.5E0,7E0,-4.5511413E-2,1.101683E-2,-5.0160665E-2,6.80558E-2,-5.2785166E-2,4.7730133E-2,-6.06772E-2,1.1521833E-2,4.9262443E-3,-3.363418E-2,4.3708336E-2,-2.19628E-2,4.9517946E-3,-5.1284563E-2,1.3034086E-2,3.0698046E-2],"split_indices":[30,15,23,6,24,19,30,29,15,22,24,11,6,14,23,0,0,0,0,0,0,0,0,0,0,0,0,0,0,0,0],"split_type":[0,0,0,0,0,0,0,0,0,0,0,0,0,0,0,0,0,0,0,0,0,0,0,0,0,0,0,0,0,0,0],"sum_hessian":[1.5779601E3,2.9300885E2,1.2849513E3,2.1183638E2,8.117246E1,2.047582E2,1.0801931E3,1.9950781E2,1.2328564E1,3.927632E1,4.189614E1,1.8363272E2,2.1125467E1,6.2093365E2,4.5925943E2,1.9084593E2,8.661882E0,5.804363E0,6.5242014E0,5.988022E0,3.32883E1,2.3261883E1,1.8634258E1,4.076896E1,1.4286377E2,1.1893436E1,9.232032E0,5.963426E2,2.4591045E1,2.2076335E2,2.3849606E2],"tree_param":{"num_deleted":"0","num_feature":"32","num_nodes":"31","size_leaf_vector":"1"}},{"base_weights":[-1.1462741E-2,-3.8209453E-1,1.8308988E-1,-5.7383543E-1,4.8346743E-2,-3.9325725E-2,4.7156513E-1,7.121346E-1,-6.282421E-1,-2.1124896E-1,7.922778E-1,5.4900154E-2,-7.2289735E-1,-3.228957E-1,5.286095E-1,5.562218E-2,2.1445926E-3,-3.712878E-2,1.6169797E-4,-2.7672766E-2,1.3314143E-2,5.727728E-2,-1.8681452E-2,-2.8789883E-2,6.8705343E-3,-5.279932E-2,1.0624682E-2,-8.507841E-2,5.1676924E-3,2.8521612E-2,-1.4175439E-3],"categories":[],"categories_nodes":[],"categories_segments":[],"categories_sizes":[],"default_left":[0,0,0,0,0,0,0,0,0,0,0,0,0,0,0,0,0,0,0,0,0,0,0,0,0,0,0,0,0,0,0],"id":33,"left_children":[1,3,5,7,9,11,13,15,17,19,21,23,25,27,29,-1,-1,-1,-1,-1,-1,-1,-1,-1,-1,-1,-1,-1,-1,-1,-1],"loss_changes":[1.13198784E2,4.469995E1,6.610425E1,2.684233E1,3.271077E1,3.7633194E1,2.0596085E1,4.050232E0,2.6059296E1,2.0752018E1,1.8766405E1,2.677276E1,2.2473286E1,1.8553175E1,9.83873E0,0E0,0E0,0E0,0E0,0E0,0E0,0E0,0E0,0E0,0E0,0E0,0E0,0E0,0E0,0E0,0E0],"parents":[2147483647,0,0,1,1,2,2,3,3,4,4,5,5,6,6,7,7,8,8,9,9,10,10,11,11,12,12,13,13,14,14],"right_children":[2,4,6,8,10,12,14,16,18,20,22,24,26,28,30,-1,-1,-1,-1,-1,-1,-1,-1,-1,-1,-1,-1,-1,-1,-1,-1],"split_conditions":[6.5E0,7E0,7.5E0,3E0,4.7E-1,7E0,3.5E0,2E0,7E0,7.5E0,7.6666665E0,5E0,8E0,7E0,9.5E0,5.562218E-2,2.1445926E-3,-3.712878E-2,1.6169797E-4,-2.7672766E-2,1.3314143E-2,5.727728E-2,-1.8681452E-2,-2.8789883E-2,6.8705343E-3,-5.279932E-2,1.0624682E-2,-8.507841E-2,5.1676924E-3,2.8521612E-2,-1.4175439E-3],"split_indices":[21,31,15,5,11,9,31,28,23,20,4,15,4,7,22,0,0,0,0,0,0,0,0,0,0,0,0,0,0,0,0],"split_type":[0,0,0,0,0,0,0,0,0,0,0,0,0,0,0,0,0,0,0,0,0,0,0,0,0,0,0,0,0,0,0],"sum_hessian":[1.5666324E3,5.389588E2,1.0276736E3,3.726803E2,1.6627855E2,5.808131E2,4.4686047E2,1.4316635E1,3.5836365E2,1.2396162E2,4.2316933E1,5.1153464E2,6.927847E1,2.93505E1,4.1750998E2,8.243176E0,6.073458E0,3.033367E2,5.502694E1,7.219589E1,5.176572E1,3.256251E1,9.75442E0,5.8001366E1,4.535333E2,5.1022923E1,1.8255547E1,5.9269376E0,2.3423563E1,3.8848172E2,2.9028255E1],"tree_param":{"num_deleted":"0","num_feature":"32","num_nodes":"31","size_leaf_vector":"1"}},{"base_weights":[1.3052115E-2,-3.6493683E-1,2.0679213E-1,-8.8069963E-1,-2.1376517E-1,-2.912951E-1,2.962652E-1,2.6988206E-2,-9.535161E-1,-3.6825955E-1,1.05330676E-1,9.464544E-2,-8.4081745E-1,1.3631622E-1,5.0649387E-1,-5.1466335E-2,2.0551002E-2,-5.2341264E-2,-1.3535643E-2,-7.631173E-3,2.717196E-2,-3.0658776E-2,2.7409613E-2,-1.6012061E-3,-5.4193683E-2,-5.774482E-2,8.503045E-3,1.42262075E-2,3.95367E-2],"categories":[],"categories_nodes":[],"categories_segments":[],"categories_sizes":[],"default_left":[0,0,0,0,0,0,0,0,0,0,0,0,0,0,0,0,0,0,0,0,0,0,0,0,0,0,0,0,0],"id":34,"left_children":[1,3,5,7,9,11,13,-1,15,17,19,21,23,25,27,-1,-1,-1,-1,-1,-1,-1,-1,-1,-1,-1,-1,-1,-1],"loss_changes":[1.13275505E2,4.047004E1,4.5715984E1,1.3035133E1,2.0169668E1,3.3353706E1,2.9021057E1,0E0,1.2386696E1,1.7649643E1,1.5291666E1,3.0381783E1,1.2567894E1,2.1777063E1,2.3167473E1,0E0,0E0,0E0,0E0,0E0,0E0,0E0,0E0,0E0,0E0,0E0,0E0,0E0,0E0],"parents":[2147483647,0,0,1,1,2,2,3,3,4,4,5,5,6,6,8,8,9,9,10,10,11,11,12,12,13,13,14,14],"right_children":[2,4,6,8,10,12,14,-1,16,18,20,22,24,26,28,-1,-1,-1,-1,-1,-1,-1,-1,-1,-1,-1,-1,-1,-1],"split_conditions":[6.5E0,5.5E0,6E0,-3.9E-1,6.5E0,6.6666665E0,8E0,2.6988206E-2,7E-1,3.5E0,7.5E0,5E0,5.6666665E0,3.5E0,8E0,-5.1466335E-2,2.0551002E-2,-5.2341264E-2,-1.3535643E-2,-7.631173E-3,2.717196E-2,-3.0658776E-2,2.7409613E-2,-1.6012061E-3,-5.4193683E-2,-5.774482E-2,8.503045E-3,1.42262075E-2,3.95367E-2],"split_indices":[21,30,15,11,18,4,18,0,11,31,30,17,6,18,30,0,0,0,0,0,0,0,0,0,0,0,0,0,0],"split_type":[0,0,0,0,0,0,0,0,0,0,0,0,0,0,0,0,0,0,0,0,0,0,0,0,0,0,0,0,0],"sum_hessian":[1.5439825E3,5.225805E2,1.021402E3,1.1666073E2,4.0591977E2,1.548526E2,8.665494E2,5.1526875E0,1.1150804E2,2.7355624E2,1.3236351E2,9.158811E1,6.3264492E1,4.9379898E2,3.727504E2,1.060575E2,5.4505396E0,3.2418747E1,2.411375E2,8.378242E1,4.8581097E1,3.547546E1,5.6112656E1,1.5106201E1,4.815829E1,1.1231575E1,4.825674E2,2.111847E2,1.6156572E2],"tree_param":{"num_deleted":"0","num_feature":"32","num_nodes":"29","size_leaf_vector":"1"}},{"base_weights":[9.485292E-3,-3.0854094E-1,2.1835184E-1,-8.480725E-1,-1.7018707E-1,5.2024066E-3,5.926623E-1,-9.1967875E-1,2.8604329E-2,-2.3154233E-1,6.364339E-1,-3.0059713E-1,1.5641737E-1,3.644056E-1,8.1296295E-1,-5.0348174E-2,-9.865104E-3,-3.8755994E-2,-7.239672E-3,-1.2645214E-2,6.679522E-2,-1.4706679E-3,-3.74532E-2,-1.672831E-2,1.1949228E-2,1.0195806E-2,4.0167056E-2,-0E0,4.1953385E-2],"categories":[],"categories_nodes":[],"categories_segments":[],"categories_sizes":[],"default_left":[0,0,0,0,0,0,0,0,0,0,0,0,0,0,0,0,0,0,0,0,0,0,0,0,0,0,0,0,0],"id":35,"left_children":[1,3,5,7,9,11,13,15,-1,17,19,21,23,25,27,-1,-1,-1,-1,-1,-1,-1,-1,-1,-1,-1,-1,-1,-1],"loss_changes":[1.043287E2,4.6148705E1,7.559013E1,1.3690582E1,2.4800615E1,2.8072529E1,1.6729378E1,7.21682E0,0E0,2.1596882E1,2.2667328E1,2.4305283E1,1.659396E1,1.1757788E1,3.6715546E0,0E0,0E0,0E0,0E0,0E0,0E0,0E0,0E0,0E0,0E0,0E0,0E0,0E0,0E0],"parents":[2147483647,0,0,1,1,2,2,3,3,4,4,5,5,6,6,7,7,9,9,10,10,11,11,12,12,13,13,14,14],"right_children":[2,4,6,8,10,12,14,16,-1,18,20,22,24,26,28,-1,-1,-1,-1,-1,-1,-1,-1,-1,-1,-1,-1,-1,-1],"split_conditions":[6.5E0,4E0,8E0,9.5E0,2.7E1,6E0,7.5E0,1.765E1,2.8604329E-2,5E0,7.5E0,1.19E1,4.5E0,7.5E0,1E1,-5.0348174E-2,-9.865104E-3,-3.8755994E-2,-7.239672E-3,-1.2645214E-2,6.679522E-2,-1.4706679E-3,-3.74532E-2,-1.672831E-2,1.1949228E-2,1.0195806E-2,4.0167056E-2,-0E0,4.1953385E-2],"split_indices":[30,31,18,12,27,18,12,28,0,15,20,28,31,31,27,0,0,0,0,0,0,0,0,0,0,0,0,0,0],"split_type":[0,0,0,0,0,0,0,0,0,0,0,0,0,0,0,0,0,0,0,0,0,0,0,0,0,0,0,0,0],"sum_hessian":[1.5677374E3,6.2099615E2,9.467413E2,1.2502503E2,4.9597113E2,6.043722E2,3.4236908E2,1.1959398E2,5.431051E0,4.6202112E2,3.3950027E1,1.9926294E2,4.0510925E2,1.7032648E2,1.720426E2,1.0605053E2,1.3543452E1,6.1789036E1,4.002321E2,1.530511E1,1.8644918E1,1.2531032E2,7.3952614E1,5.7485287E1,3.47624E2,1.26498924E2,4.3827553E1,5.41538E0,1.6662723E2],"tree_param":{"num_deleted":"0","num_feature":"32","num_nodes":"29","size_leaf_vector":"1"}},{"base_weights":[3.146551E-2,-1.6579655E-1,3.3374894E-1,-6.0909368E-2,-1.1144354E-1,-8.5093117E-1,4.0434313E-1,-6.507491E-1,-2.5442746E-2,-2.8238532E-3,-1.020761E0,-6.629626E-1,4.5624036E-1,-3.653818E-2,3.1740066E-2,2.0886038E-3,-4.224084E-2,-6.3671224E-2,-1.6417021E-2,-7.2377406E-2,1.5156621E-2,1.0277162E-2,2.9559055E-2],"categories":[],"categories_nodes":[],"categories_segments":[],"categories_sizes":[],"default_left":[0,0,0,0,0,0,0,0,0,0,0,0,0,0,0,0,0,0,0,0,0,0,0],"id":36,"left_children":[1,3,5,-1,7,9,11,13,15,-1,17,19,21,-1,-1,-1,-1,-1,-1,-1,-1,-1,-1],"loss_changes":[9.2154686E1,5.3144646E1,5.1513084E1,0E0,4.1223526E1,4.491173E0,3.2398125E1,1.32849655E1,4.2540646E1,0E0,4.184515E0,2.1451683E1,1.838839E1,0E0,0E0,0E0,0E0,0E0,0E0,0E0,0E0,0E0,0E0],"parents":[2147483647,0,0,1,1,2,2,4,4,5,5,6,6,7,7,8,8,10,10,11,11,12,12],"right_children":[2,4,6,-1,8,10,12,14,16,-1,18,20,22,-1,-1,-1,-1,-1,-1,-1,-1,-1,-1],"split_conditions":[7.5E0,4E0,5E0,-6.0909368E-2,5E0,7E0,3E0,3.5E1,8E0,-2.8238532E-3,8E0,2.041E1,6.5E0,-3.653818E-2,3.1740066E-2,2.0886038E-3,-4.224084E-2,-6.3671224E-2,-1.6417021E-2,-7.2377406E-2,1.5156621E-2,1.0277162E-2,2.9559055E-2],"split_indices":[21,12,15,0,21,22,31,26,9,0,5,26,12,0,0,0,0,0,0,0,0,0,0],"split_type":[0,0,0,0,0,0,0,0,0,0,0,0,0,0,0,0,0,0,0,0,0,0,0],"sum_hessian":[1.5422926E3,9.33477E2,6.088156E2,4.4176014E1,8.89301E2,3.3226486E1,5.755892E2,1.2079435E2,7.6850665E2,6.3075914E0,2.6918894E1,2.578163E1,5.498075E2,1.143991E2,6.395249E0,7.114468E2,5.705986E1,1.8694305E1,8.224588E0,1.3871933E1,1.1909697E1,1.9396997E2,3.5583752E2],"tree_param":{"num_deleted":"0","num_feature":"32","num_nodes":"23","size_leaf_vector":"1"}},{"base_weights":[1.6999157E-3,-2.824767E-1,2.2462466E-1,-4.113081E-1,1.6248871E-1,-8.228437E-4,5.132962E-1,-8.7554044E-1,-2.727741E-1,-8.396778E-1,3.349244E-1,-5.19178E-1,1.0543397E-1,5.8607215E-1,4.7614295E-2,-4.8716377E-2,5.2489467E-2,-2.1101346E-2,1.0003189E-2,1.28489155E-2,-6.1385494E-2,2.7724428E-3,3.4129273E-2,-4.0321108E-2,1.0258557E-2,1.0516701E-2,-2.4153946E-2,3.57115E-2,8.8765165E-3,-2.683214E-2,2.3112474E-2],"categories":[],"categories_nodes":[],"categories_segments":[],"categories_sizes":[],"default_left":[0,0,0,0,0,0,0,0,0,0,0,0,0,0,0,0,0,0,0,0,0,0,0,0,0,0,0,0,0,0,0],"id":37,"left_children":[1,3,5,7,9,11,13,15,17,19,21,23,25,27,29,-1,-1,-1,-1,-1,-1,-1,-1,-1,-1,-1,-1,-1,-1,-1,-1],"loss_changes":[9.755624E1,3.8924244E1,5.6230762E1,3.3320107E1,2.6787647E1,2.689138E1,1.2730156E1,2.4335464E1,2.8874334E1,1.0265556E1,1.2654124E1,1.7596169E1,2.5091047E1,1.6853432E1,1.3205617E1,0E0,0E0,0E0,0E0,0E0,0E0,0E0,0E0,0E0,0E0,0E0,0E0,0E0,0E0,0E0,0E0],"parents":[2147483647,0,0,1,1,2,2,3,3,4,4,5,5,6,6,7,7,8,8,9,9,10,10,11,11,12,12,13,13,14,14],"right_children":[2,4,6,8,10,12,14,16,18,20,22,24,26,28,30,-1,-1,-1,-1,-1,-1,-1,-1,-1,-1,-1,-1,-1,-1,-1,-1],"split_conditions":[6.5E0,8.333333E0,7.5E0,5E0,5E0,5E0,1.698E1,2.222E1,7.5E0,4E0,1.351E1,3E1,6E0,7E0,8E0,-4.8716377E-2,5.2489467E-2,-2.1101346E-2,1.0003189E-2,1.28489155E-2,-6.1385494E-2,2.7724428E-3,3.4129273E-2,-4.0321108E-2,1.0258557E-2,1.0516701E-2,-2.4153946E-2,3.57115E-2,8.8765165E-3,-2.683214E-2,2.3112474E-2],"split_indices":[12,6,21,12,23,18,28,29,15,4,28,0,9,8,18,0,0,0,0,0,0,0,0,0,0,0,0,0,0,0,0],"split_type":[0,0,0,0,0,0,0,0,0,0,0,0,0,0,0,0,0,0,0,0,0,0,0,0,0,0,0,0,0,0,0],"sum_hessian":[1.5370454E3,6.753209E2,8.6172455E2,5.239571E2,1.5136378E2,4.8449304E2,3.7723148E2,1.18421295E2,4.0553583E2,2.1283506E1,1.3008028E2,8.1588745E1,4.029043E2,3.257252E2,5.1506298E1,1.133959E2,5.025395E0,3.085224E2,9.701343E1,5.6276217E0,1.5655885E1,7.323526E1,5.684502E1,5.83986E1,2.3190145E1,3.4291492E2,5.9989384E1,2.4690498E2,7.8820206E1,2.109668E1,3.0409616E1],"tree_param":{"num_deleted":"0","num_feature":"32","num_nodes":"31","size_leaf_vector":"1"}},{"base_weights":[-2.7310841E-3,-7.5145996E-1,8.20259E-2,-9.317026E-1,-1.8951684E-1,-3.2145193E-1,2.0256935E-1,-1.0011501E0,-3.6135036E-3,-9.4969225E-1,4.581716E-1,2.4260603E-1,-5.222575E-1,5.9308212E-2,4.3634862E-1,-1.786404E-2,-5.486977E-2,-1.0052788E-2,-6.0901422E-2,-4.1470584E-2,5.1027793E-2,-3.2562993E-2,2.544423E-2,-3.6363818E-2,5.3629884E-3,-6.3702255E-3,1.3827114E-2,1.2453976E-2,3.021111E-2],"categories":[],"categories_nodes":[],"categories_segments":[],"categories_sizes":[],"default_left":[0,0,0,0,0,0,0,0,0,0,0,0,0,0,0,0,0,0,0,0,0,0,0,0,0,0,0,0,0],"id":38,"left_children":[1,3,5,7,9,11,13,15,-1,17,19,21,23,25,27,-1,-1,-1,-1,-1,-1,-1,-1,-1,-1,-1,-1,-1,-1],"loss_changes":[9.674931E1,1.5326965E1,6.6645676E1,6.7598267E0,2.02342E1,3.5918976E1,3.5239056E1,5.953644E0,0E0,3.2694092E0,1.7480946E1,2.0391674E1,3.0257313E1,2.6676512E1,1.2273056E1,0E0,0E0,0E0,0E0,0E0,0E0,0E0,0E0,0E0,0E0,0E0,0E0,0E0,0E0],"parents":[2147483647,0,0,1,1,2,2,3,3,4,4,5,5,6,6,7,7,9,9,10,10,11,11,12,12,13,13,14,14],"right_children":[2,4,6,8,10,12,14,16,-1,18,20,22,24,26,28,-1,-1,-1,-1,-1,-1,-1,-1,-1,-1,-1,-1,-1,-1],"split_conditions":[5E0,8.333333E0,6E0,7.5E0,5.5E0,1.111E1,7.5E0,1E0,-3.6135036E-3,5E0,1E1,5E0,7E0,7.5E0,7E0,-1.786404E-2,-5.486977E-2,-1.0052788E-2,-6.0901422E-2,-4.1470584E-2,5.1027793E-2,-3.2562993E-2,2.544423E-2,-3.6363818E-2,5.3629884E-3,-6.3702255E-3,1.3827114E-2,1.2453976E-2,3.021111E-2],"split_indices":[12,6,18,17,15,27,12,28,0,16,28,21,23,21,31,0,0,0,0,0,0,0,0,0,0,0,0,0,0],"split_type":[0,0,0,0,0,0,0,0,0,0,0,0,0,0,0,0,0,0,0,0,0,0,0,0,0,0,0,0,0],"sum_hessian":[1.5205597E3,1.535455E2,1.3670142E3,1.15374344E2,3.8171154E1,3.1369574E2,1.0533185E3,1.06411896E2,8.962446E0,1.730992E1,2.0861235E1,8.214427E1,2.3155147E2,6.545284E2,3.987901E2,1.489219E1,9.151971E1,5.358026E0,1.1951894E1,6.0711813E0,1.4790054E1,1.8269957E1,6.3874313E1,1.746108E2,5.6940674E1,3.5207758E2,3.024508E2,1.9054807E2,2.0824202E2],"tree_param":{"num_deleted":"0","num_feature":"32","num_nodes":"29","size_leaf_vector":"1"}},{"base_weights":[2.4347538E-2,-3.9615524E-1,1.4011851E-1,-6.4774966E-1,1.3554062E-2,-1.8628152E-1,3.033817E-1,-8.674283E-1,-2.2922064E-1,5.9987324E-1,-3.6586845E-1,-4.3747115E-1,1.8277672E-1,2.4471088E-1,9.369548E-1,-4.723249E-2,5.712827E-3,2.0443401E-3,-6.329795E-2,-3.130797E-2,4.1087087E-2,-2.7124226E-2,4.780167E-2,-1.5610068E-2,-4.534442E-2,3.5810005E-3,6.609803E-2,6.3460246E-3,2.4155883E-2,3.0269215E-2,5.5354446E-2],"categories":[],"categories_nodes":[],"categories_segments":[],"categories_sizes":[],"default_left":[0,0,0,0,0,0,0,0,0,0,0,0,0,0,0,0,0,0,0,0,0,0,0,0,0,0,0,0,0,0,0],"id":39,"left_children":[1,3,5,7,9,11,13,15,17,19,21,23,25,27,29,-1,-1,-1,-1,-1,-1,-1,-1,-1,-1,-1,-1,-1,-1,-1,-1],"loss_changes":[7.3027405E1,3.3453033E1,6.2797295E1,1.8052643E1,2.8050232E1,3.6580856E1,2.8721275E1,1.0173943E1,2.0168602E1,1.4280043E1,1.8577637E1,1.3240757E1,1.9987669E1,2.008628E1,2.5389633E0,0E0,0E0,0E0,0E0,0E0,0E0,0E0,0E0,0E0,0E0,0E0,0E0,0E0,0E0,0E0,0E0],"parents":[2147483647,0,0,1,1,2,2,3,3,4,4,5,5,6,6,7,7,8,8,9,9,10,10,11,11,12,12,13,13,14,14],"right_children":[2,4,6,8,10,12,14,16,18,20,22,24,26,28,30,-1,-1,-1,-1,-1,-1,-1,-1,-1,-1,-1,-1,-1,-1,-1,-1],"split_conditions":[6E0,6.5E0,6.5E0,2.128E1,1.552E1,8E0,9E0,9E0,7.3333335E0,6.3333335E0,2E1,2.9E1,4.5E1,2.041E1,9E0,-4.723249E-2,5.712827E-3,2.0443401E-3,-6.329795E-2,-3.130797E-2,4.1087087E-2,-2.7124226E-2,4.780167E-2,-1.5610068E-2,-4.534442E-2,3.5810005E-3,6.609803E-2,6.3460246E-3,2.4155883E-2,3.0269215E-2,5.5354446E-2],"split_indices":[12,15,21,26,24,20,6,6,4,6,28,0,24,26,5,0,0,0,0,0,0,0,0,0,0,0,0,0,0,0,0],"split_type":[0,0,0,0,0,0,0,0,0,0,0,0,0,0,0,0,0,0,0,0,0,0,0,0,0,0,0,0,0,0,0],"sum_hessian":[1.4974056E3,3.2228976E2,1.175116E3,1.9928519E2,1.23004555E2,3.9153168E2,7.835843E2,1.2947713E2,6.980807E1,4.8087414E1,7.4917145E1,2.3296391E2,1.5856775E2,7.192195E2,6.436476E1,1.20181816E2,9.295309E0,5.6446198E1,1.3361868E1,6.8807516E0,4.1206665E1,6.693429E1,7.98285E0,1.8603012E2,4.693379E1,1.4600345E2,1.2564308E1,4.8320093E2,2.3601859E2,2.4344837E1,4.001992E1],"tree_param":{"num_deleted":"0","num_feature":"32","num_nodes":"31","size_leaf_vector":"1"}},{"base_weights":[3.7239618E-3,-1.5050092E-1,2.4248022E-1,-2.926065E-1,9.280146E-2,-6.467954E-2,4.3821692E-1,-3.591102E-1,4.1719103E-1,2.0924053E-1,-2.7926332E-1,9.486867E-3,-7.597314E-2,4.8337647E-1,-6.4160293E-1,-4.0944453E-2,-1.3961183E-2,3.0963863E-3,6.606396E-2,1.5914654E-2,-2.5303928E-2,2.4193479E-2,-2.9654538E-2,-2.5255779E-2,8.235253E-3,1.4709336E-2,3.2466456E-2,-7.270341E-2,3.926517E-3],"categories":[],"categories_nodes":[],"categories_segments":[],"categories_sizes":[],"default_left":[0,0,0,0,0,0,0,0,0,0,0,0,0,0,0,0,0,0,0,0,0,0,0,0,0,0,0,0,0],"id":40,"left_children":[1,3,5,7,9,11,13,15,17,19,21,23,-1,25,27,-1,-1,-1,-1,-1,-1,-1,-1,-1,-1,-1,-1,-1,-1],"loss_changes":[5.5003235E1,3.142503E1,3.5333805E1,2.728059E1,1.4609334E1,2.4916855E1,1.7933052E1,1.8834671E1,1.569477E1,2.023056E1,1.9690157E1,1.7634224E1,0E0,1.0453636E1,9.054741E0,0E0,0E0,0E0,0E0,0E0,0E0,0E0,0E0,0E0,0E0,0E0,0E0,0E0,0E0],"parents":[2147483647,0,0,1,1,2,2,3,3,4,4,5,5,6,6,7,7,8,8,9,9,10,10,11,11,13,13,14,14],"right_children":[2,4,6,8,10,12,14,16,18,20,22,24,-1,26,28,-1,-1,-1,-1,-1,-1,-1,-1,-1,-1,-1,-1,-1,-1],"split_conditions":[7.5E0,6.5E0,7E0,8.5E0,5E0,9E0,9.333333E0,5E0,8.333333E0,2.2E1,8.33E0,5E0,-7.597314E-2,8E0,8.5E0,-4.0944453E-2,-1.3961183E-2,3.0963863E-3,6.606396E-2,1.5914654E-2,-2.5303928E-2,2.4193479E-2,-2.9654538E-2,-2.5255779E-2,8.235253E-3,1.4709336E-2,3.2466456E-2,-7.270341E-2,3.926517E-3],"split_indices":[21,17,12,12,9,4,7,21,4,27,29,8,0,18,21,0,0,0,0,0,0,0,0,0,0,0,0,0,0],"split_type":[0,0,0,0,0,0,0,0,0,0,0,0,0,0,0,0,0,0,0,0,0,0,0,0,0,0,0,0,0],"sum_hessian":[1.4905173E3,9.056484E2,5.84869E2,5.7179004E2,3.338583E2,2.2783401E2,3.57035E2,5.2361273E2,4.8177322E1,2.5498499E2,7.887331E1,2.1813475E2,9.699265E0,3.4358685E2,1.3448136E1,7.527093E1,4.4834183E2,3.5816505E1,1.2360815E1,2.2209785E2,3.2887135E1,2.2654078E1,5.6219227E1,4.961573E1,1.6851903E2,1.6277795E2,1.8080891E2,5.6658983E0,7.7822375E0],"tree_param":{"num_deleted":"0","num_feature":"32","num_nodes":"29","size_leaf_vector":"1"}},{"base_weights":[2.6284768E-3,-1.4427662E-1,3.0917388E-1,-3.297238E-1,6.684583E-2,1.2647177E-1,6.3832587E-1,7.808666E-1,-3.8731042E-1,-6.1294593E-2,1.1367505E-1,-4.307708E-1,2.2253503E-1,-0E0,7.0048803E-1,3.210647E-3,5.9065312E-2,-2.2328014E-2,1.8691657E-2,4.2404156E-4,3.1251863E-2,-3.824587E-2,2.439445E-2,1.3191464E-2,-6.0059603E-2,-5.2831203E-2,3.3690386E-2,3.9973643E-2,1.0470391E-2],"categories":[],"categories_nodes":[],"categories_segments":[],"categories_sizes":[],"default_left":[0,0,0,0,0,0,0,0,0,0,0,0,0,0,0,0,0,0,0,0,0,0,0,0,0,0,0,0,0],"id":41,"left_children":[1,3,5,7,9,11,13,15,17,-1,19,21,23,25,27,-1,-1,-1,-1,-1,-1,-1,-1,-1,-1,-1,-1,-1,-1],"loss_changes":[6.740022E1,3.9655785E1,2.8967583E1,3.488095E1,2.878859E1,1.6928164E1,6.8252716E0,7.5038185E0,2.3412643E1,0E0,2.4609182E1,1.4867506E1,1.619173E1,1.3056437E1,7.288864E0,0E0,0E0,0E0,0E0,0E0,0E0,0E0,0E0,0E0,0E0,0E0,0E0,0E0,0E0],"parents":[2147483647,0,0,1,1,2,2,3,3,4,4,5,5,6,6,7,7,8,8,10,10,11,11,12,12,13,13,14,14],"right_children":[2,4,6,8,10,12,14,16,18,-1,20,22,24,26,28,-1,-1,-1,-1,-1,-1,-1,-1,-1,-1,-1,-1,-1,-1],"split_conditions":[8E0,6E0,7.5E0,2.3333333E0,3.5E0,5E0,4.5E0,3.1E-1,2.778E1,-6.1294593E-2,5.3E-1,8.5E0,9E0,7E0,9.5E0,3.210647E-3,5.9065312E-2,-2.2328014E-2,1.8691657E-2,4.2404156E-4,3.1251863E-2,-3.824587E-2,2.439445E-2,1.3191464E-2,-6.0059603E-2,-5.2831203E-2,3.3690386E-2,3.9973643E-2,1.0470391E-2],"split_indices":[30,31,18,4,18,18,31,11,27,0,11,20,9,4,14,0,0,0,0,0,0,0,0,0,0,0,0,0,0],"split_type":[0,0,0,0,0,0,0,0,0,0,0,0,0,0,0,0,0,0,0,0,0,0,0,0,0,0,0,0,0],"sum_hessian":[1.4933304E3,1.00985E3,4.8348044E2,5.374191E2,4.7243088E2,3.1243665E2,1.7104378E2,2.547835E1,5.1194077E2,1.5120543E1,4.5731033E2,4.501968E1,2.6741696E2,1.5354968E1,1.5568881E2,9.846554E0,1.5631796E1,4.7566483E2,3.627594E1,3.8071292E2,7.6597435E1,3.3275997E1,1.1743682E1,2.611352E2,6.2817802E0,5.6296873E0,9.725281E0,1.286182E2,2.7070612E1],"tree_param":{"num_deleted":"0","num_feature":"32","num_nodes":"29","size_leaf_vector":"1"}},{"base_weights":[1.3390094E-2,-3.0640543E-1,1.7819838E-1,-5.4617697E-1,-1.0287671E-1,-5.763292E-1,2.5473636E-1,-5.8964956E-1,4.4741835E-2,-9.066026E-1,-1.2559658E-2,-1.1336299E0,-5.9796467E-2,1.1503311E-1,4.7073758E-1,-5.5116754E-2,-2.2076635E-2,1.829458E-3,-6.334542E-2,-7.7615418E-3,2.5605185E-2,-3.7391656E-3,-7.051419E-2,-2.2438385E-2,4.8446517E-2,1.4461825E-2,-1.5050517E-2,3.0839253E-2,1.0609447E-2],"categories":[],"categories_nodes":[],"categories_segments":[],"categories_sizes":[],"default_left":[0,0,0,0,0,0,0,0,0,0,0,0,0,0,0,0,0,0,0,0,0,0,0,0,0,0,0,0,0],"id":42,"left_children":[1,3,5,7,9,11,13,15,-1,17,19,21,23,25,27,-1,-1,-1,-1,-1,-1,-1,-1,-1,-1,-1,-1,-1,-1],"loss_changes":[7.76673E1,2.430286E1,5.6364456E1,1.51362915E1,1.9714472E1,2.5665474E1,2.6545654E1,1.6104729E1,0E0,9.522675E0,1.8582527E1,1.2312717E1,1.9945932E1,3.9213768E1,1.2806763E1,0E0,0E0,0E0,0E0,0E0,0E0,0E0,0E0,0E0,0E0,0E0,0E0,0E0,0E0],"parents":[2147483647,0,0,1,1,2,2,3,3,4,4,5,5,6,6,7,7,9,9,10,10,11,11,12,12,13,13,14,14],"right_children":[2,4,6,8,10,12,14,16,-1,18,20,22,24,26,28,-1,-1,-1,-1,-1,-1,-1,-1,-1,-1,-1,-1,-1,-1],"split_conditions":[6.5E0,6.5E0,5E0,9.666667E0,6.5E0,1.957E1,8E0,4E0,4.4741835E-2,1.25E1,7E0,1.471E1,6.5E0,2.143E1,1.321E1,-5.5116754E-2,-2.2076635E-2,1.829458E-3,-6.334542E-2,-7.7615418E-3,2.5605185E-2,-3.7391656E-3,-7.051419E-2,-2.2438385E-2,4.8446517E-2,1.4461825E-2,-1.5050517E-2,3.0839253E-2,1.0609447E-2],"split_indices":[21,12,12,7,14,27,12,23,0,27,23,24,17,24,29,0,0,0,0,0,0,0,0,0,0,0,0,0,0],"split_type":[0,0,0,0,0,0,0,0,0,0,0,0,0,0,0,0,0,0,0,0,0,0,0,0,0,0,0,0,0],"sum_hessian":[1.4708136E3,4.9956247E2,9.7125116E2,2.279749E2,2.7158755E2,8.842614E1,8.82825E2,2.2222638E2,5.748526E0,2.5954636E1,2.4563293E2,4.15794E1,4.684674E1,5.377718E2,3.4505322E2,4.749399E1,1.7473239E2,7.4700394E0,1.8484596E1,1.9409866E2,5.1534264E1,9.082927E0,3.249647E1,3.467765E1,1.216909E1,3.7954742E2,1.582244E2,2.1892372E2,1.26129486E2],"tree_param":{"num_deleted":"0","num_feature":"32","num_nodes":"29","size_leaf_vector":"1"}},{"base_weights":[8.270587E-3,-1.6974398E-1,2.7189153E-1,-4.3165967E-1,6.512671E-2,-9.156695E-2,4.935136E-1,-5.714329E-1,-4.302658E-2,-7.522385E-3,7.9861826E-1,6.1359924E-1,-2.4244949E-1,-4.0101904E-1,5.3313756E-1,-4.006731E-2,-1.7212013E-2,-1.1239142E-2,3.734843E-2,-7.631622E-3,2.2519138E-2,6.0465254E-2,-5.130519E-3,5.499373E-2,-1.15079135E-2,-1.9292286E-2,3.8794953E-2,-6.5673724E-2,2.6368102E-2,3.329894E-2,1.4307226E-2],"categories":[],"categories_nodes":[],"categories_segments":[],"categories_sizes":[],"default_left":[0,0,0,0,0,0,0,0,0,0,0,0,0,0,0,0,0,0,0,0,0,0,0,0,0,0,0,0,0,0,0],"id":43,"left_children":[1,3,5,7,9,11,13,15,17,19,21,23,25,27,29,-1,-1,-1,-1,-1,-1,-1,-1,-1,-1,-1,-1,-1,-1,-1,-1],"loss_changes":[6.956738E1,5.449432E1,4.8249207E1,2.2640503E1,2.4998161E1,2.438916E1,1.3507866E1,1.5537193E1,1.6358892E1,2.8426064E1,1.5940346E1,1.7043652E1,2.7947395E1,1.5106967E1,1.1321266E1,0E0,0E0,0E0,0E0,0E0,0E0,0E0,0E0,0E0,0E0,0E0,0E0,0E0,0E0,0E0,0E0],"parents":[2147483647,0,0,1,1,2,2,3,3,4,4,5,5,6,6,7,7,8,8,9,9,10,10,11,11,12,12,13,13,14,14],"right_children":[2,4,6,8,10,12,14,16,18,20,22,24,26,28,30,-1,-1,-1,-1,-1,-1,-1,-1,-1,-1,-1,-1,-1,-1,-1,-1],"split_conditions":[7.5E0,6E0,6.5E0,8E0,9E0,4.3333335E0,3E0,1.915E1,1.892E1,4.6E-1,3E0,1.837E1,9E0,2.041E1,1.321E1,-4.006731E-2,-1.7212013E-2,-1.1239142E-2,3.734843E-2,-7.631622E-3,2.2519138E-2,6.0465254E-2,-5.130519E-3,5.499373E-2,-1.15079135E-2,-1.9292286E-2,3.8794953E-2,-6.5673724E-2,2.6368102E-2,3.329894E-2,1.4307226E-2],"split_indices":[21,31,12,12,6,4,31,25,29,11,9,25,6,26,29,0,0,0,0,0,0,0,0,0,0,0,0,0,0,0,0],"split_type":[0,0,0,0,0,0,0,0,0,0,0,0,0,0,0,0,0,0,0,0,0,0,0,0,0,0,0,0,0,0,0],"sum_hessian":[1.4792234E3,8.8307007E2,5.961533E2,4.17105E2,4.6596503E2,2.2597882E2,3.7017453E2,3.0606488E2,1.1104013E2,4.2519922E2,4.0765823E1,3.8902206E1,1.8707661E2,1.5014267E1,3.5516025E2,1.5001872E2,1.5604616E2,9.1246574E1,1.979356E1,3.2380414E2,1.0139507E2,2.772832E1,1.3037502E1,2.446545E1,1.4436755E1,1.6488817E2,2.2188454E1,7.312611E0,7.701656E0,2.2903049E2,1.2612977E2],"tree_param":{"num_deleted":"0","num_feature":"32","num_nodes":"31","size_leaf_vector":"1"}},{"base_weights":[-3.763022E-3,-1.2754484E-1,2.3818418E-1,-6.252928E-1,-6.8706304E-2,-3.7630925E-1,3.1992558E-1,-7.2010005E-1,4.1348364E-2,-3.2810298E-1,5.0573792E-2,-6.2701754E-2,-9.7976856E-2,7.792944E-1,2.3803687E-1,-1.9917203E-2,-5.5943597E-2,-3.1436873E-3,-3.5034794E-2,6.7968066E-3,-1.9829554E-2,-6.766768E-2,8.328297E-3,4.4741925E-2,-8.3697616E-4,4.6386817E-3,2.5003148E-2],"categories":[],"categories_nodes":[],"categories_segments":[],"categories_sizes":[],"default_left":[0,0,0,0,0,0,0,0,0,0,0,0,0,0,0,0,0,0,0,0,0,0,0,0,0,0,0],"id":44,"left_children":[1,3,5,7,9,11,13,15,-1,17,19,-1,21,23,25,-1,-1,-1,-1,-1,-1,-1,-1,-1,-1,-1,-1],"loss_changes":[4.395247E1,2.8314478E1,2.5117441E1,1.4970734E1,2.698819E1,1.4056402E1,1.6142387E1,1.1614998E1,0E0,2.7002172E1,2.2856998E1,0E0,1.5863442E1,6.1446495E0,1.4149124E1,0E0,0E0,0E0,0E0,0E0,0E0,0E0,0E0,0E0,0E0,0E0,0E0],"parents":[2147483647,0,0,1,1,2,2,3,3,4,4,5,5,6,6,7,7,9,9,10,10,12,12,13,13,14,14],"right_children":[2,4,6,8,10,12,14,16,-1,18,20,-1,22,24,26,-1,-1,-1,-1,-1,-1,-1,-1,-1,-1,-1,-1],"split_conditions":[8E0,5E0,5E0,3.5E1,1.9E1,1.552E1,5E0,2.7E1,4.1348364E-2,1.538E1,2.8E1,-6.2701754E-2,2.4E1,9.5E0,7.5E0,-1.9917203E-2,-5.5943597E-2,-3.1436873E-3,-3.5034794E-2,6.7968066E-3,-1.9829554E-2,-6.766768E-2,8.328297E-3,4.4741925E-2,-8.3697616E-4,4.6386817E-3,2.5003148E-2],"split_indices":[12,15,18,27,26,24,29,0,0,26,24,0,0,15,18,0,0,0,0,0,0,0,0,0,0,0,0],"split_type":[0,0,0,0,0,0,0,0,0,0,0,0,0,0,0,0,0,0,0,0,0,0,0,0,0,0,0],"sum_hessian":[1.4649415E3,9.698714E2,4.950701E2,1.0082192E2,8.690495E2,5.734541E1,4.377247E2,9.5417885E1,5.404037E0,2.731804E2,5.958691E2,1.2453985E1,4.4891422E1,6.410739E1,3.736173E2,5.4606693E1,4.0811195E1,1.6076312E2,1.12417274E2,5.014177E2,9.445139E1,6.804628E0,3.8086796E1,5.5928787E1,8.178608E0,2.419157E2,1.3170161E2],"tree_param":{"num_deleted":"0","num_feature":"32","num_nodes":"27","size_leaf_vector":"1"}},{"base_weights":[-9.473986E-3,-6.6286784E-1,4.355113E-2,-7.7775115E-1,2.8901815E-2,-8.559512E-2,2.4222277E-1,-9.884253E-1,-2.3634033E-1,-2.3378214E-1,1.3394745E-1,-1.171626E-1,3.848953E-1,-5.9070077E-2,-1.0268028E-2,2.3983954E-2,-5.6413252E-2,5.0190028E-2,-1.3673167E-2,2.3241669E-2,-2.8810645E-3,2.7734721E-2,-2.0340506E-2,2.8906656E-2,7.1561174E-3],"categories":[],"categories_nodes":[],"categories_segments":[],"categories_sizes":[],"default_left":[0,0,0,0,0,0,0,0,0,0,0,0,0,0,0,0,0,0,0,0,0,0,0,0,0],"id":45,"left_children":[1,3,5,7,-1,9,11,13,15,17,19,21,23,-1,-1,-1,-1,-1,-1,-1,-1,-1,-1,-1,-1],"loss_changes":[5.078545E1,1.6380642E1,3.4793846E1,1.1095577E1,0E0,2.678441E1,2.7486012E1,1.0439209E1,2.0364635E1,2.4465641E1,2.1109314E1,3.0051386E1,1.7695236E1,0E0,0E0,0E0,0E0,0E0,0E0,0E0,0E0,0E0,0E0,0E0,0E0],"parents":[2147483647,0,0,1,1,2,2,3,3,5,5,6,6,7,7,8,8,9,9,10,10,11,11,12,12],"right_children":[2,4,6,8,-1,10,12,14,16,18,20,22,24,-1,-1,-1,-1,-1,-1,-1,-1,-1,-1,-1,-1],"split_conditions":[5E0,9.5E0,7E0,4.3E-1,2.8901815E-2,7.5E0,1.887E1,8.666667E0,7.3333335E0,-4.6E-1,9E0,6E0,7.3333335E0,-5.9070077E-2,-1.0268028E-2,2.3983954E-2,-5.6413252E-2,5.0190028E-2,-1.3673167E-2,2.3241669E-2,-2.8810645E-3,2.7734721E-2,-2.0340506E-2,2.8906656E-2,7.1561174E-3],"split_indices":[30,14,23,11,0,15,26,5,5,11,28,29,7,0,0,0,0,0,0,0,0,0,0,0,0],"split_type":[0,0,0,0,0,0,0,0,0,0,0,0,0,0,0,0,0,0,0,0,0,0,0,0,0],"sum_hessian":[1.4612893E3,1.0853371E2,1.3527556E3,9.9923225E1,8.610482E0,8.2004004E2,5.327156E2,7.09082E1,2.9015018E1,4.897956E2,3.3024442E2,1.5126172E2,3.8145386E2,5.6174088E1,1.47341175E1,1.6416975E1,1.25980425E1,1.400611E1,4.757895E2,1.2049774E2,2.0974667E2,4.5049202E1,1.06212524E2,2.1061707E2,1.708368E2],"tree_param":{"num_deleted":"0","num_feature":"32","num_nodes":"25","size_leaf_vector":"1"}},{"base_weights":[5.799682E-2,-4.4212073E-1,1.5694836E-1,-5.6292546E-1,2.56895E-1,1.9436685E-2,4.2865625E-1,-1.7076026E-1,-7.100961E-1,-3.0959204E-1,7.9113764E-1,-1.3118553E-1,3.0495748E-1,2.6384622E-1,6.052209E-1,-3.168356E-2,1.9361556E-2,-4.1070875E-2,9.407726E-3,-5.729566E-2,7.0161866E-3,6.0563263E-2,-7.812202E-3,-2.8235406E-2,5.2731302E-6,-4.403709E-2,1.8258696E-2,8.9390315E-3,5.2535094E-2,3.2483693E-2,-1.2568797E-2],"categories":[],"categories_nodes":[],"categories_segments":[],"categories_sizes":[],"default_left":[0,0,0,0,0,0,0,0,0,0,0,0,0,0,0,0,0,0,0,0,0,0,0,0,0,0,0,0,0,0,0],"id":46,"left_children":[1,3,5,7,9,11,13,15,17,19,21,23,25,27,29,-1,-1,-1,-1,-1,-1,-1,-1,-1,-1,-1,-1,-1,-1,-1,-1],"loss_changes":[7.368675E1,2.1014103E1,4.6386906E1,1.1866081E1,1.1657347E1,3.5650074E1,1.1819527E1,1.5771595E1,1.5517891E1,7.4969797E0,8.202376E0,3.0924099E1,2.0875212E1,1.4242831E1,7.9026413E0,0E0,0E0,0E0,0E0,0E0,0E0,0E0,0E0,0E0,0E0,0E0,0E0,0E0,0E0,0E0,0E0],"parents":[2147483647,0,0,1,1,2,2,3,3,4,4,5,5,6,6,7,7,8,8,9,9,10,10,11,11,12,12,13,13,14,14],"right_children":[2,4,6,8,10,12,14,16,18,20,22,24,26,28,30,-1,-1,-1,-1,-1,-1,-1,-1,-1,-1,-1,-1,-1,-1,-1,-1],"split_conditions":[5E0,8.5E0,7.5E0,-2E-2,4E0,2.041E1,7.5E0,1E0,1E1,7E0,1.628E1,6E0,4E0,1E1,9E0,-3.168356E-2,1.9361556E-2,-4.1070875E-2,9.407726E-3,-5.729566E-2,7.0161866E-3,6.0563263E-2,-7.812202E-3,-2.8235406E-2,5.2731302E-6,-4.403709E-2,1.8258696E-2,8.9390315E-3,5.2535094E-2,3.2483693E-2,-1.2568797E-2],"split_indices":[23,12,30,11,9,26,21,10,19,19,27,30,15,31,4,0,0,0,0,0,0,0,0,0,0,0,0,0,0,0,0],"split_type":[0,0,0,0,0,0,0,0,0,0,0,0,0,0,0,0,0,0,0,0,0,0,0,0,0,0,0,0,0,0,0],"sum_hessian":[1.4859734E3,2.4442021E2,1.2415532E3,2.0877463E2,3.5645584E1,8.256607E2,4.1589246E2,5.8038776E1,1.5073584E2,1.7515987E1,1.8129597E1,5.408198E2,2.8484085E2,2.1733458E2,1.9855788E2,3.170883E1,2.6329948E1,1.3432803E2,1.6407814E1,5.3930364E0,1.2122951E1,1.234348E1,5.7861176E0,1.2473967E2,4.1608017E2,1.2698542E1,2.721423E2,1.9790709E2,1.9427485E1,1.8921758E2,9.340313E0],"tree_param":{"num_deleted":"0","num_feature":"32","num_nodes":"31","size_leaf_vector":"1"}},{"base_weights":[-2.1504762E-2,-1.839091E-1,2.3661269E-1,-3.7354782E-1,-3.6233019E-3,7.851727E-2,5.0863105E-1,-6.065475E-1,-8.820105E-2,-3.6253142E-1,1.1017674E-1,3.3720106E-2,7.243935E-2,7.428511E-1,3.1662902E-1,-3.8645364E-2,1.4651826E-3,4.9132373E-2,-8.232561E-3,4.7971625E-2,-2.347019E-2,-1.5723913E-3,2.1698913E-2,-5.1366906E-3,2.6432985E-2,4.7610376E-2,1.7315881E-2,-2.1670796E-2,2.147957E-2],"categories":[],"categories_nodes":[],"categories_segments":[],"categories_sizes":[],"default_left":[0,0,0,0,0,0,0,0,0,0,0,0,0,0,0,0,0,0,0,0,0,0,0,0,0,0,0,0,0],"id":47,"left_children":[1,3,5,7,9,11,13,15,17,19,21,23,-1,25,27,-1,-1,-1,-1,-1,-1,-1,-1,-1,-1,-1,-1,-1,-1],"loss_changes":[6.1188595E1,3.0599024E1,2.4118357E1,2.8868847E1,1.8921926E1,2.1780872E1,8.834412E0,2.5476753E1,1.6382002E1,1.6391928E1,1.616167E1,2.3673801E1,0E0,6.9915657E0,1.0141795E1,0E0,0E0,0E0,0E0,0E0,0E0,0E0,0E0,0E0,0E0,0E0,0E0,0E0,0E0],"parents":[2147483647,0,0,1,1,2,2,3,3,4,4,5,5,6,6,7,7,8,8,9,9,10,10,11,11,13,13,14,14],"right_children":[2,4,6,8,10,12,14,16,18,