{"learner":{"attributes":{"best_iteration":"399","best_score":"0.998347876161381","scikit_learn":"{\"_estimator_type\": \"classifier\"}"},"feature_names":[],"feature_types":[],"gradient_booster":{"model":{"cats":{"enc":[],"feature_segments":[],"sorted_idx":[]},"gbtree_model_param":{"num_parallel_tree":"1","num_trees":"400"},"iteration_indptr":[0,1,2,3,4,5,6,7,8,9,10,11,12,13,14,15,16,17,18,19,20,21,22,23,24,25,26,27,28,29,30,31,32,33,34,35,36,37,38,39,40,41,42,43,44,45,46,47,48,49,50,51,52,53,54,55,56,57,58,59,60,61,62,63,64,65,66,67,68,69,70,71,72,73,74,75,76,77,78,79,80,81,82,83,84,85,86,87,88,89,90,91,92,93,94,95,96,97,98,99,100,101,102,103,104,105,106,107,108,109,110,111,112,113,114,115,116,117,118,119,120,121,122,123,124,125,126,127,128,129,130,131,132,133,134,135,136,137,138,139,140,141,142,143,144,145,146,147,148,149,150,151,152,153,154,155,156,157,158,159,160,161,162,163,164,165,166,167,168,169,170,171,172,173,174,175,176,177,178,179,180,181,182,183,184,185,186,187,188,189,190,191,192,193,194,195,196,197,198,199,200,201,202,203,204,205,206,207,208,209,210,211,212,213,214,215,216,217,218,219,220,221,222,223,224,225,226,227,228,229,230,231,232,233,234,235,236,237,238,239,240,241,242,243,244,245,246,247,248,249,250,251,252,253,254,255,256,257,258,259,260,261,262,263,264,265,266,267,268,269,270,271,272,273,274,275,276,277,278,279,280,281,282,283,284,285,286,287,288,289,290,291,292,293,294,295,296,297,298,299,300,301,302,303,304,305,306,307,308,309,310,311,312,313,314,315,316,317,318,319,320,321,322,323,324,325,326,327,328,329,330,331,332,333,334,335,336,337,338,339,340,341,342,343,344,345,346,347,348,349,350,351,352,353,354,355,356,357,358,359,360,361,362,363,364,365,366,367,368,369,370,371,372,373,374,375,376,377,378,379,380,381,382,383,384,385,386,387,388,389,390,391,392,393,394,395,396,397,398,399,400],"tree_info":[0,0,0,0,0,0,0,0,0,0,0,0,0,0,0,0,0,0,0,0,0,0,0,0,0,0,0,0,0,0,0,0,0,0,0,0,0,0,0,0,0,0,0,0,0,0,0,0,0,0,0,0,0,0,0,0,0,0,0,0,0,0,0,0,0,0,0,0,0,0,0,0,0,0,0,0,0,0,0,0,0,0,0,0,0,0,0,0,0,0,0,0,0,0,0,0,0,0,0,0,0,0,0,0,0,0,0,0,0,0,0,0,0,0,0,0,0,0,0,0,0,0,0,0,0,0,0,0,0,0,0,0,0,0,0,0,0,0,0,0,0,0,0,0,0,0,0,0,0,0,0,0,0,0,0,0,0,0,0,0,0,0,0,0,0,0,0,0,0,0,0,0,0,0,0,0,0,0,0,0,0,0,0,0,0,0,0,0,0,0,0,0,0,0,0,0,0,0,0,0,0,0,0,0,0,0,0,0,0,0,0,0,0,0,0,0,0,0,0,0,0,0,0,0,0,0,0,0,0,0,0,0,0,0,0,0,0,0,0,0,0,0,0,0,0,0,0,0,0,0,0,0,0,0,0,0,0,0,0,0,0,0,0,0,0,0,0,0,0,0,0,0,0,0,0,0,0,0,0,0,0,0,0,0,0,0,0,0,0,0,0,0,0,0,0,0,0,0,0,0,0,0,0,0,0,0,0,0,0,0,0,0,0,0,0,0,0,0,0,0,0,0,0,0,0,0,0,0,0,0,0,0,0,0,0,0,0,0,0,0,0,0,0,0,0,0,0,0,0,0,0,0,0,0,0,0,0,0,0,0,0,0,0,0,0,0,0,0,0,0,0,0,0,0,0,0,0,0,0,0,0,0,0,0,0,0,0,0,0,0,0,0,0,0,0,0,0,0,0,0],"trees":[{"base_weights":[-8.503771E-3,-5.365408E-1,1.5030328E0,-9.033059E-1,1.1880817E0,9.1699815E-1,1.7663667E0,-1.4771588E0,-1.2054614E-1,4.6811783E-1,1.6053464E0,7.884813E-2,5.990298E-1,1.7847373E0,-7.091892E-2,-1.2198083E0,-1.7268579E0,-3.500765E-1,7.965226E-2,8.431753E-1,-4.3604136E-1,1.6296766E0,-6.656E-2,2.0242321E-1,1.6986388E0,1.6760222E0,7.8654386E-2,-1.4019138E0,-8.986612E-1,-1.8660561E0,-1.2339407E0,-1.0921607E0,1.7173736E-1,5.8356446E-1,1.1569589E0,-1.1299297E0,8.9882994E-1,1.7115034E0,1.2466244E0,-2.2849579E-1,1.3634448E0,7.097211E-2,8.6491466E-1,7.936184E-2,1.5417434E0,-6.1280984E-2,-4.1016206E-2,-3.938588E-2,-1.8998606E-2,-7.355642E-2,-7.962541E-2,-5.351936E-2,-3.7163325E-2,7.4050673E-3,-6.3626245E-2,-5.56387E-3,2.4307715E-2,9.377178E-3,4.8106328E-2,3.9052594E-2,6.39936E-2,-6.0611103E-2,-1.8178277E-2,4.4460997E-2,5.1498613E-3,6.561094E-2,7.934044E-2,3.2330368E-2,6.5687254E-2,-3.583857E-2,1.089892E-2,7.591847E-2,4.2892326E-2,6.4266026E-2,1.3090025E-3,4.3579496E-2,6.767436E-2],"categories":[],"categories_nodes":[],"categories_segments":[],"categories_sizes":[],"default_left":[0,0,0,0,0,0,0,0,0,0,0,0,0,0,0,0,0,0,0,0,0,0,0,0,0,0,0,0,0,0,0,0,0,0,0,0,0,0,0,0,0,0,0,0,0,0,0,0,0,0,0,0,0,0,0,0,0,0,0,0,0,0,0,0,0,0,0,0,0,0,0,0,0,0,0,0,0],"id":0,"left_children":[1,3,5,7,9,11,13,15,17,19,21,-1,23,25,-1,27,29,31,-1,33,35,37,-1,39,41,43,-1,45,47,49,51,53,55,57,59,61,63,65,67,69,71,-1,73,-1,75,-1,-1,-1,-1,-1,-1,-1,-1,-1,-1,-1,-1,-1,-1,-1,-1,-1,-1,-1,-1,-1,-1,-1,-1,-1,-1,-1,-1,-1,-1,-1,-1],"loss_changes":[7.599844E3,4.4647017E3,3.7854102E2,2.6138892E3,3.709353E2,2.5548938E2,1.13677734E2,2.1337695E2,1.1944324E3,1.5494626E2,6.5008545E1,0E0,2.5693646E2,2.9737305E1,0E0,9.542822E1,1.1414453E2,8.608739E2,0E0,2.5423859E1,1.2533531E2,2.1955322E1,0E0,2.1810117E2,8.0607605E0,4.0646484E1,0E0,4.9882812E1,2.1342285E1,4.3652344E-1,1.0514587E1,5.848008E2,1.7706195E2,3.819728E1,9.767624E0,2.2225182E1,7.3337097E0,8.747925E0,2.2847855E1,1.0667536E2,1.6027328E1,0E0,9.08255E0,0E0,4.856067E1,0E0,0E0,0E0,0E0,0E0,0E0,0E0,0E0,0E0,0E0,0E0,0E0,0E0,0E0,0E0,0E0,0E0,0E0,0E0,0E0,0E0,0E0,0E0,0E0,0E0,0E0,0E0,0E0,0E0,0E0,0E0,0E0],"parents":[2147483647,0,0,1,1,2,2,3,3,4,4,5,5,6,6,7,7,8,8,9,9,10,10,12,12,13,13,15,15,16,16,17,17,19,19,20,20,21,21,23,23,24,24,25,25,27,27,28,28,29,29,30,30,31,31,32,32,33,33,34,34,35,35,36,36,37,37,38,38,39,39,40,40,42,42,44,44],"right_children":[2,4,6,8,10,12,14,16,18,20,22,-1,24,26,-1,28,30,32,-1,34,36,38,-1,40,42,44,-1,46,48,50,52,54,56,58,60,62,64,66,68,70,72,-1,74,-1,76,-1,-1,-1,-1,-1,-1,-1,-1,-1,-1,-1,-1,-1,-1,-1,-1,-1,-1,-1,-1,-1,-1,-1,-1,-1,-1,-1,-1,-1,-1,-1,-1],"split_conditions":[7.692308E-2,1E0,1E0,1E0,1E0,1E-1,5.2E1,1.7E1,4E0,2E1,5.2E1,7.884813E-2,1E0,1E0,-7.091892E-2,6.666667E-2,2.6E1,2.6E1,7.965226E-2,6.666667E-2,2.6E1,2.1E1,-6.656E-2,1.6666667E-1,2.4E1,1E-1,7.8654386E-2,4.428571E0,5.4473054E-2,5.2E1,4.428571E0,4E1,6.666667E-2,4.428571E0,5.4473054E-2,6.666667E-2,1E0,4E0,2.6E1,2.6E1,2E-1,7.097211E-2,4.5E1,7.936184E-2,2.6E1,-6.1280984E-2,-4.1016206E-2,-3.938588E-2,-1.8998606E-2,-7.355642E-2,-7.962541E-2,-5.351936E-2,-3.7163325E-2,7.4050673E-3,-6.3626245E-2,-5.56387E-3,2.4307715E-2,9.377178E-3,4.8106328E-2,3.9052594E-2,6.39936E-2,-6.0611103E-2,-1.8178277E-2,4.4460997E-2,5.1498613E-3,6.561094E-2,7.934044E-2,3.2330368E-2,6.5687254E-2,-3.583857E-2,1.089892E-2,7.591847E-2,4.2892326E-2,6.4266026E-2,1.3090025E-3,4.3579496E-2,6.767436E-2],"split_indices":[35,40,37,37,37,35,17,34,18,34,17,0,40,40,0,35,0,0,0,35,0,34,0,35,34,35,0,25,39,17,27,17,35,10,39,35,21,18,0,0,35,0,17,0,0,0,0,0,0,0,0,0,0,0,0,0,0,0,0,0,0,0,0,0,0,0,0,0,0,0,0,0,0,0,0,0,0],"split_type":[0,0,0,0,0,0,0,0,0,0,0,0,0,0,0,0,0,0,0,0,0,0,0,0,0,0,0,0,0,0,0,0,0,0,0,0,0,0,0,0,0,0,0,0,0,0,0,0,0,0,0,0,0,0,0,0,0,0,0,0,0,0,0,0,0,0,0,0,0,0,0,0,0,0,0,0,0],"sum_hessian":[9.519968E3,7.0558154E3,2.4641526E3,5.818883E3,1.2369326E3,7.6548065E2,1.6986719E3,3.3568853E3,2.4619976E3,4.547139E2,7.822187E2,1.761041E2,5.893766E2,1.6904219E3,8.25E0,1.6562104E3,1.7006748E3,2.2214382E3,2.405593E2,3.2152078E2,1.3319313E2,7.769687E2,5.25E0,4.3408572E2,1.5529086E2,1.0641964E3,6.262255E2,1.054553E3,6.0165753E2,1.3238385E3,3.7683624E2,9.167725E2,1.3046658E3,1.7768797E2,1.4383281E2,8.778794E1,4.5405186E1,6.3713586E2,1.3983281E2,3.1710696E2,1.16978775E2,1.412259E2,1.4064946E1,3.186714E2,7.4552496E2,7.8124255E2,2.7331036E2,4.988581E2,1.0279944E2,1.1005885E3,2.2325E2,2.7818048E2,9.8655754E1,2.5747534E2,6.592972E2,7.618921E2,5.427737E2,1.1460002E2,6.308795E1,1.04598885E2,3.923392E1,5.5012646E1,3.277529E1,3.5129322E1,1.0275865E1,5.1077777E2,1.2635809E2,6.789082E1,7.194198E1,1.3570749E2,1.8139946E2,3.918105E1,7.779772E1,6.881037E0,7.1839094E0,1.8801442E2,5.5751056E2],"tree_param":{"num_deleted":"0","num_feature":"55","num_nodes":"77","size_leaf_vector":"1"}},{"base_weights":[-3.2276304E-3,-5.1111734E-1,1.4414424E0,-8.5901326E-1,1.1278453E0,8.6465716E-1,1.6996086E0,-1.4123943E0,-1.0256911E-1,4.2282066E-1,1.5338014E0,7.565019E-2,5.445331E-1,1.7187048E0,-6.9126144E-2,-1.6606094E0,-1.1678334E0,-8.650473E-1,3.9315426E-1,8.0672234E-1,-4.920881E-1,1.5604439E0,-6.578118E-2,1.5375274E-1,1.6643705E0,1.792618E0,1.449004E0,-1.0836012E0,-7.245583E-2,-1.3092828E0,-9.1047585E-1,3.5544768E-1,-1.3965116E0,2.1049881E-1,1.1919863E0,6.4542323E-1,1.3697661E0,-1.1700646E0,8.7937915E-1,1.6392013E0,1.1885338E0,-2.7299392E-1,1.300553E0,6.884384E-2,1.0418788E0,7.6678686E-2,1.7310206E0,1.0167375E0,7.0453495E-2,-5.4597046E-2,-2.6184596E-2,-5.786765E-2,-3.634423E-2,-3.7699513E-2,1.5154477E-3,5.866887E-3,5.0989076E-2,-6.0298536E-2,-1.8226381E-2,-2.4014951E-3,2.373401E-2,4.259541E-2,5.666708E-2,2.8414331E-2,-1.666169E-2,3.749924E-2,6.589033E-2,-6.0158145E-2,-2.167786E-2,4.297434E-2,-2.4581674E-4,6.311464E-2,7.304458E-2,3.0807786E-2,6.259078E-2,8.85158E-3,-3.6648955E-2,7.222789E-2,4.0652923E-2,6.390649E-2,8.6723175E-3,6.523803E-2,7.557509E-2,2.5074326E-2,7.163667E-2],"categories":[],"categories_nodes":[],"categories_segments":[],"categories_sizes":[],"default_left":[0,0,0,0,0,0,0,0,0,0,0,0,0,0,0,0,0,0,0,0,0,0,0,0,0,0,0,0,0,0,0,0,0,0,0,0,0,0,0,0,0,0,0,0,0,0,0,0,0,0,0,0,0,0,0,0,0,0,0,0,0,0,0,0,0,0,0,0,0,0,0,0,0,0,0,0,0,0,0,0,0,0,0,0,0],"id":1,"left_children":[1,3,5,7,9,11,13,15,17,19,21,-1,23,25,-1,27,29,31,33,35,37,39,-1,41,43,45,47,49,-1,51,53,55,57,59,61,63,65,67,69,71,73,75,77,-1,79,-1,81,83,-1,-1,-1,-1,-1,-1,-1,-1,-1,-1,-1,-1,-1,-1,-1,-1,-1,-1,-1,-1,-1,-1,-1,-1,-1,-1,-1,-1,-1,-1,-1,-1,-1,-1,-1,-1,-1],"loss_changes":[7.0207944E3,4.0377632E3,3.6889014E2,2.4446558E3,3.5406787E2,2.523454E2,1.1543701E2,2.0252979E2,9.3353436E2,1.6009537E2,6.9153564E1,0E0,2.5764755E2,3.115039E1,0E0,1.4316797E2,6.0564697E1,6.3178687E2,2.1799501E2,2.803772E1,1.2650105E2,2.0629272E1,0E0,2.1499002E2,3.311798E0,6.5581055E0,4.831305E1,4.101294E1,0E0,5.8800903E1,1.8566376E1,5.646614E1,6.99082E1,1.26397415E2,6.1887817E0,1.7654366E1,6.6397552E0,1.801445E1,7.909321E0,4.1292725E0,2.0636017E1,1.0208939E2,1.4985733E1,0E0,6.5380135E0,0E0,1.0907227E1,4.6636642E1,0E0,0E0,0E0,0E0,0E0,0E0,0E0,0E0,0E0,0E0,0E0,0E0,0E0,0E0,0E0,0E0,0E0,0E0,0E0,0E0,0E0,0E0,0E0,0E0,0E0,0E0,0E0,0E0,0E0,0E0,0E0,0E0,0E0,0E0,0E0,0E0,0E0],"parents":[2147483647,0,0,1,1,2,2,3,3,4,4,5,5,6,6,7,7,8,8,9,9,10,10,12,12,13,13,15,15,16,16,17,17,18,18,19,19,20,20,21,21,23,23,24,24,25,25,26,26,27,27,29,29,30,30,31,31,32,32,33,33,34,34,35,35,36,36,37,37,38,38,39,39,40,40,41,41,42,42,44,44,46,46,47,47],"right_children":[2,4,6,8,10,12,14,16,18,20,22,-1,24,26,-1,28,30,32,34,36,38,40,-1,42,44,46,48,50,-1,52,54,56,58,60,62,64,66,68,70,72,74,76,78,-1,80,-1,82,84,-1,-1,-1,-1,-1,-1,-1,-1,-1,-1,-1,-1,-1,-1,-1,-1,-1,-1,-1,-1,-1,-1,-1,-1,-1,-1,-1,-1,-1,-1,-1,-1,-1,-1,-1,-1,-1],"split_conditions":[7.692308E-2,1E0,1E0,1E0,1E0,1E-1,5.2E1,2.6E1,2.6E1,2E1,5.2E1,7.565019E-2,1E0,1.9E1,-6.9126144E-2,4E1,6.666667E-2,4E1,2E0,5.4473054E-2,2.6E1,2.1E1,-6.578118E-2,1.6666667E-1,2.2E1,1.4285715E-1,2.6E1,6.666667E-2,-7.245583E-2,4.428571E0,5.7273936E-1,2E0,2E0,6.666667E-2,6.9E1,6.3333335E0,6.666667E-2,6.666667E-2,4.6666665E0,2E0,2.6E1,1.7E1,2E-1,6.884384E-2,4.4E1,7.6678686E-2,1E0,1E0,7.0453495E-2,-5.4597046E-2,-2.6184596E-2,-5.786765E-2,-3.634423E-2,-3.7699513E-2,1.5154477E-3,5.866887E-3,5.0989076E-2,-6.0298536E-2,-1.8226381E-2,-2.4014951E-3,2.373401E-2,4.259541E-2,5.666708E-2,2.8414331E-2,-1.666169E-2,3.749924E-2,6.589033E-2,-6.0158145E-2,-2.167786E-2,4.297434E-2,-2.4581674E-4,6.311464E-2,7.304458E-2,3.0807786E-2,6.259078E-2,8.85158E-3,-3.6648955E-2,7.222789E-2,4.0652923E-2,6.390649E-2,8.6723175E-3,6.523803E-2,7.557509E-2,2.5074326E-2,7.163667E-2],"split_indices":[35,40,37,37,37,35,17,0,0,34,17,0,40,34,0,17,35,17,37,39,0,34,0,35,34,35,0,35,0,25,39,37,37,35,2,23,35,35,5,37,0,34,35,0,17,0,40,40,0,0,0,0,0,0,0,0,0,0,0,0,0,0,0,0,0,0,0,0,0,0,0,0,0,0,0,0,0,0,0,0,0,0,0,0,0],"split_type":[0,0,0,0,0,0,0,0,0,0,0,0,0,0,0,0,0,0,0,0,0,0,0,0,0,0,0,0,0,0,0,0,0,0,0,0,0,0,0,0,0,0,0,0,0,0,0,0,0,0,0,0,0,0,0,0,0,0,0,0,0,0,0,0,0,0,0,0,0,0,0,0,0,0,0,0,0,0,0,0,0,0,0,0,0],"sum_hessian":[9.566718E3,7.0788027E3,2.4879158E3,5.839758E3,1.2390447E3,7.7072565E2,1.71719E3,3.3719724E3,2.4677854E3,4.5358716E2,7.854576E2,1.819654E2,5.8876025E2,1.7082013E3,8.988693E0,1.6704073E3,1.7015652E3,9.7207764E2,1.4957078E3,3.1967642E2,1.3391075E2,7.794642E2,5.993359E0,4.373637E2,1.5139656E2,1.3360347E3,3.721666E2,3.4791278E2,1.3224945E3,1.0951633E3,6.064018E2,2.9492728E2,6.771503E2,1.2184858E3,2.7722192E2,2.5029622E2,6.93802E1,8.9758804E1,4.4151947E1,6.4021326E2,1.3925096E2,3.1924222E2,1.1812148E2,1.3698782E2,1.4408747E1,4.3206482E2,9.0396985E2,1.5802998E2,2.1413661E2,2.0866048E2,1.392523E2,8.1336646E2,2.8179688E2,5.86709E2,1.9692774E1,2.41377E2,5.3550266E1,6.050859E2,7.206451E1,7.143109E2,5.0417496E2,1.810127E2,9.620922E1,2.3627422E2,1.4022E1,2.8977314E1,4.040289E1,5.7591347E1,3.216746E1,3.610241E1,8.049535E0,4.8954654E2,1.506667E2,6.750479E1,7.174616E1,1.8080501E2,1.3843723E2,4.047787E1,7.7643616E1,7.9774127E0,6.4313335E0,5.612386E2,3.427313E2,1.06390335E2,5.1639652E1],"tree_param":{"num_deleted":"0","num_feature":"55","num_nodes":"85","size_leaf_vector":"1"}},{"base_weights":[3.7692388E-4,-4.9260965E-1,1.4061863E0,-8.2924294E-1,1.0704585E0,8.639151E-1,1.6525035E0,-1.3558023E0,-1.0982551E-1,3.960363E-1,1.4675573E0,4.9071103E-1,1.6838149E0,1.6701432E0,-6.6444464E-2,-1.1461711E0,-1.615102E0,-3.4021068E-1,7.82081E-2,7.583951E-1,-5.13501E-1,1.493187E0,-6.3707605E-2,7.239229E-2,1.651579E-1,6.8117835E-2,3.0919971E-2,1.5754697E0,7.304191E-2,-1.3050787E0,-8.654266E-1,-1.0671502E0,-1.712537E0,-5.3867036E-1,7.5842574E-2,5.3470856E-1,1.0441157E0,9.3732774E-1,-1.0432025E0,6.990759E-1,1.551031E0,-2.6038858E-1,1.2374519E0,7.400214E-2,1.4577222E0,-5.6831416E-2,-3.8408972E-2,-3.909833E-2,-2.1038374E-2,-4.7251847E-2,-2.3551712E-2,-6.721238E-2,-7.401521E-2,-4.2879796E-3,-4.53313E-2,1.059186E-2,4.3429554E-2,3.34122E-2,4.9985893E-2,2.7141523E-2,6.1404686E-2,-5.268508E-2,-2.2000955E-2,4.051415E-2,-1.4732281E-2,5.8827717E-2,7.4536934E-2,1.1285184E-2,-3.2684624E-2,5.833499E-2,2.0402469E-2,5.0951872E-2,7.085619E-2],"categories":[],"categories_nodes":[],"categories_segments":[],"categories_sizes":[],"default_left":[0,0,0,0,0,0,0,0,0,0,0,0,0,0,0,0,0,0,0,0,0,0,0,0,0,0,0,0,0,0,0,0,0,0,0,0,0,0,0,0,0,0,0,0,0,0,0,0,0,0,0,0,0,0,0,0,0,0,0,0,0,0,0,0,0,0,0,0,0,0,0,0,0],"id":2,"left_children":[1,3,5,7,9,11,13,15,17,19,21,23,25,27,-1,29,31,33,-1,35,37,39,-1,-1,41,-1,-1,43,-1,45,47,49,51,53,-1,55,57,59,61,63,65,67,69,-1,71,-1,-1,-1,-1,-1,-1,-1,-1,-1,-1,-1,-1,-1,-1,-1,-1,-1,-1,-1,-1,-1,-1,-1,-1,-1,-1,-1,-1],"loss_changes":[6.592979E3,3.7067676E3,3.2822754E2,2.1951675E3,3.335775E2,2.3570123E2,1.0197949E2,1.7976074E2,1.1663003E3,1.5337915E2,6.396216E1,2.2847124E2,2.6444702E0,2.1708984E1,0E0,8.136279E1,7.7616455E1,9.796571E2,0E0,2.0526749E1,1.030036E2,3.4489014E1,0E0,0E0,1.9608685E2,0E0,0E0,3.1192139E1,0E0,4.5548096E1,2.4941406E1,1.1589966E1,2.161621E0,5.196527E2,0E0,2.7638794E1,4.958023E0,4.303074E0,1.2296318E1,1.8808342E1,1.5133301E1,9.3230865E1,1.8674988E1,0E0,4.046228E1,0E0,0E0,0E0,0E0,0E0,0E0,0E0,0E0,0E0,0E0,0E0,0E0,0E0,0E0,0E0,0E0,0E0,0E0,0E0,0E0,0E0,0E0,0E0,0E0,0E0,0E0,0E0,0E0],"parents":[2147483647,0,0,1,1,2,2,3,3,4,4,5,5,6,6,7,7,8,8,9,9,10,10,11,11,12,12,13,13,15,15,16,16,17,17,19,19,20,20,21,21,24,24,27,27,29,29,30,30,31,31,32,32,33,33,35,35,36,36,37,37,38,38,39,39,40,40,41,41,42,42,44,44],"right_children":[2,4,6,8,10,12,14,16,18,20,22,24,26,28,-1,30,32,34,-1,36,38,40,-1,-1,42,-1,-1,44,-1,46,48,50,52,54,-1,56,58,60,62,64,66,68,70,-1,72,-1,-1,-1,-1,-1,-1,-1,-1,-1,-1,-1,-1,-1,-1,-1,-1,-1,-1,-1,-1,-1,-1,-1,-1,-1,-1,-1,-1],"split_conditions":[7.692308E-2,1E0,1E0,1E0,1E0,1E0,5.2E1,1.9E1,4E0,2E1,5.2E1,9.090909E-2,2.9E1,1E0,-6.6444464E-2,6.666667E-2,3.2E1,4E0,7.82081E-2,6.666667E-2,4E1,2E0,-6.3707605E-2,7.239229E-2,1.6666667E-1,6.8117835E-2,3.0919971E-2,1E-1,7.304191E-2,4.428571E0,1E0,4.428571E0,5.2E1,1.8E1,7.5842574E-2,4.428571E0,6.3E1,4.428571E0,6.666667E-2,1.9E1,4E0,4E1,2.1E1,7.400214E-2,2.576923E-1,-5.6831416E-2,-3.8408972E-2,-3.909833E-2,-2.1038374E-2,-4.7251847E-2,-2.3551712E-2,-6.721238E-2,-7.401521E-2,-4.2879796E-3,-4.53313E-2,1.059186E-2,4.3429554E-2,3.34122E-2,4.9985893E-2,2.7141523E-2,6.1404686E-2,-5.268508E-2,-2.2000955E-2,4.051415E-2,-1.4732281E-2,5.8827717E-2,7.4536934E-2,1.1285184E-2,-3.2684624E-2,5.833499E-2,2.0402469E-2,5.0951872E-2,7.085619E-2],"split_indices":[35,40,37,37,37,40,17,34,1,34,17,35,34,40,0,35,17,18,0,35,17,1,0,0,35,0,0,35,0,25,49,11,17,34,0,25,2,32,35,34,1,17,34,0,36,0,0,0,0,0,0,0,0,0,0,0,0,0,0,0,0,0,0,0,0,0,0,0,0,0,0,0,0],"split_type":[0,0,0,0,0,0,0,0,0,0,0,0,0,0,0,0,0,0,0,0,0,0,0,0,0,0,0,0,0,0,0,0,0,0,0,0,0,0,0,0,0,0,0,0,0,0,0,0,0,0,0,0,0,0,0,0,0,0,0,0,0,0,0,0,0,0,0,0,0,0,0,0,0],"sum_hessian":[9.510928E3,7.042023E3,2.4689048E3,5.7945923E3,1.2474307E3,7.727019E2,1.6962029E3,3.3451624E3,2.4494302E3,4.6312335E2,7.843073E2,5.321823E2,2.405196E2,1.6877444E3,8.458459E0,1.8529495E3,1.4922129E3,2.2043816E3,2.4504851E2,3.3137857E2,1.3174478E2,7.783335E2,5.9738054E0,1.04380516E2,4.278018E2,2.3461229E2,5.907323E0,1.057388E3,6.3035645E2,1.1806628E3,6.7228656E2,2.272409E2,1.264972E3,2.0254366E3,1.7894487E2,1.8767332E2,1.4370526E2,3.4979416E1,9.6765366E1,5.3851273E1,7.2448224E2,3.0673575E2,1.21066055E2,3.1267563E2,7.447123E2,8.814919E2,2.9917102E2,5.0383563E2,1.6845088E2,1.8210773E2,4.513319E1,1.0365454E3,2.2842665E2,1.1745161E3,8.5092053E2,1.2708507E2,6.0588257E1,7.403736E1,6.966789E1,2.6018206E1,8.961208E0,6.1007008E1,3.5758358E1,4.1729E1,1.2122272E1,5.8107513E2,1.434071E2,1.5550916E2,1.512266E2,9.1985725E1,2.9080328E1,4.7284366E2,2.7186865E2],"tree_param":{"num_deleted":"0","num_feature":"55","num_nodes":"73","size_leaf_vector":"1"}},{"base_weights":[-4.950007E-3,-4.7401097E-1,1.342373E0,-7.9307663E-1,1.0329462E0,8.114615E-1,1.5841252E0,-1.3141942E0,-9.04794E-2,3.7665275E-1,1.4195031E0,7.085318E-2,5.1761484E-1,1.6012363E0,-6.4403795E-2,-1.1021931E0,-1.577704E0,-2.9891962E-1,7.31975E-2,8.078871E-1,-3.573617E-1,1.4446543E0,-6.1805572E-2,1.7301743E-1,1.484178E0,1.670996E0,1.3528801E0,-1.2482748E0,-8.4026587E-1,-1.0703189E0,-1.6765053E0,5.5989075E-2,-9.737809E-1,6.5410155E-1,1.321878E0,8.8807833E-1,-9.781476E-1,1.3567898E0,7.220453E-2,-2.2603315E-1,1.212754E0,6.337334E-2,9.855587E-1,1.6045203E0,7.112711E-2,6.547451E-2,1.05284E0,-5.4812822E-2,-3.5091687E-2,-3.6841627E-2,-1.7976193E-2,-4.913629E-2,-2.4489036E-2,-6.596684E-2,-7.157392E-2,-9.831495E-3,1.894533E-2,1.04191005E-2,-5.2935027E-2,1.8522315E-2,4.425444E-2,4.4127837E-2,6.442317E-2,4.3027673E-2,1.0518561E-2,-3.333111E-2,-7.058065E-2,5.7430767E-2,3.330579E-2,9.380892E-3,-3.363072E-2,5.8567397E-2,2.9568758E-2,6.2341068E-2,1.3033092E-2,7.118412E-2,6.0741637E-2,2.898716E-2,6.7031056E-2],"categories":[],"categories_nodes":[],"categories_segments":[],"categories_sizes":[],"default_left":[0,0,0,0,0,0,0,0,0,0,0,0,0,0,0,0,0,0,0,0,0,0,0,0,0,0,0,0,0,0,0,0,0,0,0,0,0,0,0,0,0,0,0,0,0,0,0,0,0,0,0,0,0,0,0,0,0,0,0,0,0,0,0,0,0,0,0,0,0,0,0,0,0,0,0,0,0,0,0],"id":3,"left_children":[1,3,5,7,9,11,13,15,17,19,21,-1,23,25,-1,27,29,31,-1,33,35,37,-1,39,41,43,45,47,49,51,53,55,57,59,61,63,65,67,-1,69,71,-1,73,75,-1,-1,77,-1,-1,-1,-1,-1,-1,-1,-1,-1,-1,-1,-1,-1,-1,-1,-1,-1,-1,-1,-1,-1,-1,-1,-1,-1,-1,-1,-1,-1,-1,-1,-1],"loss_changes":[5.9816875E3,3.3765972E3,3.1218848E2,2.1214187E3,3.1061194E2,2.151706E2,9.430713E1,1.8384912E2,9.8865814E2,1.4477872E2,5.977368E1,0E0,1.95649E2,2.6368164E1,0E0,6.9420654E1,7.216138E1,5.337919E2,0E0,2.1690506E1,1.319175E2,2.1491577E1,0E0,1.8092606E2,5.897461E0,6.0646973E0,2.9683533E1,5.21593E1,2.0433594E1,1.6754028E1,5.2197266E-1,1.842758E2,3.318529E2,1.8657623E1,2.0656815E0,6.250557E0,1.12157135E1,2.4245117E1,0E0,8.95097E1,1.3094269E1,0E0,1.0136135E1,9.200684E0,0E0,0E0,3.610652E1,0E0,0E0,0E0,0E0,0E0,0E0,0E0,0E0,0E0,0E0,0E0,0E0,0E0,0E0,0E0,0E0,0E0,0E0,0E0,0E0,0E0,0E0,0E0,0E0,0E0,0E0,0E0,0E0,0E0,0E0,0E0,0E0],"parents":[2147483647,0,0,1,1,2,2,3,3,4,4,5,5,6,6,7,7,8,8,9,9,10,10,12,12,13,13,15,15,16,16,17,17,19,19,20,20,21,21,23,23,24,24,25,25,26,26,27,27,28,28,29,29,30,30,31,31,32,32,33,33,34,34,35,35,36,36,37,37,39,39,40,40,42,42,43,43,46,46],"right_children":[2,4,6,8,10,12,14,16,18,20,22,-1,24,26,-1,28,30,32,-1,34,36,38,-1,40,42,44,46,48,50,52,54,56,58,60,62,64,66,68,-1,70,72,-1,74,76,-1,-1,78,-1,-1,-1,-1,-1,-1,-1,-1,-1,-1,-1,-1,-1,-1,-1,-1,-1,-1,-1,-1,-1,-1,-1,-1,-1,-1,-1,-1,-1,-1,-1,-1],"split_conditions":[7.692308E-2,1E0,1E0,1E0,1E0,1E-1,5.2E1,1.9E1,4E0,1.7E1,5.2E1,7.085318E-2,1E0,1.9E1,-6.4403795E-2,6.666667E-2,4E1,2E1,7.31975E-2,5.4473054E-2,4E1,4E0,-6.1805572E-2,1.6666667E-1,2E1,1E0,4E1,4.428571E0,5.4473054E-2,4.428571E0,5.2E1,6.666667E-2,3.9E1,1E0,4.428571E0,5E0,5.2E1,2.3E1,7.220453E-2,1.7E1,1.6E1,6.337334E-2,3.2E1,1E-1,7.112711E-2,6.547451E-2,1E0,-5.4812822E-2,-3.5091687E-2,-3.6841627E-2,-1.7976193E-2,-4.913629E-2,-2.4489036E-2,-6.596684E-2,-7.157392E-2,-9.831495E-3,1.894533E-2,1.04191005E-2,-5.2935027E-2,1.8522315E-2,4.425444E-2,4.4127837E-2,6.442317E-2,4.3027673E-2,1.0518561E-2,-3.333111E-2,-7.058065E-2,5.7430767E-2,3.330579E-2,9.380892E-3,-3.363072E-2,5.8567397E-2,2.9568758E-2,6.2341068E-2,1.3033092E-2,7.118412E-2,6.0741637E-2,2.898716E-2,6.7031056E-2],"split_indices":[35,40,37,37,37,35,17,34,18,34,17,0,40,34,0,35,17,34,0,39,17,18,0,35,34,40,17,8,39,29,17,35,17,43,23,12,17,34,0,34,34,0,17,35,0,0,41,0,0,0,0,0,0,0,0,0,0,0,0,0,0,0,0,0,0,0,0,0,0,0,0,0,0,0,0,0,0,0,0],"split_type":[0,0,0,0,0,0,0,0,0,0,0,0,0,0,0,0,0,0,0,0,0,0,0,0,0,0,0,0,0,0,0,0,0,0,0,0,0,0,0,0,0,0,0,0,0,0,0,0,0,0,0,0,0,0,0,0,0,0,0,0,0,0,0,0,0,0,0,0,0,0,0,0,0,0,0,0,0,0,0],"sum_hessian":[9.463176E3,7.0199517E3,2.4432239E3,5.793783E3,1.2261686E3,7.6593195E2,1.677292E3,3.3259255E3,2.4678577E3,4.5533572E2,7.708328E2,1.7826149E2,5.876705E2,1.668882E3,8.410035E0,1.8461819E3,1.4797438E3,2.227034E3,2.4082373E2,2.8684787E2,1.6848785E2,7.648901E2,5.9427147E0,4.3416516E2,1.5350533E2,1.2981265E3,3.7075546E2,1.1825206E3,6.6366125E2,2.4327455E2,1.2364692E3,1.4599938E3,7.670401E2,2.2268724E2,6.416063E1,5.58494E1,1.1263846E2,6.190367E2,1.4585342E2,3.142446E2,1.19920555E2,1.2584862E2,2.7656708E1,8.116399E2,4.8648654E2,1.8801439E2,1.8274107E2,8.8756616E2,2.949544E2,5.4866296E2,1.14998276E2,1.794473E2,6.3827255E1,1.0086432E3,2.27826E2,8.476679E2,6.1232587E2,1.6929747E2,5.977426E2,1.5813342E2,6.455382E1,3.9447803E1,2.4712826E1,4.227945E1,1.3569948E1,9.6962265E1,1.5676191E1,5.362962E2,8.2740456E1,1.7991171E2,1.3433289E2,7.682558E1,4.309498E1,1.3991409E1,1.3665298E1,2.6043872E2,5.512012E2,1.2121122E2,6.1529858E1],"tree_param":{"num_deleted":"0","num_feature":"55","num_nodes":"79","size_leaf_vector":"1"}},{"base_weights":[-8.158734E-3,-4.659503E-1,1.2837508E0,-1.0751138E0,2.50765E-1,7.4673766E-1,1.5289679E0,-1.2673042E0,8.6241946E-2,3.290192E-2,7.338438E-2,4.0906876E-1,1.4743009E0,1.5452932E0,-6.257717E-2,-1.4974804E0,-1.0404941E0,4.617734E-1,-7.01471E-1,-3.2085115E-1,1.1373061E0,-2.682837E-1,8.120304E-1,1.5592011E0,1.0284061E0,1.6141808E0,1.288194E0,-9.519445E-1,-6.566527E-2,-1.1664683E0,-8.081056E-1,2.509229E-1,9.4974464E-1,-1.1658844E0,5.4159707E-1,-5.045926E-1,7.084516E-2,1.3083748E0,5.0171447E-1,8.51741E-1,-9.07452E-1,1.4700979E0,5.9213126E-1,6.2948205E-2,3.3647873E-2,6.0760748E-2,5.812329E-1,1.5489035E0,6.8568744E-2,8.6873513E-1,1.5947133E0,-4.7213774E-2,-2.3192108E-2,-5.2024588E-2,-3.0124439E-2,-3.5521697E-2,-2.1735737E-2,1.8610256E-2,-3.231541E-2,9.982417E-3,6.0783543E-2,-5.691142E-2,-2.7954997E-2,6.8552527E-3,3.7319057E-2,-4.3398995E-2,-2.8077571E-3,4.8458856E-2,6.958607E-2,-5.3076996E-3,5.0724648E-2,6.087174E-2,2.3028836E-2,1.28110815E-2,-4.297036E-2,6.169349E-2,1.2866878E-2,1.1719956E-2,4.9782846E-2,5.155555E-2,8.243119E-3,4.1290868E-2,6.3066125E-2,1.792815E-2,6.441857E-2,4.2379398E-2,6.465621E-2],"categories":[],"categories_nodes":[],"categories_segments":[],"categories_sizes":[],"default_left":[0,0,0,0,0,0,0,0,0,0,0,0,0,0,0,0,0,0,0,0,0,0,0,0,0,0,0,0,0,0,0,0,0,0,0,0,0,0,0,0,0,0,0,0,0,0,0,0,0,0,0,0,0,0,0,0,0,0,0,0,0,0,0,0,0,0,0,0,0,0,0,0,0,0,0,0,0,0,0,0,0,0,0,0,0,0,0],"id":4,"left_children":[1,3,5,7,9,11,13,15,17,19,-1,21,23,25,-1,27,29,31,33,35,37,39,41,43,45,47,49,51,-1,53,55,57,59,61,63,65,-1,67,69,71,73,75,77,-1,-1,-1,79,81,-1,83,85,-1,-1,-1,-1,-1,-1,-1,-1,-1,-1,-1,-1,-1,-1,-1,-1,-1,-1,-1,-1,-1,-1,-1,-1,-1,-1,-1,-1,-1,-1,-1,-1,-1,-1,-1,-1],"loss_changes":[5.5747793E3,3.039037E3,3.2339136E2,8.4002637E2,1.1034026E3,1.8965573E2,8.786328E1,1.6673145E2,1.5858932E2,1.0993445E3,0E0,1.4519214E2,7.42218E0,2.7449463E1,0E0,1.23987305E2,4.656604E1,3.6994865E1,1.0060033E2,8.1991516E2,7.338867E1,1.4302744E2,4.714612E1,5.5810547E-1,8.199032E0,5.661865E0,4.4789062E1,2.7775452E1,0E0,5.727173E1,1.1570618E1,5.8212547E1,4.2948975E1,1.3954147E1,6.640296E0,4.9391547E2,0E0,2.004596E1,7.152101E1,1.2351353E1,2.6438477E1,6.176468E0,4.8578423E1,0E0,0E0,0E0,5.925709E0,9.751831E0,0E0,4.7349678E1,4.2633057E-1,0E0,0E0,0E0,0E0,0E0,0E0,0E0,0E0,0E0,0E0,0E0,0E0,0E0,0E0,0E0,0E0,0E0,0E0,0E0,0E0,0E0,0E0,0E0,0E0,0E0,0E0,0E0,0E0,0E0,0E0,0E0,0E0,0E0,0E0,0E0,0E0],"parents":[2147483647,0,0,1,1,2,2,3,3,4,4,5,5,6,6,7,7,8,8,9,9,11,11,12,12,13,13,15,15,16,16,17,17,18,18,19,19,20,20,21,21,22,22,23,23,24,24,25,25,26,26,27,27,29,29,30,30,31,31,32,32,33,33,34,34,35,35,37,37,38,38,39,39,40,40,41,41,42,42,46,46,47,47,49,49,50,50],"right_children":[2,4,6,8,10,12,14,16,18,20,-1,22,24,26,-1,28,30,32,34,36,38,40,42,44,46,48,50,52,-1,54,56,58,60,62,64,66,-1,68,70,72,74,76,78,-1,-1,-1,80,82,-1,84,86,-1,-1,-1,-1,-1,-1,-1,-1,-1,-1,-1,-1,-1,-1,-1,-1,-1,-1,-1,-1,-1,-1,-1,-1,-1,-1,-1,-1,-1,-1,-1,-1,-1,-1,-1,-1],"split_conditions":[1.2197802E-1,1E0,1E0,1E0,4E0,1E0,5.2E1,2.6E1,2E1,1E0,7.338438E-2,2.6E1,2.1E1,1.9E1,-6.257717E-2,4E1,1.0333333E-1,4.428571E0,2.6E1,4E0,2.1E1,4E1,1.8E-1,8.4E1,4.3E1,1E0,2.6E1,1.0333333E-1,-6.566527E-2,4.428571E0,1E0,5E0,4.428571E0,1.0333333E-1,1.0333333E-1,2.6E1,7.084516E-2,4E0,2.6E1,1.5128206E-1,1.6666667E-1,6.3333335E0,2.576923E-1,6.2948205E-2,3.3647873E-2,6.0760748E-2,1.5714286E-1,2E0,6.8568744E-2,1E0,2E0,-4.7213774E-2,-2.3192108E-2,-5.2024588E-2,-3.0124439E-2,-3.5521697E-2,-2.1735737E-2,1.8610256E-2,-3.231541E-2,9.982417E-3,6.0783543E-2,-5.691142E-2,-2.7954997E-2,6.8552527E-3,3.7319057E-2,-4.3398995E-2,-2.8077571E-3,4.8458856E-2,6.958607E-2,-5.3076996E-3,5.0724648E-2,6.087174E-2,2.3028836E-2,1.28110815E-2,-4.297036E-2,6.169349E-2,1.2866878E-2,1.1719956E-2,4.9782846E-2,5.155555E-2,8.243119E-3,4.1290868E-2,6.3066125E-2,1.792815E-2,6.441857E-2,4.2379398E-2,6.465621E-2],"split_indices":[36,37,37,41,1,41,17,0,34,41,0,0,34,34,0,17,36,10,0,18,34,17,36,19,17,41,0,36,0,24,49,27,27,36,36,0,0,18,0,36,36,6,36,0,0,0,36,1,0,41,1,0,0,0,0,0,0,0,0,0,0,0,0,0,0,0,0,0,0,0,0,0,0,0,0,0,0,0,0,0,0,0,0,0,0,0,0],"split_type":[0,0,0,0,0,0,0,0,0,0,0,0,0,0,0,0,0,0,0,0,0,0,0,0,0,0,0,0,0,0,0,0,0,0,0,0,0,0,0,0,0,0,0,0,0,0,0,0,0,0,0,0,0,0,0,0,0,0,0,0,0,0,0,0,0,0,0,0,0,0,0,0,0,0,0,0,0,0,0,0,0,0,0,0,0,0,0],"sum_hessian":[9.424135E3,6.958934E3,2.4652002E3,3.7615176E3,3.1974167E3,7.7419794E2,1.6910022E3,3.2274143E3,5.341031E2,2.8117368E3,3.8567987E2,5.299451E2,2.442528E2,1.6826548E3,8.347419E0,1.5988212E3,1.6285933E3,3.6204416E2,1.7205891E2,2.1300703E3,6.816665E2,1.9770383E2,3.322413E2,2.0289894E2,4.1353855E1,1.3226064E3,3.6004828E2,3.359034E2,1.2629177E3,1.0532134E3,5.753799E2,2.540076E2,1.0803657E2,1.2536484E2,4.6694084E1,1.9588303E3,1.7124011E2,5.3614734E2,1.455192E2,7.165413E1,1.260497E2,8.167665E1,2.5056465E2,1.9757675E2,5.322196E0,1.8469557E1,2.2884296E1,8.1093414E2,5.1167236E2,1.5377464E2,2.0627364E2,2.0663927E2,1.2926413E2,7.9335724E2,2.5985608E2,4.3982928E2,1.3555061E2,2.1179016E2,4.2217445E1,4.919843E1,5.883814E1,7.941697E1,4.594787E1,2.486605E1,2.1828033E1,8.377795E2,1.1210508E3,4.4108182E2,9.50655E1,7.999656E1,6.552264E1,1.9482872E1,5.2171257E1,1.4895644E1,1.1115405E2,7.643837E1,5.238279E0,1.7289684E2,7.766782E1,6.992378E0,1.5891919E1,4.3468067E1,7.6746606E2,9.924546E1,5.452919E1,1.0155254E1,1.9611838E2],"tree_param":{"num_deleted":"0","num_feature":"55","num_nodes":"87","size_leaf_vector":"1"}},{"base_weights":[2.343121E-3,-4.4254094E-1,1.2497317E0,-7.454599E-1,9.733409E-1,7.430227E-1,1.4861974E0,-1.2278725E0,-9.367017E-2,3.4548002E-1,1.3469403E0,4.2749092E-1,1.502246E0,1.5020176E0,-6.0857076E-2,-1.0191289E0,-1.4329839E0,-3.0793974E-1,7.2483845E-2,6.557822E-1,-3.9291683E-1,1.371145E0,-5.9907895E-2,1.3403064E0,1.7579205E-1,1.5290216E0,3.0324597E-2,1.4070908E0,6.662551E-2,-1.162947E0,-7.629482E-1,-1.559184E0,-9.9617696E-1,-4.824951E-1,6.870288E-2,5.1805264E-1,1.140232E0,-9.435831E-1,7.7713364E-1,6.7326075E-1,1.4245269E0,1.0134573E0,6.5839715E-2,-1.8694685E-1,1.1143904E0,6.387394E-2,1.3540267E0,6.7138207E-1,1.4519317E0,-5.1642105E-2,-3.1749442E-2,-3.3760455E-2,-1.5169197E-2,-4.7887214E-2,-6.273831E-2,-4.4449355E-2,-2.6085567E-2,-4.2196494E-2,-1.914579E-3,1.3368873E-2,3.849948E-2,5.1108256E-2,2.668952E-2,-4.992936E-2,-1.405478E-2,2.0856272E-2,4.8383694E-2,3.9386433E-2,-1.1468399E-2,5.4175206E-2,6.7959405E-2,6.652604E-2,-5.562643E-2,-3.2000832E-2,1.0510629E-2,3.401751E-2,6.1949223E-2,2.6582368E-2,6.0737144E-2,4.2083167E-2,-1.3188679E-2,3.4664474E-2,5.9452575E-2],"categories":[],"categories_nodes":[],"categories_segments":[],"categories_sizes":[],"default_left":[0,0,0,0,0,0,0,0,0,0,0,0,0,0,0,0,0,0,0,0,0,0,0,0,0,0,0,0,0,0,0,0,0,0,0,0,0,0,0,0,0,0,0,0,0,0,0,0,0,0,0,0,0,0,0,0,0,0,0,0,0,0,0,0,0,0,0,0,0,0,0,0,0,0,0,0,0,0,0,0,0,0,0],"id":5,"left_children":[1,3,5,7,9,11,13,15,17,19,21,23,25,27,-1,29,31,33,-1,35,37,39,-1,41,43,45,-1,47,-1,49,51,53,55,57,-1,59,61,63,65,67,69,71,-1,73,75,-1,77,79,81,-1,-1,-1,-1,-1,-1,-1,-1,-1,-1,-1,-1,-1,-1,-1,-1,-1,-1,-1,-1,-1,-1,-1,-1,-1,-1,-1,-1,-1,-1,-1,-1,-1,-1],"loss_changes":[5.2139473E3,2.9709517E3,2.9462695E2,1.7937195E3,2.8574585E2,1.8794922E2,8.236084E1,1.3866846E2,9.918236E2,1.0497182E2,5.4712524E1,1.2785741E2,3.2120361E0,2.3360107E1,0E0,5.8923096E1,8.920068E1,7.726738E2,0E0,2.0740128E1,8.819755E1,2.7110474E1,0E0,1.0096359E1,1.4968811E2,1.7456055E-1,0E0,3.4001465E1,0E0,4.7998413E1,1.786972E1,2.1391602E0,1.386441E1,5.0015253E2,0E0,2.0206787E1,3.525879E0,1.6144058E1,4.053894E0,1.7082527E1,1.0949585E1,9.754103E1,0E0,8.773115E1,1.2489914E1,0E0,6.585312E0,2.4530378E1,1.8689697E1,0E0,0E0,0E0,0E0,0E0,0E0,0E0,0E0,0E0,0E0,0E0,0E0,0E0,0E0,0E0,0E0,0E0,0E0,0E0,0E0,0E0,0E0,0E0,0E0,0E0,0E0,0E0,0E0,0E0,0E0,0E0,0E0,0E0,0E0],"parents":[2147483647,0,0,1,1,2,2,3,3,4,4,5,5,6,6,7,7,8,8,9,9,10,10,11,11,12,12,13,13,15,15,16,16,17,17,19,19,20,20,21,21,23,23,24,24,25,25,27,27,29,29,30,30,31,31,32,32,33,33,35,35,36,36,37,37,38,38,39,39,40,40,41,41,43,43,44,44,46,46,47,47,48,48],"right_children":[2,4,6,8,10,12,14,16,18,20,22,24,26,28,-1,30,32,34,-1,36,38,40,-1,42,44,46,-1,48,-1,50,52,54,56,58,-1,60,62,64,66,68,70,72,-1,74,76,-1,78,80,82,-1,-1,-1,-1,-1,-1,-1,-1,-1,-1,-1,-1,-1,-1,-1,-1,-1,-1,-1,-1,-1,-1,-1,-1,-1,-1,-1,-1,-1,-1,-1,-1,-1,-1],"split_conditions":[1.2197802E-1,1E0,1E0,1E0,1E0,1E0,5.2E1,1.7E1,4E0,2E1,5.2E1,1.8E-1,2.7E1,1E0,-6.0857076E-2,1.0333333E-1,2.6E1,4E0,7.2483845E-2,5.4473054E-2,2.6E1,2E0,-5.9907895E-2,1.3214286E-1,2.576923E-1,4.1E1,3.0324597E-2,2E0,6.662551E-2,4.428571E0,5.4473054E-2,4E1,4.428571E0,2.6E1,6.870288E-2,1E0,5E0,1.0333333E-1,4.428571E0,1.9E1,4E0,1.2346939E-1,6.5839715E-2,2.6E1,5.9929967E-2,6.387394E-2,2.6E1,1.8E1,2E0,-5.1642105E-2,-3.1749442E-2,-3.3760455E-2,-1.5169197E-2,-4.7887214E-2,-6.273831E-2,-4.4449355E-2,-2.6085567E-2,-4.2196494E-2,-1.914579E-3,1.3368873E-2,3.849948E-2,5.1108256E-2,2.668952E-2,-4.992936E-2,-1.405478E-2,2.0856272E-2,4.8383694E-2,3.9386433E-2,-1.1468399E-2,5.4175206E-2,6.7959405E-2,6.652604E-2,-5.562643E-2,-3.2000832E-2,1.0510629E-2,3.401751E-2,6.1949223E-2,2.6582368E-2,6.0737144E-2,4.2083167E-2,-1.3188679E-2,3.4664474E-2,5.9452575E-2],"split_indices":[36,40,37,37,37,40,17,34,1,34,17,36,34,40,0,36,0,18,0,39,0,1,0,36,36,17,0,1,0,5,39,17,27,0,0,43,30,36,15,34,18,36,0,0,39,0,0,34,18,0,0,0,0,0,0,0,0,0,0,0,0,0,0,0,0,0,0,0,0,0,0,0,0,0,0,0,0,0,0,0,0,0,0],"split_type":[0,0,0,0,0,0,0,0,0,0,0,0,0,0,0,0,0,0,0,0,0,0,0,0,0,0,0,0,0,0,0,0,0,0,0,0,0,0,0,0,0,0,0,0,0,0,0,0,0,0,0,0,0,0,0,0,0,0,0,0,0,0,0,0,0,0,0,0,0,0,0,0,0,0,0,0,0,0,0,0,0,0,0],"sum_hessian":[9.393317E3,6.924311E3,2.4690068E3,5.7044287E3,1.2198823E3,7.870493E2,1.6819576E3,3.2775564E3,2.426872E3,4.559006E2,7.639817E2,5.5718085E2,2.298685E2,1.6736877E3,8.269829E0,1.6275957E3,1.6499607E3,2.1823918E3,2.4448029E2,3.211772E2,1.3472343E2,7.580844E2,5.897306E0,1.19408714E2,4.3777213E2,2.2073672E2,9.131775E0,1.0656466E3,6.0804114E2,1.0398827E3,5.877131E2,1.277945E3,3.7201578E2,2.0099856E3,1.724062E2,2.5185136E2,6.932581E1,9.1798775E1,4.292466E1,5.4966743E1,7.031177E2,5.9950417E1,5.9458298E1,3.1624686E2,1.2152525E2,1.5281133E2,6.792541E1,6.2264927E1,1.0033817E3,7.6996075E2,2.6992194E2,4.840038E2,1.037093E2,3.543921E1,1.2425057E3,2.768933E2,9.512247E1,8.667721E2,1.1432135E3,1.7955803E2,7.229334E1,5.223198E1,1.7093832E1,5.9773193E1,3.2025585E1,2.8505404E1,1.4419256E1,4.1562836E1,1.3403911E1,5.6500995E2,1.3810771E2,4.7471443E1,1.2478975E1,1.3358269E2,1.8266417E2,7.757216E1,4.395309E1,1.41661415E1,5.3759266E1,4.514586E1,1.7119066E1,5.7285515E1,9.460962E2],"tree_param":{"num_deleted":"0","num_feature":"55","num_nodes":"83","size_leaf_vector":"1"}},{"base_weights":[7.835769E-3,-4.1585597E-1,1.2149377E0,-7.139907E-1,9.519148E-1,7.146874E-1,1.4451216E0,-1.1789169E0,-9.456482E-2,3.517739E-1,1.305573E0,3.8546216E-1,1.4659268E0,1.4602072E0,-5.9063524E-2,-9.6270424E-1,-1.3951523E0,-3.0228317E-1,7.017667E-2,6.686692E-1,-4.267144E-1,1.3276834E0,-5.7907093E-2,-2.6677677E-1,7.562674E-1,6.0322106E-2,9.4490707E-1,1.523556E0,1.225914E0,-1.1107262E0,-6.9979775E-1,-1.5272667E0,-9.419042E-1,-4.7103074E-1,6.678277E-2,4.9761078E-1,1.0330691E0,-9.2963785E-1,7.056344E-1,1.4322048E0,1.0497385E0,8.131816E-1,-9.121889E-1,1.3802054E0,5.58915E-1,5.7523064E-2,1.5767433E-2,1.4598851E0,6.511022E-2,8.7875044E-1,1.4754454E0,-4.9169626E-2,-2.9530687E-2,-3.1512953E-2,-1.6844068E-2,-6.1462376E-2,-4.9956612E-2,-4.2079657E-2,-2.3101661E-2,-4.1078024E-2,-2.1398095E-3,2.7439173E-2,-1.7097972E-2,1.9327482E-2,5.9186958E-2,-4.988428E-2,-1.4128652E-2,4.384466E-2,1.5841143E-2,5.5095036E-2,6.604788E-2,2.4637718E-2,5.3769197E-2,1.9763606E-2,5.1020257E-2,-4.350731E-2,5.828981E-3,4.5653153E-2,6.2423777E-2,9.440566E-3,5.0487418E-2,5.6116182E-2,6.675919E-2,2.2280097E-2,5.96117E-2,3.0963117E-2,5.9906542E-2],"categories":[],"categories_nodes":[],"categories_segments":[],"categories_sizes":[],"default_left":[0,0,0,0,0,0,0,0,0,0,0,0,0,0,0,0,0,0,0,0,0,0,0,0,0,0,0,0,0,0,0,0,0,0,0,0,0,0,0,0,0,0,0,0,0,0,0,0,0,0,0,0,0,0,0,0,0,0,0,0,0,0,0,0,0,0,0,0,0,0,0,0,0,0,0,0,0,0,0,0,0,0,0,0,0,0,0],"id":6,"left_children":[1,3,5,7,9,11,13,15,17,19,21,23,25,27,-1,29,31,33,-1,35,37,39,-1,41,43,-1,45,47,49,51,53,55,57,59,-1,61,63,65,67,69,71,73,75,77,79,-1,-1,81,-1,83,85,-1,-1,-1,-1,-1,-1,-1,-1,-1,-1,-1,-1,-1,-1,-1,-1,-1,-1,-1,-1,-1,-1,-1,-1,-1,-1,-1,-1,-1,-1,-1,-1,-1,-1,-1,-1],"loss_changes":[4.7462607E3,2.801688E3,2.7638623E2,1.6241023E3,2.6036365E2,1.8769489E2,7.488599E1,1.490498E2,9.296441E2,1.13154144E2,4.898169E1,1.2872618E2,3.4155273E0,2.2231201E1,0E0,6.186914E1,9.462378E1,7.247406E2,0E0,1.9626663E1,7.633469E1,2.0549194E1,0E0,1.3540211E2,4.078148E1,0E0,4.733185E0,5.8618164E0,2.9219055E1,4.440381E1,1.3886322E1,1.0192871E0,1.3901611E1,4.6531015E2,0E0,3.929529E1,2.4356522E1,1.6323914E1,4.417553E0,4.084839E0,2.6287292E1,9.922852E0,2.2800148E1,1.4245911E0,5.845076E1,0E0,0E0,7.0010986E0,0E0,2.8693565E1,1.8063049E0,0E0,0E0,0E0,0E0,0E0,0E0,0E0,0E0,0E0,0E0,0E0,0E0,0E0,0E0,0E0,0E0,0E0,0E0,0E0,0E0,0E0,0E0,0E0,0E0,0E0,0E0,0E0,0E0,0E0,0E0,0E0,0E0,0E0,0E0,0E0,0E0],"parents":[2147483647,0,0,1,1,2,2,3,3,4,4,5,5,6,6,7,7,8,8,9,9,10,10,11,11,12,12,13,13,15,15,16,16,17,17,19,19,20,20,21,21,23,23,24,24,26,26,27,27,28,28,29,29,30,30,31,31,32,32,33,33,35,35,36,36,37,37,38,38,39,39,40,40,41,41,42,42,43,43,44,44,47,47,49,49,50,50],"right_children":[2,4,6,8,10,12,14,16,18,20,22,24,26,28,-1,30,32,34,-1,36,38,40,-1,42,44,-1,46,48,50,52,54,56,58,60,-1,62,64,66,68,70,72,74,76,78,80,-1,-1,82,-1,84,86,-1,-1,-1,-1,-1,-1,-1,-1,-1,-1,-1,-1,-1,-1,-1,-1,-1,-1,-1,-1,-1,-1,-1,-1,-1,-1,-1,-1,-1,-1,-1,-1,-1,-1,-1,-1],"split_conditions":[1.2197802E-1,1E0,1E0,1E0,1E0,1E0,5.2E1,1.7E1,4E0,2E1,5.2E1,2.6E1,2.4E1,1.9E1,-5.9063524E-2,1.0333333E-1,2.6E1,4E0,7.017667E-2,4.428571E0,2.6E1,1.7E1,-5.7907093E-2,4E1,1.8E-1,6.0322106E-2,4.6E1,1E0,2.6E1,4.428571E0,1E0,1.1923077E-1,4.428571E0,2.6E1,6.678277E-2,5E0,4.428571E0,1.0333333E-1,5.8E1,4E0,2.6E1,4.428571E0,2.642857E-1,4.428571E0,2.576923E-1,5.7523064E-2,1.5767433E-2,4E0,6.511022E-2,1E0,2E0,-4.9169626E-2,-2.9530687E-2,-3.1512953E-2,-1.6844068E-2,-6.1462376E-2,-4.9956612E-2,-4.2079657E-2,-2.3101661E-2,-4.1078024E-2,-2.1398095E-3,2.7439173E-2,-1.7097972E-2,1.9327482E-2,5.9186958E-2,-4.988428E-2,-1.4128652E-2,4.384466E-2,1.5841143E-2,5.5095036E-2,6.604788E-2,2.4637718E-2,5.3769197E-2,1.9763606E-2,5.1020257E-2,-4.350731E-2,5.828981E-3,4.5653153E-2,6.2423777E-2,9.440566E-3,5.0487418E-2,5.6116182E-2,6.675919E-2,2.2280097E-2,5.96117E-2,3.0963117E-2,5.9906542E-2],"split_indices":[36,40,37,37,37,40,17,34,1,34,17,0,34,34,0,36,0,18,0,10,0,34,0,17,36,0,17,40,0,24,49,36,32,0,0,27,27,36,2,1,0,10,36,7,36,0,0,1,0,41,18,0,0,0,0,0,0,0,0,0,0,0,0,0,0,0,0,0,0,0,0,0,0,0,0,0,0,0,0,0,0,0,0,0,0,0,0],"split_type":[0,0,0,0,0,0,0,0,0,0,0,0,0,0,0,0,0,0,0,0,0,0,0,0,0,0,0,0,0,0,0,0,0,0,0,0,0,0,0,0,0,0,0,0,0,0,0,0,0,0,0,0,0,0,0,0,0,0,0,0,0,0,0,0,0,0,0,0,0,0,0,0,0,0,0,0,0,0,0,0,0,0,0,0,0,0,0],"sum_hessian":[9.2780625E3,6.86798E3,2.4100823E3,5.6393213E3,1.2286588E3,7.6092694E2,1.6491554E3,3.2208005E3,2.4185208E3,4.564176E2,7.722412E2,5.302117E2,2.3071526E2,1.6412158E3,7.939577E0,1.613442E3,1.6073585E3,2.1750605E3,2.4346014E2,3.2456717E2,1.3185042E2,7.666387E2,5.602534E0,1.9218066E2,3.3803104E2,2.1152638E2,1.9188887E1,1.2872391E3,3.5397675E2,1.0299518E3,5.834902E2,1.2425773E3,3.6478128E2,2.0043444E3,1.7071632E2,2.2267699E2,1.01890175E2,9.14853E1,4.036512E1,5.538503E2,2.1278836E2,7.173414E1,1.2044653E2,7.966534E1,2.583657E2,9.177562E0,1.0011325E1,8.089207E2,4.7831842E2,1.5008774E2,2.03889E2,7.793866E2,2.5056517E2,4.417712E2,1.4171898E2,1.1977125E3,4.486471E1,2.784805E2,8.6300766E1,8.589767E2,1.1453677E3,1.853093E2,3.73677E1,4.6698494E1,5.519168E1,5.813173E1,3.3353573E1,1.6584724E1,2.3780396E1,4.4914462E2,1.04705696E2,8.743089E1,1.2535747E2,4.379342E1,2.7940718E1,1.03365875E2,1.7080654E1,3.7666977E1,4.1998363E1,1.7807965E2,8.028603E1,6.4212286E2,1.6679785E2,9.97048E1,5.0382927E1,7.4992404E0,1.9638977E2],"tree_param":{"num_deleted":"0","num_feature":"55","num_nodes":"87","size_leaf_vector":"1"}},{"base_weights":[6.2039983E-3,-4.0548366E-1,1.1920336E0,-6.8651515E-1,9.039703E-1,6.4475186E-2,1.0249329E0,-7.932738E-1,6.812528E-2,1.1039059E0,2.450419E-1,1.1919105E0,3.813387E-1,-8.7576604E-1,6.5087944E-2,1.0254896E0,6.431608E-2,1.06597416E-1,6.472604E-2,1.0104004E0,6.1272833E-2,1.4881141E-2,1.244559E0,-5.684036E-1,-1.2128148E0,9.5558697E-1,6.451962E-2,-1.5725631E-2,6.35745E-2,7.71826E-1,5.8930345E-2,-3.0390006E-1,1.1815712E0,1.0153378E0,6.2321495E-2,-3.0740734E-2,-9.71353E-3,-4.482351E-2,-5.7735853E-2,3.1101638E-2,4.6888657E-2,-1.4714455E-2,1.829775E-2,2.6041264E-2,6.5435186E-2,-1.9223297E-2,6.33832E-2,5.7521604E-2,3.4427363E-2,5.8830336E-2,3.1134386E-2],"categories":[],"categories_nodes":[],"categories_segments":[],"categories_sizes":[],"default_left":[0,0,0,0,0,0,0,0,0,0,0,0,0,0,0,0,0,0,0,0,0,0,0,0,0,0,0,0,0,0,0,0,0,0,0,0,0,0,0,0,0,0,0,0,0,0,0,0,0,0,0],"id":7,"left_children":[1,3,5,7,9,-1,11,13,-1,15,17,19,21,23,-1,25,-1,27,-1,29,-1,31,33,35,37,39,-1,41,-1,43,-1,45,47,49,-1,-1,-1,-1,-1,-1,-1,-1,-1,-1,-1,-1,-1,-1,-1,-1,-1],"loss_changes":[4.5116553E3,2.5249917E3,1.6517041E2,1.4422388E3,1.5932874E2,0E0,1.8277844E2,1.0810681E3,0E0,3.4835327E1,5.3577156E1,8.1758545E1,1.1156311E2,5.4093823E2,0E0,3.1366333E1,0E0,4.7124187E1,0E0,9.647937E1,0E0,9.3050285E1,5.715927E0,1.780611E2,5.11521E1,2.6829468E1,0E0,4.0150284E1,0E0,5.996411E1,0E0,6.614334E1,2.9521866E0,5.5147476E0,0E0,0E0,0E0,0E0,0E0,0E0,0E0,0E0,0E0,0E0,0E0,0E0,0E0,0E0,0E0,0E0,0E0],"parents":[2147483647,0,0,1,1,2,2,3,3,4,4,6,6,7,7,9,9,10,10,11,11,12,12,13,13,15,15,17,17,19,19,21,21,22,22,23,23,24,24,25,25,27,27,29,29,31,31,32,32,33,33],"right_children":[2,4,6,8,10,-1,12,14,-1,16,18,20,22,24,-1,26,-1,28,-1,30,-1,32,34,36,38,40,-1,42,-1,44,-1,46,48,50,-1,-1,-1,-1,-1,-1,-1,-1,-1,-1,-1,-1,-1,-1,-1,-1,-1],"split_conditions":[7.692308E-2,1E0,1.4285715E-1,4E0,2E1,6.4475186E-2,2.1E1,4E0,6.812528E-2,4E0,4E0,1.6666667E-1,2.642857E-1,1.7E1,6.5087944E-2,4E0,6.431608E-2,4E0,6.472604E-2,1E0,6.1272833E-2,1E0,5.4473054E-2,6.666667E-2,2.8E1,6.666667E-2,6.451962E-2,6.666667E-2,6.35745E-2,4E0,5.8930345E-2,4E0,4.25E0,2E-1,6.2321495E-2,-3.0740734E-2,-9.71353E-3,-4.482351E-2,-5.7735853E-2,3.1101638E-2,4.6888657E-2,-1.4714455E-2,1.829775E-2,2.6041264E-2,6.5435186E-2,-1.9223297E-2,6.33832E-2,5.7521604E-2,3.4427363E-2,5.8830336E-2,3.1134386E-2],"split_indices":[35,40,35,1,34,0,34,18,0,18,18,35,36,34,0,1,0,1,0,40,0,40,39,35,34,35,0,35,0,18,0,1,33,35,0,0,0,0,0,0,0,0,0,0,0,0,0,0,0,0,0],"split_type":[0,0,0,0,0,0,0,0,0,0,0,0,0,0,0,0,0,0,0,0,0,0,0,0,0,0,0,0,0,0,0,0,0,0,0,0,0,0,0,0,0,0,0,0,0,0,0,0,0,0,0],"sum_hessian":[9.239419E3,6.858803E3,2.3806155E3,5.6473384E3,1.2114647E3,6.7511694E2,1.7054985E3,5.40651E3,2.4082858E2,9.288124E2,2.8265228E2,1.3533663E3,3.521321E2,5.2289805E3,1.7752963E2,8.065545E2,1.22257904E2,2.57809E2,2.4843279E1,8.850317E2,4.6833466E2,2.4798828E2,1.0414383E2,2.736493E3,2.4924873E3,7.232918E2,8.32627E1,2.3901318E2,1.8795815E1,5.859135E2,2.991182E2,1.9528365E2,5.270463E1,6.278917E1,4.1354664E1,1.6937379E3,1.0427551E3,1.7848738E3,7.076136E2,3.997727E2,3.2351907E2,1.3728137E2,1.017318E2,5.156895E2,7.0224014E1,1.7930656E2,1.5977085E1,2.718441E1,2.5520222E1,1.9563704E1,4.3225464E1],"tree_param":{"num_deleted":"0","num_feature":"55","num_nodes":"51","size_leaf_vector":"1"}},{"base_weights":[2.916175E-3,-3.9322484E-1,1.1553075E0,-9.4290626E-1,2.4561198E-1,6.7732346E-1,1.3774599E0,-1.1170982E0,9.296826E-2,-6.0526308E-2,1.1266929E0,6.250648E-2,4.1575998E-1,1.3935753E0,-5.790893E-2,-9.3639684E-1,-1.3500605E0,5.056392E-1,-5.2034026E-1,-2.4768598E-1,6.6190444E-2,1.1535882E0,-5.916151E-2,1.1046659E-1,1.2025725E0,6.302671E-2,1.3140532E0,-1.0681227E0,-7.048625E-1,-1.4546319E0,-9.0382683E-1,3.8878238E-1,9.7834E-1,-9.596165E-1,3.9030394E-1,-8.073673E-1,1.3811535E-1,7.9297066E-1,1.2828101E0,-2.2024187E-1,9.547185E-1,1.2961766E0,4.9943116E-1,1.0118692E0,1.4097846E0,-4.8377078E-2,-2.8462654E-2,-3.167665E-2,-1.7162412E-2,-5.7054725E-2,-6.288354E-2,-4.1732464E-2,-1.885107E-2,9.164599E-3,3.1972196E-2,2.1913342E-2,5.2347377E-2,2.3666486E-2,-4.2183645E-2,4.8904642E-3,3.7483074E-2,1.116819E-2,-5.0241232E-2,-2.5276385E-2,1.0024881E-2,4.9697146E-2,1.0909568E-2,2.6027035E-2,5.307828E-2,-3.3885613E-2,9.402012E-3,6.1175738E-2,2.6435649E-2,4.5710348E-2,6.2658645E-2,-2.3792337E-3,5.6458253E-2,5.8569722E-2,1.7702991E-2,5.279385E-2,6.205104E-2],"categories":[],"categories_nodes":[],"categories_segments":[],"categories_sizes":[],"default_left":[0,0,0,0,0,0,0,0,0,0,0,0,0,0,0,0,0,0,0,0,0,0,0,0,0,0,0,0,0,0,0,0,0,0,0,0,0,0,0,0,0,0,0,0,0,0,0,0,0,0,0,0,0,0,0,0,0,0,0,0,0,0,0,0,0,0,0,0,0,0,0,0,0,0,0,0,0,0,0,0,0],"id":8,"left_children":[1,3,5,7,9,11,13,15,17,19,21,-1,23,25,-1,27,29,31,33,35,-1,37,-1,39,41,-1,43,45,47,49,51,53,55,57,59,61,63,65,67,69,71,73,75,77,79,-1,-1,-1,-1,-1,-1,-1,-1,-1,-1,-1,-1,-1,-1,-1,-1,-1,-1,-1,-1,-1,-1,-1,-1,-1,-1,-1,-1,-1,-1,-1,-1,-1,-1,-1,-1],"loss_changes":[4.185867E3,2.3964E3,2.4793823E2,6.6205273E2,8.515871E2,1.719961E2,7.487207E1,1.3069434E2,1.3411044E2,7.525861E2,5.8725708E1,0E0,1.3848492E2,2.0689941E1,0E0,5.311133E1,6.2339844E1,1.6979065E1,8.568056E1,4.5660416E2,0E0,3.635132E1,0E0,1.1680577E2,9.787903E0,0E0,3.0566772E1,5.573694E1,1.5042267E1,1.1342773E0,1.5210556E1,1.6480122E1,7.907955E0,2.1904541E1,1.0036326E1,4.2106042E2,1.08586716E2,4.990869E1,1.5454407E1,8.605875E1,1.8651001E1,3.8098602E0,1.07706995E1,6.917966E1,8.398682E0,0E0,0E0,0E0,0E0,0E0,0E0,0E0,0E0,0E0,0E0,0E0,0E0,0E0,0E0,0E0,0E0,0E0,0E0,0E0,0E0,0E0,0E0,0E0,0E0,0E0,0E0,0E0,0E0,0E0,0E0,0E0,0E0,0E0,0E0,0E0,0E0],"parents":[2147483647,0,0,1,1,2,2,3,3,4,4,5,5,6,6,7,7,8,8,9,9,10,10,12,12,13,13,15,15,16,16,17,17,18,18,19,19,21,21,23,23,24,24,26,26,27,27,28,28,29,29,30,30,31,31,32,32,33,33,34,34,35,35,36,36,37,37,38,38,39,39,40,40,41,41,42,42,43,43,44,44],"right_children":[2,4,6,8,10,12,14,16,18,20,22,-1,24,26,-1,28,30,32,34,36,-1,38,-1,40,42,-1,44,46,48,50,52,54,56,58,60,62,64,66,68,70,72,74,76,78,80,-1,-1,-1,-1,-1,-1,-1,-1,-1,-1,-1,-1,-1,-1,-1,-1,-1,-1,-1,-1,-1,-1,-1,-1,-1,-1,-1,-1,-1,-1,-1,-1,-1,-1,-1,-1],"split_conditions":[7.692308E-2,1E0,1E0,1E0,1E0,1E-1,5.2E1,1.9E1,1.7E1,4E0,5.2E1,6.250648E-2,1E0,1.4285715E-1,-5.790893E-2,6.666667E-2,2.6E1,5.4473054E-2,2.6E1,2.6E1,6.6190444E-2,2.6E1,-5.916151E-2,1.6666667E-1,2.3E1,6.302671E-2,2.6E1,4.428571E0,1E0,5.2E1,4.428571E0,4.428571E0,6.666667E-2,4E1,1E0,4E1,2E0,4E1,2E0,2.6E1,2E-1,1.6666667E-1,2.6E1,4E1,2.576923E-1,-4.8377078E-2,-2.8462654E-2,-3.167665E-2,-1.7162412E-2,-5.7054725E-2,-6.288354E-2,-4.1732464E-2,-1.885107E-2,9.164599E-3,3.1972196E-2,2.1913342E-2,5.2347377E-2,2.3666486E-2,-4.2183645E-2,4.8904642E-3,3.7483074E-2,1.116819E-2,-5.0241232E-2,-2.5276385E-2,1.0024881E-2,4.9697146E-2,1.0909568E-2,2.6027035E-2,5.307828E-2,-3.3885613E-2,9.402012E-3,6.1175738E-2,2.6435649E-2,4.5710348E-2,6.2658645E-2,-2.3792337E-3,5.6458253E-2,5.8569722E-2,1.7702991E-2,5.279385E-2,6.205104E-2],"split_indices":[35,38,38,41,41,35,17,34,34,1,17,0,41,35,0,35,0,39,0,0,0,0,0,35,34,0,0,27,49,17,5,28,35,17,44,17,1,17,1,0,35,35,0,17,36,0,0,0,0,0,0,0,0,0,0,0,0,0,0,0,0,0,0,0,0,0,0,0,0,0,0,0,0,0,0,0,0,0,0,0,0],"split_type":[0,0,0,0,0,0,0,0,0,0,0,0,0,0,0,0,0,0,0,0,0,0,0,0,0,0,0,0,0,0,0,0,0,0,0,0,0,0,0,0,0,0,0,0,0,0,0,0,0,0,0,0,0,0,0,0,0,0,0,0,0,0,0,0,0,0,0,0,0,0,0,0,0,0,0,0,0,0,0,0,0],"sum_hessian":[9.167126E3,6.8224443E3,2.3446816E3,3.6669397E3,3.155505E3,7.4539197E2,1.5992898E3,3.1390906E3,5.27849E2,2.3424282E3,8.130767E2,1.687731E2,5.766189E2,1.5907578E3,8.531908E0,1.7709052E3,1.3681854E3,3.1573923E2,2.1210977E2,2.1128079E3,2.296203E2,8.053598E2,7.7169356E0,4.163408E2,1.602781E2,4.7743665E2,1.1133212E3,1.1261588E3,6.4474634E2,1.1064204E3,2.6176505E2,2.547871E2,6.095213E1,1.4312515E2,6.898463E1,8.617847E2,1.2510232E3,2.1454434E2,5.908154E2,2.9960202E2,1.1673876E2,1.4057832E2,1.9699787E1,2.708802E2,8.4244104E2,8.0461523E2,3.2154355E2,4.8836545E2,1.563809E2,9.031013E2,2.0331903E2,1.9669383E2,6.507121E1,1.8473753E2,7.004956E1,2.7749685E1,3.3202442E1,7.8946447E0,1.352305E2,4.72352E1,2.1749428E1,2.518967E2,6.09888E2,1.5878078E2,1.0922424E3,1.142536E2,1.0029073E2,3.9743076E1,5.510724E2,1.25776924E2,1.738251E2,3.7956676E1,7.878208E1,9.3248116E1,4.73302E1,1.2726068E1,6.973719E0,1.4996611E2,1.2091407E2,5.2179785E2,3.2064316E2],"tree_param":{"num_deleted":"0","num_feature":"55","num_nodes":"81","size_leaf_vector":"1"}},{"base_weights":[5.583071E-4,-3.8677928E-1,1.1185275E0,-6.54794E-1,8.6562186E-1,6.296572E-1,1.3433515E0,-1.0921489E0,-7.149161E-2,3.126822E-1,1.1949353E0,6.0803663E-2,3.664127E-1,1.3799803E0,7.6755846E-1,-9.020222E-1,-1.3110559E0,-2.56918E-1,6.454595E-2,5.9722E-1,-3.8180614E-1,1.2493702E0,4.1254857E-1,6.117014E-2,1.2425673E0,6.153216E-2,1.3094712E0,4.9083441E-1,5.644174E-2,-1.0219986E0,-6.9723135E-1,-1.259638E0,-1.4232439E0,-4.1112986E-1,6.334059E-2,4.6365E-1,1.0401661E0,-6.950695E-1,7.025188E-2,6.33182E-1,1.295877E0,2.2634839E-1,5.6266427E-2,-2.6687148E-1,9.314535E-1,1.3307091E0,4.0574738E-1,1.1967947E0,5.985099E-2,5.7128657E-2,2.2227803E-1,-4.6499852E-2,-2.511689E-2,-2.9072458E-2,6.7663807E-3,-5.242765E-2,-4.3010868E-2,-5.722595E-2,-3.413227E-2,-6.9633895E-4,-3.607943E-2,1.1340869E-2,3.4944303E-2,3.4430426E-2,5.8952574E-2,-4.1568056E-2,3.0549224E-3,9.515653E-3,-4.560542E-2,3.3491764E-2,-1.0973156E-2,4.9395222E-2,6.2031858E-2,-2.5644347E-3,3.1951196E-2,2.3078504E-3,-2.7967539E-2,5.9547123E-2,2.6481442E-2,4.7722135E-2,6.1174586E-2,-7.245793E-3,3.0255543E-2,4.13846E-2,5.8786448E-2,-7.874252E-3,4.8822157E-2],"categories":[],"categories_nodes":[],"categories_segments":[],"categories_sizes":[],"default_left":[0,0,0,0,0,0,0,0,0,0,0,0,0,0,0,0,0,0,0,0,0,0,0,0,0,0,0,0,0,0,0,0,0,0,0,0,0,0,0,0,0,0,0,0,0,0,0,0,0,0,0,0,0,0,0,0,0,0,0,0,0,0,0,0,0,0,0,0,0,0,0,0,0,0,0,0,0,0,0,0,0,0,0,0,0,0,0],"id":9,"left_children":[1,3,5,7,9,11,13,15,17,19,21,-1,23,25,27,29,31,33,-1,35,37,39,41,43,45,-1,47,49,-1,51,53,55,57,59,-1,61,63,65,67,69,71,73,-1,75,77,79,81,83,-1,-1,85,-1,-1,-1,-1,-1,-1,-1,-1,-1,-1,-1,-1,-1,-1,-1,-1,-1,-1,-1,-1,-1,-1,-1,-1,-1,-1,-1,-1,-1,-1,-1,-1,-1,-1,-1,-1],"loss_changes":[3.93452E3,2.2655386E3,2.5592383E2,1.4179592E3,2.1613696E2,1.7236505E2,3.2480713E1,1.3081348E2,7.449598E2,8.830342E1,3.105835E1,0E0,1.5261142E2,1.448291E1,1.6592743E1,4.0973022E1,6.442871E0,6.101385E2,0E0,1.8097862E1,1.8522964E1,1.8936401E1,8.790374E0,1.21621994E2,1.0165939E1,0E0,1.9983154E1,1.720709E1,0E0,5.843286E1,1.6396118E1,7.954468E0,4.7106934E-1,3.8306366E2,0E0,1.774445E1,4.1282578E0,2.062238E1,1.11370735E1,9.725893E0,7.85437E0,7.3516064E0,0E0,4.3502037E1,1.630783E1,1.5373993E0,3.405359E0,2.737323E1,0E0,0E0,2.372682E1,0E0,0E0,0E0,0E0,0E0,0E0,0E0,0E0,0E0,0E0,0E0,0E0,0E0,0E0,0E0,0E0,0E0,0E0,0E0,0E0,0E0,0E0,0E0,0E0,0E0,0E0,0E0,0E0,0E0,0E0,0E0,0E0,0E0,0E0,0E0,0E0],"parents":[2147483647,0,0,1,1,2,2,3,3,4,4,5,5,6,6,7,7,8,8,9,9,10,10,12,12,13,13,14,14,15,15,16,16,17,17,19,19,20,20,21,21,22,22,23,23,24,24,26,26,27,27,29,29,30,30,31,31,32,32,33,33,35,35,36,36,37,37,38,38,39,39,40,40,41,41,43,43,44,44,45,45,46,46,47,47,50,50],"right_children":[2,4,6,8,10,12,14,16,18,20,22,-1,24,26,28,30,32,34,-1,36,38,40,42,44,46,-1,48,50,-1,52,54,56,58,60,-1,62,64,66,68,70,72,74,-1,76,78,80,82,84,-1,-1,86,-1,-1,-1,-1,-1,-1,-1,-1,-1,-1,-1,-1,-1,-1,-1,-1,-1,-1,-1,-1,-1,-1,-1,-1,-1,-1,-1,-1,-1,-1,-1,-1,-1,-1,-1,-1],"split_conditions":[7.692308E-2,1E0,1E0,1E0,1E0,1E-1,2.7E1,1.8E1,4E0,2E1,2.7E1,6.0803663E-2,1E0,1.4285715E-1,1E0,6.666667E-2,2.8E1,4E0,6.454595E-2,5.4473054E-2,6.666667E-2,2E0,4E0,1.6666667E-1,2.3E1,6.153216E-2,2.576923E-1,9.090909E-2,5.644174E-2,4.428571E0,5.7273936E-1,1.11666664E-1,7E0,1.7E1,6.334059E-2,4.428571E0,4.428571E0,4.428571E0,3.2E1,1.9E1,4E0,4.428571E0,5.6266427E-2,1.7E1,2E-1,1.5384616E-1,2E0,1E0,5.985099E-2,5.7128657E-2,2.576923E-1,-4.6499852E-2,-2.511689E-2,-2.9072458E-2,6.7663807E-3,-5.242765E-2,-4.3010868E-2,-5.722595E-2,-3.413227E-2,-6.9633895E-4,-3.607943E-2,1.1340869E-2,3.4944303E-2,3.4430426E-2,5.8952574E-2,-4.1568056E-2,3.0549224E-3,9.515653E-3,-4.560542E-2,3.3491764E-2,-1.0973156E-2,4.9395222E-2,6.2031858E-2,-2.5644347E-3,3.1951196E-2,2.3078504E-3,-2.7967539E-2,5.9547123E-2,2.6481442E-2,4.7722135E-2,6.1174586E-2,-7.245793E-3,3.0255543E-2,4.13846E-2,5.8786448E-2,-7.874252E-3,4.8822157E-2],"split_indices":[35,40,37,37,37,35,34,34,1,34,34,0,40,35,40,35,34,18,0,39,35,1,18,35,34,0,36,35,0,25,39,36,9,34,0,8,11,14,34,34,1,29,0,34,35,35,1,40,0,0,36,0,0,0,0,0,0,0,0,0,0,0,0,0,0,0,0,0,0,0,0,0,0,0,0,0,0,0,0,0,0,0,0,0,0,0,0],"split_type":[0,0,0,0,0,0,0,0,0,0,0,0,0,0,0,0,0,0,0,0,0,0,0,0,0,0,0,0,0,0,0,0,0,0,0,0,0,0,0,0,0,0,0,0,0,0,0,0,0,0,0,0,0,0,0,0,0,0,0,0,0,0,0,0,0,0,0,0,0,0,0,0,0,0,0,0,0,0,0,0,0,0,0,0,0,0,0],"sum_hessian":[9.083823E3,6.746841E3,2.336982E3,5.5579854E3,1.1888556E3,7.3752045E2,1.5994615E3,3.1757744E3,2.382211E3,4.445982E2,7.442574E2,1.6711005E2,5.704104E2,1.5023218E3,9.713972E1,1.7025985E3,1.4731758E3,2.146883E3,2.3532793E2,3.1558456E2,1.2901364E2,6.951662E2,4.909117E1,4.2390915E2,1.4650128E2,4.5605124E2,1.0462705E3,6.926934E1,2.7870377E1,1.0707955E3,6.3180304E2,1.0191834E3,4.5399234E2,1.981668E3,1.6521513E2,2.4421442E2,7.137015E1,7.601857E1,5.299507E1,4.9962036E1,6.4520416E2,4.246553E1,6.6256413E0,3.0828406E2,1.1562509E2,1.3189877E2,1.4602509E1,6.575752E2,3.8869537E2,1.4381384E1,5.4887955E1,7.877426E2,2.830529E2,6.1121173E2,2.0591314E1,7.9295306E2,2.2623041E2,4.465054E2,7.486932E0,1.1003241E3,8.8134393E2,1.7101077E2,7.320365E1,5.275875E1,1.8611395E1,5.2418022E1,2.360055E1,4.732641E1,5.6686625E0,4.0941315E1,9.020721E0,5.256619E2,1.1954227E2,2.8644333E1,1.3821198E1,1.7644833E2,1.3183572E2,3.6088356E1,7.953673E1,8.2346756E1,4.9552017E1,5.5355234E0,9.066985E0,4.156747E2,2.4190047E2,3.915221E1,1.5735744E1],"tree_param":{"num_deleted":"0","num_feature":"55","num_nodes":"87","size_leaf_vector":"1"}},{"base_weights":[6.876399E-4,-3.7360838E-1,1.1000006E0,-8.852149E-1,2.1420673E-1,6.536767E-1,1.3064884E0,-6.2299174E-1,-1.168708E0,4.2361435E-2,6.243938E-2,5.9737217E-2,4.0116802E-1,1.3217608E0,-5.6389626E-2,-7.853648E-1,-3.6011124E-1,-1.3398347E0,-6.3627553E-1,-1.19087525E-1,6.185147E-2,9.0397306E-2,1.1378093E0,6.023098E-2,1.2411724E0,-9.487055E-1,-3.8737085E-1,-4.394548E-1,-1.1001985E-1,-6.329048E-1,-1.3622234E0,-7.5890464E-1,-2.7310336E-1,-6.7471105E-1,2.3956361E-1,-5.2154315E-1,4.6719074E-1,1.1856787E0,-5.3372425E-3,9.506455E-1,1.3337513E0,-4.3189727E-2,-2.3122141E-2,8.308613E-2,-3.4290448E-2,-1.2688339E-2,-5.856342E-2,-3.2602873E-2,1.7524213E-2,-3.611994E-2,8.080841E-4,-5.309214E-2,-6.078675E-2,-2.3764605E-2,-4.2213224E-2,6.2389486E-2,-1.811715E-2,1.465049E-2,-4.606882E-2,-2.3254272E-2,1.4238083E-2,1.606538E-2,-4.0078152E-2,2.074992E-2,-4.9271984E-3,5.988427E-2,4.046691E-2,5.458351E-2,1.7088342E-2,4.9830936E-2,5.9125587E-2],"categories":[],"categories_nodes":[],"categories_segments":[],"categories_sizes":[],"default_left":[0,0,0,0,0,0,0,0,0,0,0,0,0,0,0,0,0,0,0,0,0,0,0,0,0,0,0,0,0,0,0,0,0,0,0,0,0,0,0,0,0,0,0,0,0,0,0,0,0,0,0,0,0,0,0,0,0,0,0,0,0,0,0,0,0,0,0,0,0,0,0],"id":10,"left_children":[1,3,5,7,9,11,13,15,17,19,-1,-1,21,23,-1,25,27,29,31,33,-1,35,37,-1,39,41,43,45,47,49,51,53,55,57,59,61,63,65,-1,67,69,-1,-1,-1,-1,-1,-1,-1,-1,-1,-1,-1,-1,-1,-1,-1,-1,-1,-1,-1,-1,-1,-1,-1,-1,-1,-1,-1,-1,-1,-1],"loss_changes":[3.7025186E3,2.0189202E3,2.0959082E2,2.6590845E2,7.228625E2,1.5296494E2,6.663086E1,7.928955E1,1.559685E2,6.7336084E2,0E0,0E0,1.27728035E2,2.089087E1,0E0,7.445184E1,1.4082626E1,1.9562744E1,1.8448425E1,4.991969E2,0E0,9.1148186E1,1.0344101E1,0E0,2.7721558E1,3.8871887E1,3.9234818E2,6.725736E1,6.7568756E1,7.516779E0,4.637451E0,1.4552109E1,3.6222324E1,4.8844077E2,1.4564148E2,6.7264984E1,7.5500946E0,6.895233E0,0E0,5.6927002E1,8.315918E0,0E0,0E0,0E0,0E0,0E0,0E0,0E0,0E0,0E0,0E0,0E0,0E0,0E0,0E0,0E0,0E0,0E0,0E0,0E0,0E0,0E0,0E0,0E0,0E0,0E0,0E0,0E0,0E0,0E0,0E0],"parents":[2147483647,0,0,1,1,2,2,3,3,4,4,5,5,6,6,7,7,8,8,9,9,12,12,13,13,15,15,16,16,17,17,18,18,19,19,21,21,22,22,24,24,25,25,26,26,27,27,28,28,29,29,30,30,31,31,32,32,33,33,34,34,35,35,36,36,37,37,39,39,40,40],"right_children":[2,4,6,8,10,12,14,16,18,20,-1,-1,22,24,-1,26,28,30,32,34,-1,36,38,-1,40,42,44,46,48,50,52,54,56,58,60,62,64,66,-1,68,70,-1,-1,-1,-1,-1,-1,-1,-1,-1,-1,-1,-1,-1,-1,-1,-1,-1,-1,-1,-1,-1,-1,-1,-1,-1,-1,-1,-1,-1,-1],"split_conditions":[7.692308E-2,1E0,1E0,1.7E1,4E0,1E-1,5.2E1,6.666667E-2,2.6E1,4E0,6.243938E-2,5.9737217E-2,1.6666667E-1,1.4285715E-1,-5.6389626E-2,4.428571E0,1E0,4E1,4.428571E0,2.6E1,6.185147E-2,2.6E1,5.1E1,6.023098E-2,2.6E1,4.428571E0,5E0,4.6666665E0,4.6666665E0,4.428571E0,5.2E1,4.25E0,5E0,4E1,2E0,4E1,4.9E1,2E-1,-5.3372425E-3,4E1,1.5384616E-1,-4.3189727E-2,-2.3122141E-2,8.308613E-2,-3.4290448E-2,-1.2688339E-2,-5.856342E-2,-3.2602873E-2,1.7524213E-2,-3.611994E-2,8.080841E-4,-5.309214E-2,-6.078675E-2,-2.3764605E-2,-4.2213224E-2,6.2389486E-2,-1.811715E-2,1.465049E-2,-4.606882E-2,-2.3254272E-2,1.4238083E-2,1.606538E-2,-4.0078152E-2,2.074992E-2,-4.9271984E-3,5.988427E-2,4.046691E-2,5.458351E-2,1.7088342E-2,4.9830936E-2,5.9125587E-2],"split_indices":[35,38,38,34,1,35,17,35,0,18,0,0,35,35,0,27,49,17,25,0,0,0,17,0,0,24,27,28,11,12,17,25,25,17,18,17,17,35,0,17,35,0,0,0,0,0,0,0,0,0,0,0,0,0,0,0,0,0,0,0,0,0,0,0,0,0,0,0,0,0,0],"split_type":[0,0,0,0,0,0,0,0,0,0,0,0,0,0,0,0,0,0,0,0,0,0,0,0,0,0,0,0,0,0,0,0,0,0,0,0,0,0,0,0,0,0,0,0,0,0,0,0,0,0,0,0,0,0,0,0,0,0,0,0,0,0,0,0,0,0,0,0,0,0,0],"sum_hessian":[8.99613E3,6.7115415E3,2.2845884E3,3.588203E3,3.1233386E3,7.2409814E2,1.5604901E3,1.8658727E3,1.7223302E3,2.7708865E3,3.524521E2,1.6616898E2,5.579292E2,1.5523123E3,8.177948E0,1.1519692E3,7.139034E2,1.3021182E3,4.2021207E2,2.5030356E3,2.6785083E2,3.9327475E2,1.6465443E2,4.6701495E2,1.0852972E3,8.1560266E2,3.3636658E2,5.4108325E2,1.7282016E2,4.100823E1,1.26111E3,3.1311896E2,1.0709311E2,9.816531E2,1.5213826E3,1.4962428E2,2.4365048E2,1.5881992E2,5.8345146E0,2.6525018E2,8.2004706E2,6.009606E2,2.1464209E2,5.328086E1,2.8308572E2,4.8466602E2,5.6417217E1,7.545632E1,9.736384E1,2.8848404E1,1.2159826E1,1.0404202E3,2.2068971E2,2.0339113E2,1.09727844E2,8.833136E0,9.825997E1,3.084808E2,6.7317224E2,1.883119E2,1.3330707E3,5.1197266E1,9.842702E1,2.2434875E2,1.930173E1,5.39981E1,1.04821815E2,1.4711292E2,1.1813726E2,5.159761E2,3.0407098E2],"tree_param":{"num_deleted":"0","num_feature":"55","num_nodes":"71","size_leaf_vector":"1"}},{"base_weights":[1.8753089E-3,-3.5739392E-1,1.0760491E0,-6.1928266E-1,8.5286283E-1,1.1029124E0,-6.435857E-2,-7.0612496E-1,6.025596E-2,9.0126127E-1,-6.271736E-2,9.305759E-1,5.699688E-2,-1.0607245E0,-4.1289052E-1,1.0677168E0,5.397095E-1,5.8871582E-2,7.339788E-1,-3.171275E-1,-1.3030745E0,-8.212646E-1,-2.5331444E-1,1.0073344E0,5.911632E-2,5.4451402E-2,1.0194589E0,4.9038562E-1,1.2644601E0,-2.2953667E-2,1.8320031E-3,-5.037059E-2,-6.0522992E-2,-3.7330374E-2,-1.8500613E-2,-1.7934866E-2,1.5666162E-3,3.4139328E-2,4.7398973E-2,-3.0089694E-3,5.9359506E-2,3.344023E-2,4.795657E-2,-3.0301865E-3,3.0617902E-2,5.9633236E-2,4.5805316E-2],"categories":[],"categories_nodes":[],"categories_segments":[],"categories_sizes":[],"default_left":[0,0,0,0,0,0,0,0,0,0,0,0,0,0,0,0,0,0,0,0,0,0,0,0,0,0,0,0,0,0,0,0,0,0,0,0,0,0,0,0,0,0,0,0,0,0,0],"id":11,"left_children":[1,3,5,7,9,11,-1,13,-1,15,-1,17,-1,19,21,23,25,-1,27,29,31,33,35,37,-1,39,41,43,45,-1,-1,-1,-1,-1,-1,-1,-1,-1,-1,-1,-1,-1,-1,-1,-1,-1,-1],"loss_changes":[3.4236611E3,2.1075374E3,1.6210254E2,1.00996875E3,1.3994604E2,1.2064282E2,0E0,5.455227E2,0E0,6.910187E1,0E0,1.516521E2,0E0,4.276897E2,1.8713931E2,1.7914185E1,8.551948E1,0E0,1.3574036E2,5.4635788E1,1.43029785E1,3.1876282E1,1.1814949E2,1.7777954E1,0E0,3.4386448E1,4.881897E0,1.1316115E2,6.9902344E0,0E0,0E0,0E0,0E0,0E0,0E0,0E0,0E0,0E0,0E0,0E0,0E0,0E0,0E0,0E0,0E0,0E0,0E0],"parents":[2147483647,0,0,1,1,2,2,3,3,4,4,5,5,7,7,9,9,11,11,13,13,14,14,15,15,16,16,18,18,19,19,20,20,21,21,22,22,23,23,25,25,26,26,27,27,28,28],"right_children":[2,4,6,8,10,12,-1,14,-1,16,-1,18,-1,20,22,24,26,-1,28,30,32,34,36,38,-1,40,42,44,46,-1,-1,-1,-1,-1,-1,-1,-1,-1,-1,-1,-1,-1,-1,-1,-1,-1,-1],"split_conditions":[7.692308E-2,1E0,5.2E1,4E0,5.2E1,1E0,-6.435857E-2,2.6E1,6.025596E-2,1.7E1,-6.271736E-2,1E-1,5.699688E-2,4E1,2E0,4E0,2.6E1,5.8871582E-2,1.6666667E-1,6.666667E-2,5.2E1,4.428571E0,6.666667E-2,6.666667E-2,5.911632E-2,4E0,6.666667E-2,2.6E1,2.3076923E-1,-2.2953667E-2,1.8320031E-3,-5.037059E-2,-6.0522992E-2,-3.7330374E-2,-1.8500613E-2,-1.7934866E-2,1.5666162E-3,3.4139328E-2,4.7398973E-2,-3.0089694E-3,5.9359506E-2,3.344023E-2,4.795657E-2,-3.0301865E-3,3.0617902E-2,5.9633236E-2,4.5805316E-2],"split_indices":[35,40,17,18,17,40,0,0,0,34,0,35,0,17,18,18,0,0,35,35,17,8,35,35,0,18,35,0,35,0,0,0,0,0,0,0,0,0,0,0,0,0,0,0,0,0,0],"split_type":[0,0,0,0,0,0,0,0,0,0,0,0,0,0,0,0,0,0,0,0,0,0,0,0,0,0,0,0,0,0,0,0,0,0,0,0,0,0,0,0,0,0,0,0,0,0,0],"sum_hessian":[8.8693E3,6.646784E3,2.2225159E3,5.4648174E3,1.1819667E3,2.2011204E3,2.1395515E1,5.2510083E3,2.1380911E2,1.159455E3,2.25117E1,1.4365127E3,7.6460767E2,2.375468E3,2.8755403E3,7.924071E2,3.6704785E2,3.8090933E2,1.0556033E3,5.8456915E2,1.790899E3,8.0659485E2,2.0689453E3,6.9395276E2,9.8454346E1,1.831335E2,1.8391437E2,7.2486395E2,3.3073935E2,3.4220633E2,2.423628E2,1.487957E3,3.02942E2,6.13265E2,1.9332988E2,1.2410728E3,8.2787256E2,3.752886E2,3.1866412E2,1.6870721E2,1.4426289E1,9.4017845E1,8.9896515E1,2.3713892E2,4.8772507E2,1.09907196E2,2.2083215E2],"tree_param":{"num_deleted":"0","num_feature":"55","num_nodes":"47","size_leaf_vector":"1"}},{"base_weights":[-2.5746324E-3,-3.559632E-1,1.0439948E0,-6.000703E-1,7.9968446E-1,5.885223E-1,1.2608879E0,-1.0104228E0,-6.258651E-2,3.0567285E-1,1.1130275E0,5.7376754E-2,3.4940988E-1,1.2755755E0,-5.385108E-2,-1.2234225E0,-8.1170243E-1,-2.2843249E-1,6.157692E-2,6.7544687E-1,-2.3432782E-1,1.134534E0,-5.30724E-2,6.065907E-2,1.1940304E0,1.0476916E0,1.3492564E0,-8.01419E-1,-1.3440381E0,-9.186326E-1,-5.1940054E-1,-3.7369502E-1,5.9353013E-2,5.049134E-1,1.0324055E0,-8.9601505E-1,4.4812027E-1,3.9861575E-1,1.1946915E0,-2.474355E-1,9.161156E-1,1.2721417E0,5.142162E-1,5.4616578E-2,6.2086654E-1,1.2961154E0,5.7498064E-2,-4.15988E-2,-1.8080054E-2,-5.3911947E-2,-3.349848E-2,-3.0787999E-2,-5.4213293E-2,-4.2874403E-2,3.7076477E-2,-3.3442587E-2,-1.6292868E-3,2.9592762E-2,-2.8909853E-2,1.8684663E-2,5.9547085E-2,-2.7204067E-2,-5.7975583E-2,2.220407E-2,-3.6063094E-2,2.3624191E-2,-3.9724406E-2,4.5252055E-2,5.8767337E-2,-2.8951306E-2,3.9775018E-3,5.573461E-2,2.631981E-2,4.592317E-2,5.813841E-2,-9.168849E-3,3.924066E-2,1.02032125E-2,5.3473864E-2,5.7977166E-2,4.914618E-2],"categories":[],"categories_nodes":[],"categories_segments":[],"categories_sizes":[],"default_left":[0,0,0,0,0,0,0,0,0,0,0,0,0,0,0,0,0,0,0,0,0,0,0,0,0,0,0,0,0,0,0,0,0,0,0,0,0,0,0,0,0,0,0,0,0,0,0,0,0,0,0,0,0,0,0,0,0,0,0,0,0,0,0,0,0,0,0,0,0,0,0,0,0,0,0,0,0,0,0,0,0],"id":12,"left_children":[1,3,5,7,9,11,13,15,17,19,21,-1,23,25,-1,27,29,31,-1,33,35,37,-1,39,41,43,45,47,49,51,53,55,-1,57,59,61,63,65,67,69,71,73,75,-1,77,79,-1,-1,-1,-1,-1,-1,-1,-1,-1,-1,-1,-1,-1,-1,-1,-1,-1,-1,-1,-1,-1,-1,-1,-1,-1,-1,-1,-1,-1,-1,-1,-1,-1,-1,-1],"loss_changes":[3.2701648E3,1.8652134E3,2.1956372E2,1.2036528E3,1.7801678E2,1.453567E2,5.956836E1,1.2980249E2,6.283502E2,8.986687E1,3.8483765E1,0E0,1.3742786E2,2.3583496E1,0E0,7.462964E1,4.9524048E1,5.3354297E2,0E0,1.5572098E1,8.314854E1,3.0332336E1,0E0,1.1143188E2,6.793976E0,4.9406097E1,3.1689453E0,2.7238815E1,8.5961914E-1,7.504028E1,3.46394E2,3.0417245E2,0E0,5.3241634E1,2.1068695E1,9.96019E0,1.3569494E1,1.5104805E1,9.3186035E0,5.1476074E1,1.2669426E1,9.5085144E-1,6.065217E0,0E0,4.1593727E1,5.369629E0,0E0,0E0,0E0,0E0,0E0,0E0,0E0,0E0,0E0,0E0,0E0,0E0,0E0,0E0,0E0,0E0,0E0,0E0,0E0,0E0,0E0,0E0,0E0,0E0,0E0,0E0,0E0,0E0,0E0,0E0,0E0,0E0,0E0,0E0,0E0],"parents":[2147483647,0,0,1,1,2,2,3,3,4,4,5,5,6,6,7,7,8,8,9,9,10,10,12,12,13,13,15,15,16,16,17,17,19,19,20,20,21,21,23,23,24,24,25,25,26,26,27,27,28,28,29,29,30,30,31,31,33,33,34,34,35,35,36,36,37,37,38,38,39,39,40,40,41,41,42,42,44,44,45,45],"right_children":[2,4,6,8,10,12,14,16,18,20,22,-1,24,26,-1,28,30,32,-1,34,36,38,-1,40,42,44,46,48,50,52,54,56,-1,58,60,62,64,66,68,70,72,74,76,-1,78,80,-1,-1,-1,-1,-1,-1,-1,-1,-1,-1,-1,-1,-1,-1,-1,-1,-1,-1,-1,-1,-1,-1,-1,-1,-1,-1,-1,-1,-1,-1,-1,-1,-1,-1,-1],"split_conditions":[7.692308E-2,1E0,1E0,1E0,1E0,1E-1,5.2E1,2.6E1,4E0,4.1E1,5.2E1,5.7376754E-2,1E0,2.6E1,-5.385108E-2,4E1,4.428571E0,4E0,6.157692E-2,4.428571E0,2.6E1,2E0,-5.30724E-2,1.6666667E-1,4.8E1,4E1,1E0,6.666667E-2,7E0,5E0,4.428571E0,2.6E1,5.9353013E-2,5E0,4.428571E0,2.4E1,8E1,2.3E1,4E0,2.6E1,2E-1,2.576923E-1,2.6E1,5.4616578E-2,1E0,1E-1,5.7498064E-2,-4.15988E-2,-1.8080054E-2,-5.3911947E-2,-3.349848E-2,-3.0787999E-2,-5.4213293E-2,-4.2874403E-2,3.7076477E-2,-3.3442587E-2,-1.6292868E-3,2.9592762E-2,-2.8909853E-2,1.8684663E-2,5.9547085E-2,-2.7204067E-2,-5.7975583E-2,2.220407E-2,-3.6063094E-2,2.3624191E-2,-3.9724406E-2,4.5252055E-2,5.8767337E-2,-2.8951306E-2,3.9775018E-3,5.573461E-2,2.631981E-2,4.592317E-2,5.813841E-2,-9.168849E-3,3.924066E-2,1.02032125E-2,5.3473864E-2,5.7977166E-2,4.914618E-2],"split_indices":[35,40,37,37,37,35,17,0,1,17,17,0,40,0,0,17,27,18,0,10,0,1,0,35,17,17,40,35,15,10,10,0,0,27,27,0,19,34,1,0,35,36,0,0,41,35,0,0,0,0,0,0,0,0,0,0,0,0,0,0,0,0,0,0,0,0,0,0,0,0,0,0,0,0,0,0,0,0,0,0,0],"split_type":[0,0,0,0,0,0,0,0,0,0,0,0,0,0,0,0,0,0,0,0,0,0,0,0,0,0,0,0,0,0,0,0,0,0,0,0,0,0,0,0,0,0,0,0,0,0,0,0,0,0,0,0,0,0,0,0,0,0,0,0,0,0,0,0,0,0,0,0,0,0,0,0,0,0,0,0,0,0,0,0,0],"sum_hessian":[8.840152E3,6.6092153E3,2.230937E3,5.4570845E3,1.1521309E3,7.210068E2,1.5099302E3,3.0939114E3,2.363173E3,4.480449E2,7.04086E2,1.5770044E2,5.6330634E2,1.5020176E3,7.912639E0,1.490572E3,1.6033394E3,2.1423127E3,2.2086034E2,2.6590002E2,1.8214488E2,6.985048E2,5.5811625E0,4.206789E2,1.4262747E2,3.7103546E2,1.130982E3,3.3321408E2,1.1573579E3,1.1720823E3,4.3125717E2,1.9755531E3,1.6675952E2,1.8176042E2,8.41396E1,9.2394615E1,8.9750275E1,5.3486267E1,6.4501855E2,3.097247E2,1.1095418E2,1.27014915E2,1.5612551E1,2.113076E2,1.5972787E2,7.1624664E2,4.1473547E2,1.966777E2,1.3653636E2,1.1469852E3,1.0372641E1,8.7623987E2,2.9584238E2,3.122953E2,1.1896187E2,8.2629926E2,1.1492538E3,1.5296942E2,2.8790993E1,3.8582054E1,4.555755E1,6.819593E1,2.4198683E1,8.3772964E1,5.9773107E0,4.7571278E1,5.914989E0,5.28463E2,1.1655552E2,1.301696E2,1.7955511E2,3.7265987E1,7.3688194E1,8.009524E1,4.691968E1,6.1355906E0,9.47696E0,1.06707924E2,5.3019947E1,2.1214684E2,5.040998E2],"tree_param":{"num_deleted":"0","num_feature":"55","num_nodes":"81","size_leaf_vector":"1"}},{"base_weights":[-7.271793E-3,-3.425569E-1,1.0050981E0,-5.8487946E-1,7.8940994E-1,5.614586E-1,1.2211994E0,-9.789711E-1,-6.630419E-2,2.700253E-1,1.1138908E0,5.607505E-2,3.268846E-1,1.235795E0,-5.269255E-2,-8.0886006E-1,-1.2069268E0,-2.2960185E-1,6.0291454E-2,5.084481E-1,-5.2253884E-1,1.1355581E0,-5.2223004E-2,6.107526E-2,1.1372819E0,5.6943595E-2,1.1514952E0,-9.055903E-1,-5.532593E-1,-1.3097619E0,-8.020179E-1,-3.6587805E-1,5.8172744E-2,2.9571223E-1,7.7837473E-1,-9.7550017E-1,6.265295E-1,4.7775438E-1,1.1827061E0,-2.252977E-1,8.328013E-1,9.447464E-1,5.5850565E-2,1.0258064E0,5.5558514E-2,-3.0398857E-2,-5.3774998E-2,-4.3776024E-2,3.5345566E-2,-5.3767886E-2,-4.861149E-2,-3.7216403E-2,-1.3377323E-2,-3.3421298E-3,-3.572184E-2,6.259056E-4,3.2835975E-2,2.5313757E-2,4.7491625E-2,-4.6607766E-2,-2.053479E-2,9.830038E-3,4.8693735E-2,2.7954787E-2,-1.4448346E-2,4.4773225E-2,5.7650167E-2,-2.818261E-2,4.543466E-3,5.4578047E-2,2.2670835E-2,4.4595737E-2,7.4909586E-3,3.4193225E-2,5.3317707E-2],"categories":[],"categories_nodes":[],"categories_segments":[],"categories_sizes":[],"default_left":[0,0,0,0,0,0,0,0,0,0,0,0,0,0,0,0,0,0,0,0,0,0,0,0,0,0,0,0,0,0,0,0,0,0,0,0,0,0,0,0,0,0,0,0,0,0,0,0,0,0,0,0,0,0,0,0,0,0,0,0,0,0,0,0,0,0,0,0,0,0,0,0,0,0,0],"id":13,"left_children":[1,3,5,7,9,11,13,15,17,19,21,-1,23,25,-1,27,29,31,-1,33,35,37,-1,39,41,-1,43,45,47,49,51,53,-1,55,57,59,61,63,65,67,69,71,-1,73,-1,-1,-1,-1,-1,-1,-1,-1,-1,-1,-1,-1,-1,-1,-1,-1,-1,-1,-1,-1,-1,-1,-1,-1,-1,-1,-1,-1,-1,-1,-1],"loss_changes":[2.9565156E3,1.7952921E3,2.0688794E2,1.1014142E3,1.9406433E2,1.396954E2,5.5573242E1,1.17581055E2,5.986101E2,8.439465E1,3.868091E1,0E0,1.1998517E2,2.1033203E1,0E0,4.2795288E1,5.3138428E1,4.847806E2,0E0,1.9350525E1,5.4440865E1,2.1108215E1,0E0,9.33438E1,5.3099976E0,0E0,2.8338013E1,8.009534E1,3.7829874E2,1.4941406E0,1.5614365E1,2.9057483E2,0E0,2.8373955E1,8.010803E0,5.772415E0,6.251732E0,9.360424E0,8.883972E0,5.0151505E1,1.5201889E1,1.0263062E1,0E0,3.33761E1,0E0,0E0,0E0,0E0,0E0,0E0,0E0,0E0,0E0,0E0,0E0,0E0,0E0,0E0,0E0,0E0,0E0,0E0,0E0,0E0,0E0,0E0,0E0,0E0,0E0,0E0,0E0,0E0,0E0,0E0,0E0],"parents":[2147483647,0,0,1,1,2,2,3,3,4,4,5,5,6,6,7,7,8,8,9,9,10,10,12,12,13,13,15,15,16,16,17,17,19,19,20,20,21,21,23,23,24,24,26,26,27,27,28,28,29,29,30,30,31,31,33,33,34,34,35,35,36,36,37,37,38,38,39,39,40,40,41,41,43,43],"right_children":[2,4,6,8,10,12,14,16,18,20,22,-1,24,26,-1,28,30,32,-1,34,36,38,-1,40,42,-1,44,46,48,50,52,54,-1,56,58,60,62,64,66,68,70,72,-1,74,-1,-1,-1,-1,-1,-1,-1,-1,-1,-1,-1,-1,-1,-1,-1,-1,-1,-1,-1,-1,-1,-1,-1,-1,-1,-1,-1,-1,-1,-1,-1],"split_conditions":[7.692308E-2,1E0,1E0,1E0,1E0,1E-1,5.2E1,1.9E1,4E0,2.2E1,5.2E1,5.607505E-2,1E0,1.4285715E-1,-5.269255E-2,4.428571E0,2.6E1,4E0,6.0291454E-2,6.666667E-2,2.8E1,2E0,-5.2223004E-2,1.6666667E-1,2.4395604E-1,5.6943595E-2,1E0,5E0,4.428571E0,4.428571E0,4.428571E0,2E1,5.8172744E-2,4.428571E0,5.4473054E-2,4.428571E0,4.428571E0,2.1E1,4E0,2.6E1,2E-1,2E1,5.5850565E-2,2.576923E-1,5.5558514E-2,-3.0398857E-2,-5.3774998E-2,-4.3776024E-2,3.5345566E-2,-5.3767886E-2,-4.861149E-2,-3.7216403E-2,-1.3377323E-2,-3.3421298E-3,-3.572184E-2,6.259056E-4,3.2835975E-2,2.5313757E-2,4.7491625E-2,-4.6607766E-2,-2.053479E-2,9.830038E-3,4.8693735E-2,2.7954787E-2,-1.4448346E-2,4.4773225E-2,5.7650167E-2,-2.818261E-2,4.543466E-3,5.4578047E-2,2.2670835E-2,4.4595737E-2,7.4909586E-3,3.4193225E-2,5.3317707E-2],"split_indices":[35,40,38,38,38,35,17,34,1,34,17,0,40,35,0,27,0,18,0,35,0,1,0,35,36,0,40,10,10,9,11,34,0,10,39,13,15,34,18,0,35,34,0,36,0,0,0,0,0,0,0,0,0,0,0,0,0,0,0,0,0,0,0,0,0,0,0,0,0,0,0,0,0,0,0],"split_type":[0,0,0,0,0,0,0,0,0,0,0,0,0,0,0,0,0,0,0,0,0,0,0,0,0,0,0,0,0,0,0,0,0,0,0,0,0,0,0,0,0,0,0,0,0,0,0,0,0,0,0,0,0,0,0,0,0,0,0,0,0,0,0,0,0,0,0,0,0,0,0,0,0,0,0],"sum_hessian":[8.708353E3,6.54236E3,2.1659927E3,5.389244E3,1.1531154E3,7.108114E2,1.4551813E3,3.061542E3,2.3277021E3,4.4421585E2,7.0889954E2,1.5392729E2,5.568841E2,1.4474116E3,7.769617E0,1.7560688E3,1.3054731E3,2.1096892E3,2.1801305E2,3.4186047E2,1.0235539E2,7.031743E2,5.7252164E0,4.2024347E2,1.3664061E2,4.4314465E2,1.00426697E3,1.2718226E3,4.8424628E2,1.0390922E3,2.6638104E2,1.952518E3,1.5717114E2,1.9256287E2,1.4929759E2,7.358597E1,2.8769419E1,4.791563E1,6.552587E2,3.0692712E2,1.13316376E2,8.126199E1,5.5378624E1,6.6044324E2,3.4382373E2,9.5713837E2,3.1468427E2,3.5199252E2,1.3225375E2,7.510531E2,2.880391E2,2.0804984E2,5.8331196E1,1.272421E3,6.800969E2,1.26385796E2,6.617707E1,1.1216936E2,3.7128242E1,5.0938953E1,2.2647017E1,1.8458294E1,1.0311126E1,3.8147682E1,9.767945E0,5.3085187E2,1.2440682E2,1.26806656E2,1.8012045E2,3.6289204E1,7.702717E1,6.586353E1,1.5398456E1,4.2690427E2,2.3353897E2],"tree_param":{"num_deleted":"0","num_feature":"55","num_nodes":"75","size_leaf_vector":"1"}},{"base_weights":[6.326163E-3,-3.219981E-1,9.953495E-1,-7.913954E-1,2.1370369E-1,5.642654E-1,1.2019879E0,-9.451679E-1,2.636446E-1,-3.468582E-2,1.0504715E0,5.508069E-2,3.417128E-1,1.2148955E0,-5.1169705E-2,-1.1561546E0,-7.550353E-1,5.984194E-1,-1.9681697E-1,-1.875572E-1,5.9104517E-2,1.0723829E0,-5.1491883E-2,8.549937E-2,1.1201217E0,1.278729E0,9.881051E-1,-6.809628E-1,-1.2937168E0,-8.572496E-1,-4.7631428E-1,4.278439E-1,9.7901714E-1,-8.724329E-1,4.542154E-1,-3.1923136E-1,5.7143033E-2,4.6261746E-1,1.1173544E0,-1.9330911E-1,8.561179E-1,1.2025492E0,6.249298E-1,1.2179929E0,5.528025E-2,6.565481E-1,1.2484739E0,-3.653047E-2,-1.4256538E-2,-5.077647E-2,-5.6107152E-2,-2.7895069E-2,-5.4047577E-2,-4.3700326E-2,4.2264946E-2,2.6339322E-2,-3.6611438E-2,1.8568045E-2,5.8832757E-2,-4.51362E-2,-1.731087E-2,2.6116306E-2,-5.330635E-3,-3.1759106E-2,5.978273E-4,2.8377019E-2,-1.9529205E-2,4.1845813E-2,5.684763E-2,5.94453E-3,-2.6492056E-2,1.0418773E-3,4.0292755E-2,4.331259E-2,5.5551555E-2,4.6462245E-2,-3.7908962E-3,5.560646E-2,4.567569E-2,5.6002934E-2,1.5185842E-2,2.6214132E-2,5.0712846E-2],"categories":[],"categories_nodes":[],"categories_segments":[],"categories_sizes":[],"default_left":[0,0,0,0,0,0,0,0,0,0,0,0,0,0,0,0,0,0,0,0,0,0,0,0,0,0,0,0,0,0,0,0,0,0,0,0,0,0,0,0,0,0,0,0,0,0,0,0,0,0,0,0,0,0,0,0,0,0,0,0,0,0,0,0,0,0,0,0,0,0,0,0,0,0,0,0,0,0,0,0,0,0,0],"id":14,"left_children":[1,3,5,7,9,11,13,15,17,19,21,-1,23,25,-1,27,29,31,33,35,-1,37,-1,39,41,43,45,47,49,51,53,55,57,59,61,63,-1,65,67,69,71,73,75,77,-1,79,81,-1,-1,-1,-1,-1,-1,-1,-1,-1,-1,-1,-1,-1,-1,-1,-1,-1,-1,-1,-1,-1,-1,-1,-1,-1,-1,-1,-1,-1,-1,-1,-1,-1,-1,-1,-1],"loss_changes":[2.8103223E3,1.6340386E3,1.912893E2,5.621919E2,6.3095984E2,1.2614909E2,4.8212402E1,1.2020654E2,6.817943E1,5.414094E2,3.6951416E1,0E0,1.0981683E2,1.9501953E1,0E0,9.2451416E1,4.484845E1,1.6052155E1,8.242072E1,4.5302725E2,0E0,1.8218262E1,0E0,8.966883E1,4.6351624E0,5.1311035E0,2.6894104E1,2.3936096E1,8.874512E-1,9.0788635E1,4.073474E2,5.5917862E1,1.8930702E1,9.696381E0,1.1286907E1,3.1228802E2,0E0,1.1910524E1,1.2130615E1,4.928299E1,1.3785698E1,8.295288E-1,8.607701E0,7.5826416E0,0E0,2.903255E1,1.0398254E0,0E0,0E0,0E0,0E0,0E0,0E0,0E0,0E0,0E0,0E0,0E0,0E0,0E0,0E0,0E0,0E0,0E0,0E0,0E0,0E0,0E0,0E0,0E0,0E0,0E0,0E0,0E0,0E0,0E0,0E0,0E0,0E0,0E0,0E0,0E0,0E0],"parents":[2147483647,0,0,1,1,2,2,3,3,4,4,5,5,6,6,7,7,8,8,9,9,10,10,12,12,13,13,15,15,16,16,17,17,18,18,19,19,21,21,23,23,24,24,25,25,26,26,27,27,28,28,29,29,30,30,31,31,32,32,33,33,34,34,35,35,37,37,38,38,39,39,40,40,41,41,42,42,43,43,45,45,46,46],"right_children":[2,4,6,8,10,12,14,16,18,20,22,-1,24,26,-1,28,30,32,34,36,-1,38,-1,40,42,44,46,48,50,52,54,56,58,60,62,64,-1,66,68,70,72,74,76,78,-1,80,82,-1,-1,-1,-1,-1,-1,-1,-1,-1,-1,-1,-1,-1,-1,-1,-1,-1,-1,-1,-1,-1,-1,-1,-1,-1,-1,-1,-1,-1,-1,-1,-1,-1,-1,-1,-1],"split_conditions":[7.692308E-2,1E0,1E0,1E0,1E0,1E-1,5.2E1,2.6E1,4.1E1,4E0,5.2E1,5.508069E-2,1E0,1.9E1,-5.1169705E-2,4E1,4.428571E0,4.428571E0,2.6E1,4E0,5.9104517E-2,2E0,-5.1491883E-2,1.6666667E-1,2.1E1,1E0,2.6E1,6.666667E-2,5.2E1,5E0,4.428571E0,5E0,4.428571E0,6.666667E-2,5E0,2.6E1,5.7143033E-2,1.9E1,4E0,4.2E1,2.2E1,1.5384616E-1,4.6E1,1E-1,5.528025E-2,1E-1,2E0,-3.653047E-2,-1.4256538E-2,-5.077647E-2,-5.6107152E-2,-2.7895069E-2,-5.4047577E-2,-4.3700326E-2,4.2264946E-2,2.6339322E-2,-3.6611438E-2,1.8568045E-2,5.8832757E-2,-4.51362E-2,-1.731087E-2,2.6116306E-2,-5.330635E-3,-3.1759106E-2,5.978273E-4,2.8377019E-2,-1.9529205E-2,4.1845813E-2,5.684763E-2,5.94453E-3,-2.6492056E-2,1.0418773E-3,4.0292755E-2,4.331259E-2,5.5551555E-2,4.6462245E-2,-3.7908962E-3,5.560646E-2,4.567569E-2,5.6002934E-2,1.5185842E-2,2.6214132E-2,5.0712846E-2],"split_indices":[35,37,37,40,40,35,17,0,17,1,17,0,40,34,0,17,29,10,0,18,0,1,0,35,34,40,0,35,17,12,12,27,27,35,31,0,0,34,1,17,0,35,17,35,0,35,18,0,0,0,0,0,0,0,0,0,0,0,0,0,0,0,0,0,0,0,0,0,0,0,0,0,0,0,0,0,0,0,0,0,0,0,0],"split_type":[0,0,0,0,0,0,0,0,0,0,0,0,0,0,0,0,0,0,0,0,0,0,0,0,0,0,0,0,0,0,0,0,0,0,0,0,0,0,0,0,0,0,0,0,0,0,0,0,0,0,0,0,0,0,0,0,0,0,0,0,0,0,0,0,0,0,0,0,0,0,0,0,0,0,0,0,0,0,0,0,0,0,0],"sum_hessian":[8.652398E3,6.4963804E3,2.1560178E3,3.462312E3,3.034068E3,6.999703E2,1.4560476E3,3.0220464E3,4.4026556E2,2.3402253E3,6.9384283E2,1.492563E2,5.50714E2,1.44906E3,6.9875364E0,1.4298079E3,1.5922386E3,2.5487694E2,1.8538863E2,2.126236E3,2.139894E2,6.8797864E2,5.8642063E0,4.1526706E2,1.3544693E2,1.1268209E3,3.2223917E2,3.2248822E2,1.1073196E3,1.1632207E3,4.2901804E2,1.7764655E2,7.7230385E1,9.0885124E1,9.45035E1,1.9668514E3,1.5938454E2,4.8182716E1,6.397959E2,3.0539505E2,1.09872025E2,1.1472063E2,2.07263E1,7.1821185E2,4.0860907E2,1.4346045E2,1.7877873E2,1.8671985E2,1.3576837E2,9.164623E2,1.9085727E2,8.807604E2,2.8246027E2,3.0626248E2,1.2275556E2,1.5211064E2,2.55359E1,3.87814E1,3.8448986E1,5.630829E1,3.4576836E1,7.066329E1,2.3840208E1,8.120878E2,1.1547637E3,3.853849E1,9.644224E0,5.2218555E2,1.1761038E2,1.7689691E2,1.2849812E2,1.7212353E1,9.2659676E1,7.430234E1,4.0418285E1,1.1601192E1,9.125108E0,2.1445389E2,5.0375797E2,3.7730583E1,1.0572986E2,6.912328E0,1.718664E2],"tree_param":{"num_deleted":"0","num_feature":"55","num_nodes":"83","size_leaf_vector":"1"}},{"base_weights":[3.3896652E-3,-3.1539354E-1,9.6860856E-1,-5.3820056E-1,7.3316276E-1,9.9431896E-1,-6.129117E-2,-6.220967E-1,5.8011554E-2,7.767796E-1,-5.8541786E-2,5.5010397E-2,8.535198E-1,-6.834572E-1,5.6201234E-2,9.56748E-1,5.021651E-1,6.531497E-1,1.2918185E0,-9.9373174E-1,-4.2936417E-1,6.043141E-1,1.0338305E0,-1.5101765E-1,8.827985E-1,4.187135E-1,1.1594052E0,1.0734167E0,5.3142946E-2,-1.2728819E-2,-4.8722323E-2,-2.386475E-2,-6.278002E-3,1.6461343E-2,3.86523E-2,2.5927529E-2,4.4710673E-2,-1.1694801E-2,5.4936413E-2,3.262733E-2,5.4208864E-2,1.1652471E-2,5.830944E-2,5.5531222E-2,4.144706E-2,3.680719E-2,5.4018933E-2],"categories":[],"categories_nodes":[],"categories_segments":[],"categories_sizes":[],"default_left":[0,0,0,0,0,0,0,0,0,0,0,0,0,0,0,0,0,0,0,0,0,0,0,0,0,0,0,0,0,0,0,0,0,0,0,0,0,0,0,0,0,0,0,0,0,0,0],"id":15,"left_children":[1,3,5,7,9,11,-1,13,-1,15,-1,-1,17,19,-1,21,23,25,27,29,31,33,35,37,39,41,43,45,-1,-1,-1,-1,-1,-1,-1,-1,-1,-1,-1,-1,-1,-1,-1,-1,-1,-1,-1],"loss_changes":[2.6282778E3,1.5004575E3,1.3783008E2,8.843793E2,1.08916504E2,1.1122827E2,0E0,6.330919E2,0E0,5.3954712E1,0E0,0E0,1.3385278E2,3.884209E2,0E0,1.7299988E1,1.0948893E2,1.2471872E2,2.1924438E0,3.3593896E2,1.2351163E2,7.9876823E0,1.6730652E1,3.532905E1,7.4906464E0,9.519166E1,7.728363E0,1.7077484E0,0E0,0E0,0E0,0E0,0E0,0E0,0E0,0E0,0E0,0E0,0E0,0E0,0E0,0E0,0E0,0E0,0E0,0E0,0E0],"parents":[2147483647,0,0,1,1,2,2,3,3,4,4,5,5,7,7,9,9,12,12,13,13,15,15,16,16,17,17,18,18,19,19,20,20,21,21,22,22,23,23,24,24,25,25,26,26,27,27],"right_children":[2,4,6,8,10,12,-1,14,-1,16,-1,-1,18,20,-1,22,24,26,28,30,32,34,36,38,40,42,44,46,-1,-1,-1,-1,-1,-1,-1,-1,-1,-1,-1,-1,-1,-1,-1,-1,-1,-1,-1],"split_conditions":[7.692308E-2,1E0,5.2E1,4E0,5.2E1,1.4285715E-1,-6.129117E-2,4E0,5.8011554E-2,4E1,-5.8541786E-2,5.5010397E-2,1E0,2.6E1,5.6201234E-2,2E0,2.6E1,1.6666667E-1,2E0,4E1,6.666667E-2,4.428571E0,2E0,4E0,4E0,4E0,2.3076923E-1,1.5384616E-1,5.3142946E-2,-1.2728819E-2,-4.8722323E-2,-2.386475E-2,-6.278002E-3,1.6461343E-2,3.86523E-2,2.5927529E-2,4.4710673E-2,-1.1694801E-2,5.4936413E-2,3.262733E-2,5.4208864E-2,1.1652471E-2,5.830944E-2,5.5531222E-2,4.144706E-2,3.680719E-2,5.4018933E-2],"split_indices":[35,40,17,1,17,35,0,18,0,17,0,0,40,0,0,18,0,35,1,17,35,31,1,18,18,1,35,35,0,0,0,0,0,0,0,0,0,0,0,0,0,0,0,0,0,0,0],"split_type":[0,0,0,0,0,0,0,0,0,0,0,0,0,0,0,0,0,0,0,0,0,0,0,0,0,0,0,0,0,0,0,0,0,0,0,0,0,0,0,0,0,0,0,0,0,0,0],"sum_hessian":[8.539607E3,6.419881E3,2.1197268E3,5.295274E3,1.1246069E3,2.0987925E3,2.093428E1,5.0816133E3,2.1366046E2,1.1033904E3,2.1216513E1,5.6383203E2,1.5349603E3,4.933005E3,1.4860829E2,6.648399E2,4.3855054E2,1.0552615E3,4.7969885E2,2.21948E3,2.713525E3,1.21133705E2,5.437062E2,1.6159216E2,2.7695837E2,7.226447E2,3.3261682E2,7.3843185E1,4.0585568E2,5.5402277E2,1.6654573E3,1.6803068E3,1.0332181E3,8.061506E1,4.051865E1,9.895853E1,4.4474765E2,1.4867967E2,1.2912493E1,2.4507922E2,3.1879143E1,6.449407E2,7.770402E1,1.1253186E2,2.2008496E2,5.0560787E1,2.3282396E1],"tree_param":{"num_deleted":"0","num_feature":"55","num_nodes":"47","size_leaf_vector":"1"}},{"base_weights":[4.9364036E-3,-3.0613375E-1,9.4709986E-1,-5.269138E-1,7.2539353E-1,5.2095836E-1,1.1542287E0,-9.0337086E-1,-4.624641E-2,2.6171783E-1,1.0264904E0,5.3599086E-2,3.0328113E-1,1.1680413E0,-4.976676E-2,-7.3801374E-1,-1.1316357E0,-1.9322954E-1,5.6969736E-2,5.683196E-1,-1.6711608E-1,2.92345E-1,1.0866716E0,5.334863E-2,1.0924566E0,5.435872E-2,1.0855134E0,-8.750653E-1,-5.101935E-1,-1.2413195E0,-7.177625E-1,-3.1030956E-1,5.5255964E-2,4.2007798E-1,9.3238896E-1,-7.317545E-1,4.1824737E-1,4.7841647E-1,-3.2472745E-2,1.1279955E0,4.5152858E-1,-4.642819E-1,3.8566697E-1,1.1328119E0,5.044178E-3,7.8193533E-1,1.1873896E0,-4.0223636E-2,-1.9773683E-2,-2.4682274E-2,-1.2323087E-2,-4.8498947E-2,-5.445836E-2,-3.335582E-2,-1.4220367E-2,-3.0566195E-2,1.10609995E-4,7.0815817E-3,2.751974E-2,9.756124E-3,4.9380053E-2,-3.681969E-2,-7.747858E-3,2.9823707E-2,4.6107504E-3,2.8683185E-3,4.0770702E-2,3.9950427E-2,5.0656173E-2,-4.7579687E-4,4.0432725E-2,1.7211657E-2,-3.7766643E-2,6.5632975E-3,3.6270916E-2,3.8464036E-2,5.3469166E-2,4.8030682E-2,1.1267078E-2,4.3857675E-2,5.340563E-2],"categories":[],"categories_nodes":[],"categories_segments":[],"categories_sizes":[],"default_left":[0,0,0,0,0,0,0,0,0,0,0,0,0,0,0,0,0,0,0,0,0,0,0,0,0,0,0,0,0,0,0,0,0,0,0,0,0,0,0,0,0,0,0,0,0,0,0,0,0,0,0,0,0,0,0,0,0,0,0,0,0,0,0,0,0,0,0,0,0,0,0,0,0,0,0,0,0,0,0,0,0],"id":16,"left_children":[1,3,5,7,9,11,13,15,17,19,21,-1,23,25,-1,27,29,31,-1,33,35,37,39,41,43,-1,45,47,49,51,53,55,-1,57,59,61,63,65,-1,67,69,71,73,75,-1,77,79,-1,-1,-1,-1,-1,-1,-1,-1,-1,-1,-1,-1,-1,-1,-1,-1,-1,-1,-1,-1,-1,-1,-1,-1,-1,-1,-1,-1,-1,-1,-1,-1,-1,-1],"loss_changes":[2.4750183E3,1.4461776E3,1.8425171E2,9.4622437E2,1.5590796E2,1.2201395E2,4.8142334E1,1.0967432E2,4.9688065E2,5.828378E1,2.951355E1,0E0,1.0724512E2,2.0372559E1,0E0,5.261444E1,5.474402E1,3.8568567E2,0E0,1.3410622E1,6.1487827E1,1.1220617E1,1.5774414E1,7.151744E1,4.833847E0,0E0,2.9315063E1,5.2137024E1,1.3598145E1,1.4559326E0,1.0531921E1,2.766542E2,0E0,1.1872559E1,1.4882805E1,9.319584E0,8.891804E0,9.928804E0,0E0,9.014648E0,1.0500831E1,7.021821E1,2.8987648E1,2.8619385E0,0E0,5.1995926E1,8.166626E0,0E0,0E0,0E0,0E0,0E0,0E0,0E0,0E0,0E0,0E0,0E0,0E0,0E0,0E0,0E0,0E0,0E0,0E0,0E0,0E0,0E0,0E0,0E0,0E0,0E0,0E0,0E0,0E0,0E0,0E0,0E0,0E0,0E0,0E0],"parents":[2147483647,0,0,1,1,2,2,3,3,4,4,5,5,6,6,7,7,8,8,9,9,10,10,12,12,13,13,15,15,16,16,17,17,19,19,20,20,21,21,22,22,23,23,24,24,26,26,27,27,28,28,29,29,30,30,31,31,33,33,34,34,35,35,36,36,37,37,39,39,40,40,41,41,42,42,43,43,45,45,46,46],"right_children":[2,4,6,8,10,12,14,16,18,20,22,-1,24,26,-1,28,30,32,-1,34,36,38,40,42,44,-1,46,48,50,52,54,56,-1,58,60,62,64,66,-1,68,70,72,74,76,-1,78,80,-1,-1,-1,-1,-1,-1,-1,-1,-1,-1,-1,-1,-1,-1,-1,-1,-1,-1,-1,-1,-1,-1,-1,-1,-1,-1,-1,-1,-1,-1,-1,-1,-1,-1],"split_conditions":[7.692308E-2,1E0,1E0,1E0,1E0,1E-1,5.2E1,1.9E1,4E0,4.1E1,2E0,5.3599086E-2,1E0,1.4285715E-1,-4.976676E-2,6.666667E-2,2.6E1,4E0,5.6969736E-2,4.428571E0,2.6E1,2.3E1,2.7E1,2.6E1,5.1E1,5.435872E-2,2.6E1,4.428571E0,1E0,5.2E1,4.428571E0,2.6E1,5.5255964E-2,6.666667E-2,1E0,4.428571E0,4.25E0,6.5E1,-3.2472745E-2,6.666667E-2,2.6E1,4E1,1.5384616E-1,2.4395604E-1,5.044178E-3,4E1,2.576923E-1,-4.0223636E-2,-1.9773683E-2,-2.4682274E-2,-1.2323087E-2,-4.8498947E-2,-5.445836E-2,-3.335582E-2,-1.4220367E-2,-3.0566195E-2,1.10609995E-4,7.0815817E-3,2.751974E-2,9.756124E-3,4.9380053E-2,-3.681969E-2,-7.747858E-3,2.9823707E-2,4.6107504E-3,2.8683185E-3,4.0770702E-2,3.9950427E-2,5.0656173E-2,-4.7579687E-4,4.0432725E-2,1.7211657E-2,-3.7766643E-2,6.5632975E-3,3.6270916E-2,3.8464036E-2,5.3469166E-2,4.8030682E-2,1.1267078E-2,4.3857675E-2,5.340563E-2],"split_indices":[35,40,37,37,37,35,17,34,1,17,1,0,40,35,0,35,0,18,0,22,0,34,34,0,17,0,0,24,47,17,8,0,0,35,43,6,31,19,0,35,0,17,35,36,0,17,36,0,0,0,0,0,0,0,0,0,0,0,0,0,0,0,0,0,0,0,0,0,0,0,0,0,0,0,0,0,0,0,0,0,0],"split_type":[0,0,0,0,0,0,0,0,0,0,0,0,0,0,0,0,0,0,0,0,0,0,0,0,0,0,0,0,0,0,0,0,0,0,0,0,0,0,0,0,0,0,0,0,0,0,0,0,0,0,0,0,0,0,0,0,0,0,0,0,0,0,0,0,0,0,0,0,0,0,0,0,0,0,0,0,0,0,0,0,0],"sum_hessian":[8.442679E3,6.3475156E3,2.0951636E3,5.22894E3,1.1185754E3,6.865895E2,1.4085741E3,2.931731E3,2.2972092E3,4.4125845E2,6.7731696E2,1.429856E2,5.436039E2,1.4010599E3,7.5142126E0,1.7028453E3,1.2288856E3,2.0893083E3,2.0790068E2,2.5724493E2,1.8401352E2,5.1885822E1,6.2543115E2,4.1376004E2,1.2984381E2,4.17803E2,9.832569E2,1.0611819E3,6.4166345E2,9.6966583E2,2.592198E2,1.9455177E3,1.4379068E2,1.8453467E2,7.271025E1,9.362454E1,9.038898E1,4.496559E1,6.9202313E0,5.863486E2,3.908256E1,1.6150157E2,2.5225847E2,1.2437415E2,5.469666E0,2.4948389E2,7.33773E2,7.888365E2,2.723454E2,4.1807196E2,2.2359154E2,7.915394E2,1.7812639E2,1.9509666E2,6.412311E1,7.937482E2,1.1517695E3,9.782616E1,8.670852E1,2.2827303E1,4.988295E1,6.8647896E1,2.497665E1,4.2586533E1,4.7802444E1,2.6417599E1,1.8547995E1,3.07846E2,2.785026E2,2.181048E1,1.7272081E1,5.6350697E1,1.0515088E2,1.7805342E2,7.420504E1,7.098252E1,5.339163E1,1.3492247E2,1.1456142E2,4.5982642E2,2.7394656E2],"tree_param":{"num_deleted":"0","num_feature":"55","num_nodes":"81","size_leaf_vector":"1"}},{"base_weights":[-2.1993674E-3,-3.010907E-1,9.177336E-1,-7.379054E-1,1.9030705E-1,5.0202584E-1,1.1247392E0,-8.8238364E-1,6.983644E-2,4.679638E-2,5.572738E-2,5.2540198E-2,2.818349E-1,1.1373422E0,-4.8311964E-2,-7.2011346E-1,-1.1120565E0,3.953455E-1,-3.7181005E-1,-1.8551958E-1,8.062066E-1,1.6560119E-2,9.459757E-1,5.346139E-2,1.0540932E0,-8.180254E-1,-4.702016E-1,-1.2255766E0,-6.752781E-1,1.7878579E-1,6.7188126E-1,-9.2452586E-1,2.4651265E-1,-2.9872927E-1,5.4427166E-2,9.237226E-1,1.7122933E-1,-2.3229778E-1,7.972587E-1,1.0925212E0,4.208512E-1,9.206437E-1,5.155696E-2,-2.6530692E-2,-4.9915783E-2,-4.0747833E-2,3.2039855E-2,-5.0394185E-2,-4.5299396E-2,-1.4961557E-2,-3.3914004E-2,-2.7903449E-3,2.6459152E-2,1.8774934E-2,5.498142E-2,-4.438689E-2,-1.5839722E-2,-6.642742E-4,2.2355322E-2,-2.8092917E-2,-6.682751E-4,3.3563558E-2,5.4290038E-2,-1.2861616E-2,3.493696E-2,5.723534E-3,-2.4816796E-2,3.8300496E-2,1.3364548E-3,5.311072E-2,3.7604988E-2,2.5903392E-3,4.5370173E-2,2.9754916E-2,4.9388137E-2],"categories":[],"categories_nodes":[],"categories_segments":[],"categories_sizes":[],"default_left":[0,0,0,0,0,0,0,0,0,0,0,0,0,0,0,0,0,0,0,0,0,0,0,0,0,0,0,0,0,0,0,0,0,0,0,0,0,0,0,0,0,0,0,0,0,0,0,0,0,0,0,0,0,0,0,0,0,0,0,0,0,0,0,0,0,0,0,0,0,0,0,0,0,0,0],"id":17,"left_children":[1,3,5,7,9,11,13,15,17,19,-1,-1,21,23,-1,25,27,29,31,33,35,37,39,-1,41,43,45,47,49,51,53,55,57,59,-1,61,63,65,67,69,71,73,-1,-1,-1,-1,-1,-1,-1,-1,-1,-1,-1,-1,-1,-1,-1,-1,-1,-1,-1,-1,-1,-1,-1,-1,-1,-1,-1,-1,-1,-1,-1,-1,-1],"loss_changes":[2.2829846E3,1.3454233E3,1.7448718E2,3.873717E2,5.0903046E2,1.2076184E2,4.1296387E1,1.0392261E2,7.2643616E1,4.653754E2,0E0,0E0,9.4198456E1,2.076416E1,0E0,3.99234E1,5.6662354E1,1.721709E1,7.3551704E1,3.5383917E2,4.5842377E1,7.477738E1,1.1136963E1,0E0,2.8622559E1,7.786218E1,3.2703027E2,1.2757568E0,1.2161079E1,1.986675E1,1.7270523E1,1.0514313E1,8.436716E0,2.1422087E2,0E0,1.776007E1,3.4198288E1,4.2619892E1,1.12597275E1,2.776123E0,8.71918E0,3.301532E1,0E0,0E0,0E0,0E0,0E0,0E0,0E0,0E0,0E0,0E0,0E0,0E0,0E0,0E0,0E0,0E0,0E0,0E0,0E0,0E0,0E0,0E0,0E0,0E0,0E0,0E0,0E0,0E0,0E0,0E0,0E0,0E0,0E0],"parents":[2147483647,0,0,1,1,2,2,3,3,4,4,5,5,6,6,7,7,8,8,9,9,12,12,13,13,15,15,16,16,17,17,18,18,19,19,20,20,21,21,22,22,24,24,25,25,26,26,27,27,28,28,29,29,30,30,31,31,32,32,33,33,35,35,36,36,37,37,38,38,39,39,40,40,41,41],"right_children":[2,4,6,8,10,12,14,16,18,20,-1,-1,22,24,-1,26,28,30,32,34,36,38,40,-1,42,44,46,48,50,52,54,56,58,60,-1,62,64,66,68,70,72,74,-1,-1,-1,-1,-1,-1,-1,-1,-1,-1,-1,-1,-1,-1,-1,-1,-1,-1,-1,-1,-1,-1,-1,-1,-1,-1,-1,-1,-1,-1,-1,-1,-1],"split_conditions":[7.692308E-2,1E0,1E0,1E0,4E0,1E-1,5.2E1,1.9E1,4.1E1,1E0,5.572738E-2,5.2540198E-2,1.6666667E-1,1.4285715E-1,-4.8311964E-2,4.428571E0,2.6E1,6.666667E-2,2.6E1,4E0,2.3E1,1E0,2E1,5.346139E-2,2.576923E-1,4.6666665E0,4.428571E0,4.428571E0,5.6E1,4.428571E0,6.804963E-2,4.428571E0,6.666667E-2,2.6E1,5.4427166E-2,4E0,2.5E1,4E1,2.1E1,2E-1,4.428571E0,1E0,5.155696E-2,-2.6530692E-2,-4.9915783E-2,-4.0747833E-2,3.2039855E-2,-5.0394185E-2,-4.5299396E-2,-1.4961557E-2,-3.3914004E-2,-2.7903449E-3,2.6459152E-2,1.8774934E-2,5.498142E-2,-4.438689E-2,-1.5839722E-2,-6.642742E-4,2.2355322E-2,-2.8092917E-2,-6.682751E-4,3.3563558E-2,5.4290038E-2,-1.2861616E-2,3.493696E-2,5.723534E-3,-2.4816796E-2,3.8300496E-2,1.3364548E-3,5.311072E-2,3.7604988E-2,2.5903392E-3,4.5370173E-2,2.9754916E-2,4.9388137E-2],"split_indices":[35,37,37,41,1,35,17,34,17,41,0,0,35,35,0,26,0,35,0,18,34,41,34,0,36,9,9,23,2,24,39,27,35,0,0,18,0,17,34,35,12,41,0,0,0,0,0,0,0,0,0,0,0,0,0,0,0,0,0,0,0,0,0,0,0,0,0,0,0,0,0,0,0,0,0],"split_type":[0,0,0,0,0,0,0,0,0,0,0,0,0,0,0,0,0,0,0,0,0,0,0,0,0,0,0,0,0,0,0,0,0,0,0,0,0,0,0,0,0,0,0,0,0,0,0,0,0,0,0,0,0,0,0,0,0,0,0,0,0,0,0,0,0,0,0,0,0,0,0,0,0,0,0],"sum_hessian":[8.301188E3,6.2660845E3,2.0351042E3,3.3171216E3,2.9489631E3,6.778188E2,1.3572854E3,2.8138484E3,5.0327304E2,2.6356375E3,3.1332568E2,1.4351125E2,5.3430756E2,1.3505435E3,6.7419314E0,1.651552E3,1.1622965E3,2.8992172E2,2.133513E2,2.0187064E3,6.1693115E2,3.8264493E2,1.5166264E2,3.93278E2,9.572655E2,1.1847213E3,4.6683072E2,9.2091327E2,2.4138316E2,1.6371889E2,1.2620285E2,1.1247603E2,1.0087528E2,1.8817963E3,1.3691005E2,5.200691E2,9.6862076E1,2.9058994E2,9.205499E1,1.1757913E2,3.4083515E1,6.138012E2,3.4346426E2,8.731518E2,3.115695E2,3.2631165E2,1.4051907E2,6.631292E2,2.577841E2,8.928153E1,1.5210164E2,1.08499504E2,5.521938E1,9.937335E1,2.6829496E1,8.234249E1,3.0133533E1,5.5094307E1,4.5780975E1,7.733022E2,1.1084941E3,4.3777298E2,8.229612E1,5.715374E1,3.9708332E1,1.4790857E2,1.4268137E2,7.5773415E1,1.6281578E1,4.29345E1,7.464463E1,2.3556376E1,1.0527138E1,3.9510214E2,2.1869908E2],"tree_param":{"num_deleted":"0","num_feature":"55","num_nodes":"75","size_leaf_vector":"1"}},{"base_weights":[-3.3728404E-3,-2.9732746E-1,9.0039945E-1,-7.200467E-1,1.8209553E-1,5.02312E-1,1.1038619E0,-8.6230946E-1,6.475349E-2,-3.8726483E-2,8.697173E-1,5.2017137E-2,3.0579713E-1,1.1150591E0,-4.6873134E-2,-6.8559223E-1,-1.061087E0,3.6702937E-1,-3.9167812E-1,-1.555493E-1,5.3432208E-2,9.7317016E-1,2.9235524E-1,7.719932E-2,9.709979E-1,8.7292725E-1,1.19443E0,-7.844626E-1,-4.0876058E-1,-1.1876297E0,-6.6700464E-1,1.9057997E-1,7.386034E-1,3.667604E-1,-7.3306066E-1,-5.9356624E-1,1.2547942E-1,8.9442116E-1,5.3490836E-2,8.496893E-1,-2.0154813E-1,4.30417E-1,-3.4191677E-1,1.0863187E0,3.8859373E-1,4.853954E-2,4.2388466E-1,5.2684613E-2,1.1423789E0,-2.5640862E-2,-4.8719153E-2,-4.149677E-2,4.2544063E-2,-4.7784504E-2,-2.0089712E-2,-3.20354E-2,-9.79643E-3,1.5848026E-2,-3.1851802E-2,7.924268E-3,5.1216528E-2,5.8714794E-3,3.6360662E-2,-3.4714706E-2,1.5580235E-2,1.2706043E-2,-3.9516468E-2,-2.8867546E-2,9.869746E-3,3.0259473E-2,4.2051934E-2,2.1970272E-2,4.5650024E-2,-1.6777303E-2,5.1064156E-2,9.185652E-3,3.527099E-2,-3.202818E-2,1.0182355E-2,3.135481E-2,4.693063E-2,-2.809778E-3,4.6492767E-2,2.924877E-3,4.8400935E-2,4.2001247E-2,5.1798046E-2],"categories":[],"categories_nodes":[],"categories_segments":[],"categories_sizes":[],"default_left":[0,0,0,0,0,0,0,0,0,0,0,0,0,0,0,0,0,0,0,0,0,0,0,0,0,0,0,0,0,0,0,0,0,0,0,0,0,0,0,0,0,0,0,0,0,0,0,0,0,0,0,0,0,0,0,0,0,0,0,0,0,0,0,0,0,0,0,0,0,0,0,0,0,0,0,0,0,0,0,0,0,0,0,0,0,0,0],"id":18,"left_children":[1,3,5,7,9,11,13,15,17,19,21,-1,23,25,-1,27,29,31,33,35,-1,37,39,41,43,45,47,49,51,53,55,57,59,61,63,65,67,69,-1,71,73,75,77,79,81,-1,83,-1,85,-1,-1,-1,-1,-1,-1,-1,-1,-1,-1,-1,-1,-1,-1,-1,-1,-1,-1,-1,-1,-1,-1,-1,-1,-1,-1,-1,-1,-1,-1,-1,-1,-1,-1,-1,-1,-1,-1],"loss_changes":[2.193802E3,1.2630222E3,1.634336E2,3.6988843E2,4.4356995E2,1.0726572E2,3.5450195E1,9.7586426E1,7.037162E1,3.5519427E2,4.200055E1,0E0,8.391899E1,2.4390625E1,0E0,4.0268738E1,6.471973E1,1.9886436E1,5.2905922E1,2.5113318E2,0E0,1.5829712E1,3.0370544E1,6.12667E1,8.917191E0,5.0306946E1,4.6466064E0,6.709784E1,3.655714E2,3.9959717E0,1.7934174E1,4.280813E1,2.8378376E1,7.3514433E0,2.1650826E1,2.8687564E2,1.27812515E2,9.7969055E0,0E0,3.734539E0,1.9371862E1,2.0038483E1,5.203884E1,1.9666901E0,9.082634E0,0E0,3.989333E1,0E0,8.430115E0,0E0,0E0,0E0,0E0,0E0,0E0,0E0,0E0,0E0,0E0,0E0,0E0,0E0,0E0,0E0,0E0,0E0,0E0,0E0,0E0,0E0,0E0,0E0,0E0,0E0,0E0,0E0,0E0,0E0,0E0,0E0,0E0,0E0,0E0,0E0,0E0,0E0,0E0],"parents":[2147483647,0,0,1,1,2,2,3,3,4,4,5,5,6,6,7,7,8,8,9,9,10,10,12,12,13,13,15,15,16,16,17,17,18,18,19,19,21,21,22,22,23,23,24,24,25,25,26,26,27,27,28,28,29,29,30,30,31,31,32,32,33,33,34,34,35,35,36,36,37,37,39,39,40,40,41,41,42,42,43,43,44,44,46,46,48,48],"right_children":[2,4,6,8,10,12,14,16,18,20,22,-1,24,26,-1,28,30,32,34,36,-1,38,40,42,44,46,48,50,52,54,56,58,60,62,64,66,68,70,-1,72,74,76,78,80,82,-1,84,-1,86,-1,-1,-1,-1,-1,-1,-1,-1,-1,-1,-1,-1,-1,-1,-1,-1,-1,-1,-1,-1,-1,-1,-1,-1,-1,-1,-1,-1,-1,-1,-1,-1,-1,-1,-1,-1,-1,-1],"split_conditions":[7.692308E-2,1E0,1E0,1E0,1E0,1E-1,5.2E1,1.7E1,1.7E1,4E0,2.3E1,5.2017137E-2,1E0,2.6E1,-4.6873134E-2,4.428571E0,2.6E1,4.428571E0,4E1,2.6E1,5.3432208E-2,4E0,4.5E1,4E1,2.1E1,4E1,1.5128206E-1,5E0,4.428571E0,7E0,4.428571E0,5E0,4.428571E0,4.428571E0,2.6E1,4E1,2E0,6.666667E-2,5.3490836E-2,6.666667E-2,4E0,1.6666667E-1,2.6E1,2.3846154E-1,3.1E1,4.853954E-2,1E0,5.2684613E-2,2.576923E-1,-2.5640862E-2,-4.8719153E-2,-4.149677E-2,4.2544063E-2,-4.7784504E-2,-2.0089712E-2,-3.20354E-2,-9.79643E-3,1.5848026E-2,-3.1851802E-2,7.924268E-3,5.1216528E-2,5.8714794E-3,3.6360662E-2,-3.4714706E-2,1.5580235E-2,1.2706043E-2,-3.9516468E-2,-2.8867546E-2,9.869746E-3,3.0259473E-2,4.2051934E-2,2.1970272E-2,4.5650024E-2,-1.6777303E-2,5.1064156E-2,9.185652E-3,3.527099E-2,-3.202818E-2,1.0182355E-2,3.135481E-2,4.693063E-2,-2.809778E-3,4.6492767E-2,2.924877E-3,4.8400935E-2,4.2001247E-2,5.1798046E-2],"split_indices":[35,37,37,41,41,35,17,34,34,18,34,0,41,0,0,29,0,10,17,0,0,18,17,17,34,17,36,12,12,29,5,27,27,7,0,17,18,35,0,35,18,35,0,36,0,0,41,0,36,0,0,0,0,0,0,0,0,0,0,0,0,0,0,0,0,0,0,0,0,0,0,0,0,0,0,0,0,0,0,0,0,0,0,0,0,0,0],"split_type":[0,0,0,0,0,0,0,0,0,0,0,0,0,0,0,0,0,0,0,0,0,0,0,0,0,0,0,0,0,0,0,0,0,0,0,0,0,0,0,0,0,0,0,0,0,0,0,0,0,0,0,0,0,0,0,0,0,0,0,0,0,0,0,0,0,0,0,0,0,0,0,0,0,0,0,0,0,0,0,0,0,0,0,0,0,0,0],"sum_hessian":[8.255901E3,6.2302695E3,2.025632E3,3.3107793E3,2.9194905E3,6.8646985E2,1.3391622E3,2.8027468E3,5.0803247E2,2.210433E3,7.090575E2,1.3441928E2,5.5205054E2,1.3331565E3,6.0056562E0,1.4863256E3,1.3164211E3,3.058774E2,2.0215504E2,2.0381667E3,1.7226624E2,6.005847E2,1.0847276E2,4.118007E2,1.4024988E2,3.323958E2,1.00076074E3,1.0935643E3,3.9276126E2,9.947369E2,3.2168427E2,2.0860104E2,9.727637E1,6.263457E1,1.3952048E2,7.962928E2,1.241874E3,4.968545E2,1.0373026E2,5.072049E1,5.7752274E1,2.2358337E2,1.882173E2,1.1620365E2,2.404622E1,1.8793655E2,1.4445924E2,2.902977E2,7.10463E2,8.2372205E2,2.698423E2,2.754955E2,1.1726577E2,9.838245E2,1.0912378E1,2.4336052E2,7.832375E1,1.732114E2,3.538966E1,4.9473244E1,4.7803127E1,4.559391E1,1.7040663E1,1.2484414E2,1.4676341E1,2.4050253E2,5.557902E2,1.5478056E2,1.0870935E3,2.6782706E2,2.2902742E2,2.6569448E1,2.415104E1,5.1016212E1,6.73606E0,1.5594522E2,6.763815E1,1.06288925E2,8.192838E1,2.8439934E1,8.776372E1,1.558431E1,8.46191E0,1.0073368E2,4.3725567E1,4.4789938E2,2.625636E2],"tree_param":{"num_deleted":"0","num_feature":"55","num_nodes":"87","size_leaf_vector":"1"}},{"base_weights":[2.7413575E-3,-2.8400558E-1,8.8384384E-1,-7.022206E-1,1.8378912E-1,5.1043046E-1,1.0762721E0,-8.426432E-1,2.3318759E-1,-3.691554E-2,9.7114253E-1,5.1667098E-2,3.077855E-1,1.087993E0,-4.662749E-2,-6.3133615E-1,-1.0223172E0,5.444928E-1,-1.4939645E-1,-1.7144085E-1,5.504485E-2,3.5665694E-1,1.0262707E0,6.302286E-2,1.0910039E0,9.856196E-1,5.112199E-2,-7.801469E-1,-3.8970867E-1,-1.1941583E0,-6.9968134E-1,3.997E-1,8.688573E-1,-6.2200356E-1,3.1560642E-1,-2.7540413E-1,5.289399E-2,5.7204676E-1,-3.373311E-2,9.5570606E-1,5.3040728E-2,-1.6377899E-1,7.3339283E-1,1.1404524E0,-0E0,1.9582824E-1,1.0347712E0,-3.662188E-2,-1.3689183E-2,-1.90057E-2,7.813784E-4,-4.799601E-2,-2.623265E-2,-3.2391787E-2,-1.4885694E-2,2.4161883E-2,-2.4719434E-2,1.3013036E-2,5.352971E-2,-3.5441533E-2,-5.6653153E-3,4.6872576E-3,2.9481271E-2,-9.1554853E-4,-2.8413914E-2,7.563747E-3,4.144905E-2,3.5180926E-2,5.348714E-2,-2.4012033E-2,5.552946E-3,4.9994268E-2,1.9305581E-2,4.9403977E-2,3.5828415E-2,2.0300776E-2,-4.568262E-2,5.2106064E-2,3.698346E-2],"categories":[],"categories_nodes":[],"categories_segments":[],"categories_sizes":[],"default_left":[0,0,0,0,0,0,0,0,0,0,0,0,0,0,0,0,0,0,0,0,0,0,0,0,0,0,0,0,0,0,0,0,0,0,0,0,0,0,0,0,0,0,0,0,0,0,0,0,0,0,0,0,0,0,0,0,0,0,0,0,0,0,0,0,0,0,0,0,0,0,0,0,0,0,0,0,0,0,0],"id":19,"left_children":[1,3,5,7,9,11,13,15,17,19,21,-1,23,25,-1,27,29,31,33,35,-1,37,39,41,43,45,-1,47,49,51,53,55,57,59,61,63,-1,65,-1,67,-1,69,71,73,-1,75,77,-1,-1,-1,-1,-1,-1,-1,-1,-1,-1,-1,-1,-1,-1,-1,-1,-1,-1,-1,-1,-1,-1,-1,-1,-1,-1,-1,-1,-1,-1,-1,-1],"loss_changes":[2.052685E3,1.1993306E3,1.4263403E2,4.2538208E2,5.0300748E2,1.0717375E2,3.5825928E1,1.0604138E2,5.051657E1,4.299381E2,2.096344E1,0E0,1.0366954E2,2.3984863E1,0E0,4.6186523E1,8.3201294E1,1.0499878E1,4.2086582E1,3.210396E2,0E0,1.4375025E1,1.07908325E1,6.3108887E1,6.9748383E0,3.288568E1,0E0,4.705075E1,1.74067E1,2.0864258E0,1.8715912E1,3.4396973E1,1.7524437E1,1.1809444E1,7.903269E0,2.1210721E2,0E0,7.916444E0,0E0,1.2378418E1,0E0,4.1075996E1,1.281245E1,1.5359344E0,0E0,2.1982155E1,2.2335022E1,0E0,0E0,0E0,0E0,0E0,0E0,0E0,0E0,0E0,0E0,0E0,0E0,0E0,0E0,0E0,0E0,0E0,0E0,0E0,0E0,0E0,0E0,0E0,0E0,0E0,0E0,0E0,0E0,0E0,0E0,0E0,0E0],"parents":[2147483647,0,0,1,1,2,2,3,3,4,4,5,5,6,6,7,7,8,8,9,9,10,10,12,12,13,13,15,15,16,16,17,17,18,18,19,19,21,21,22,22,23,23,24,24,25,25,27,27,28,28,29,29,30,30,31,31,32,32,33,33,34,34,35,35,37,37,39,39,41,41,42,42,43,43,45,45,46,46],"right_children":[2,4,6,8,10,12,14,16,18,20,22,-1,24,26,-1,28,30,32,34,36,-1,38,40,42,44,46,-1,48,50,52,54,56,58,60,62,64,-1,66,-1,68,-1,70,72,74,-1,76,78,-1,-1,-1,-1,-1,-1,-1,-1,-1,-1,-1,-1,-1,-1,-1,-1,-1,-1,-1,-1,-1,-1,-1,-1,-1,-1,-1,-1,-1,-1,-1,-1],"split_conditions":[7.692308E-2,1E0,1E0,1E0,1E0,1E-1,5.2E1,4E1,4E1,4E0,2E0,5.1667098E-2,1E0,1E0,-4.662749E-2,6.666667E-2,2.6E1,4.428571E0,2.6E1,4E0,5.504485E-2,2.3E1,4E0,1.6666667E-1,5.1E1,2E0,5.112199E-2,4.428571E0,5.9514396E-2,7E0,4.428571E0,5E0,4.428571E0,6.666667E-2,4.428571E0,1.9E1,5.289399E-2,6.5E1,-3.373311E-2,4E0,5.3040728E-2,2.6E1,2E-1,1.6E1,-0E0,2.2E1,1E-1,-3.662188E-2,-1.3689183E-2,-1.90057E-2,7.813784E-4,-4.799601E-2,-2.623265E-2,-3.2391787E-2,-1.4885694E-2,2.4161883E-2,-2.4719434E-2,1.3013036E-2,5.352971E-2,-3.5441533E-2,-5.6653153E-3,4.6872576E-3,2.9481271E-2,-9.1554853E-4,-2.8413914E-2,7.563747E-3,4.144905E-2,3.5180926E-2,5.348714E-2,-2.4012033E-2,5.552946E-3,4.9994268E-2,1.9305581E-2,4.9403977E-2,3.5828415E-2,2.0300776E-2,-4.568262E-2,5.2106064E-2,3.698346E-2],"split_indices":[35,37,37,40,40,35,17,17,17,1,1,0,40,40,0,35,0,10,0,18,0,34,18,35,17,1,0,7,39,12,10,27,27,35,10,34,0,19,0,1,0,0,35,34,0,34,35,0,0,0,0,0,0,0,0,0,0,0,0,0,0,0,0,0,0,0,0,0,0,0,0,0,0,0,0,0,0,0,0],"split_type":[0,0,0,0,0,0,0,0,0,0,0,0,0,0,0,0,0,0,0,0,0,0,0,0,0,0,0,0,0,0,0,0,0,0,0,0,0,0,0,0,0,0,0,0,0,0,0,0,0,0,0,0,0,0,0,0,0,0,0,0,0,0,0,0,0,0,0,0,0,0,0,0,0,0,0,0,0,0,0],"sum_hessian":[8.122278E3,6.1284067E3,1.993871E3,3.2355195E3,2.8928875E3,6.7948346E2,1.3143876E3,2.8133833E3,4.2213632E2,2.2601626E3,6.327248E2,1.3873969E2,5.407438E2,1.3081082E3,6.279427E0,1.2952106E3,1.5181726E3,2.3266063E2,1.894757E2,2.0645598E3,1.9560281E2,5.2855488E1,5.7986926E2,4.12913E2,1.27830795E2,8.545302E2,4.535779E2,7.999215E2,4.9528906E2,9.8861084E2,5.2956177E2,1.6261266E2,7.004798E1,9.390871E1,9.5566986E1,1.9310474E3,1.3351242E2,4.532632E1,7.5291696E0,4.7303287E2,1.068364E2,3.0898325E2,1.0392975E2,1.22263794E2,5.5670033E0,5.047599E1,8.040542E2,6.0999695E2,1.8992456E2,4.0981845E2,8.547062E1,9.7677814E2,1.1832759E1,3.9499356E2,1.345682E2,1.3584105E2,2.6771605E1,3.3343517E1,3.6704464E1,5.992073E1,3.398798E1,6.600458E1,2.9562408E1,1.2225524E3,7.08495E2,2.5725399E1,1.9600922E1,3.9726407E2,7.5768814E1,1.2623239E2,1.8275085E2,3.2535282E1,7.139446E1,8.49548E1,3.7308987E1,4.150249E1,8.973498E0,2.3091774E2,5.731365E2],"tree_param":{"num_deleted":"0","num_feature":"55","num_nodes":"79","size_leaf_vector":"1"}},{"base_weights":[6.437595E-3,-2.654741E-1,8.60787E-1,-4.6666318E-1,6.812685E-1,4.697207E-1,1.0619555E0,-8.216638E-1,-2.698305E-2,2.5545412E-1,9.677601E-1,5.0683167E-2,2.72132E-1,1.0747294E0,-4.652638E-2,-6.467186E-1,-1.017696E0,-1.3818392E-1,5.2021816E-2,5.1126385E-1,-1.8555607E-1,1.0119E0,3.3098865E-1,4.649598E-2,1.01707E0,1.1486275E0,8.1375617E-1,-7.5146306E-1,-3.70929E-1,-1.1470027E0,-6.3117796E-1,-5.7215863E-1,1.400573E-1,3.5406488E-1,8.602061E-1,4.690932E-1,-5.719694E-1,9.4517696E-1,5.2347165E-2,-1.2944162E-1,1.0070431E0,-1.8198103E-1,7.097707E-1,4.700237E-2,6.377019E-1,1.0798396E0,5.073878E-2,4.606438E-1,1.1150674E0,-2.4106828E-2,-4.9108658E-2,-3.7743457E-2,3.9755523E-2,-4.4625927E-2,-5.1788554E-2,-3.0060407E-2,-7.115114E-3,1.3857181E-2,-3.8985778E-2,-2.7269999E-2,1.0260868E-2,1.7820593E-2,-4.953536E-2,1.6052015E-2,5.0486635E-2,6.9098324E-3,4.2046454E-2,-2.6723683E-2,3.771479E-2,3.1886794E-2,4.4319205E-2,-1.7639814E-2,3.535751E-2,2.5142767E-2,5.0213065E-2,-2.3603424E-2,4.407411E-3,3.5128027E-2,-2.4831793E-3,1.9580747E-3,3.886666E-2,5.1079903E-2,3.9844166E-2,5.188856E-3,4.6714857E-2,4.757534E-2,3.619394E-2],"categories":[],"categories_nodes":[],"categories_segments":[],"categories_sizes":[],"default_left":[0,0,0,0,0,0,0,0,0,0,0,0,0,0,0,0,0,0,0,0,0,0,0,0,0,0,0,0,0,0,0,0,0,0,0,0,0,0,0,0,0,0,0,0,0,0,0,0,0,0,0,0,0,0,0,0,0,0,0,0,0,0,0,0,0,0,0,0,0,0,0,0,0,0,0,0,0,0,0,0,0,0,0,0,0,0,0],"id":20,"left_children":[1,3,5,7,9,11,13,15,17,19,21,-1,23,25,-1,27,29,31,-1,33,35,37,39,41,43,45,47,49,51,53,55,57,59,61,63,65,67,69,-1,71,73,75,77,-1,79,81,-1,83,85,-1,-1,-1,-1,-1,-1,-1,-1,-1,-1,-1,-1,-1,-1,-1,-1,-1,-1,-1,-1,-1,-1,-1,-1,-1,-1,-1,-1,-1,-1,-1,-1,-1,-1,-1,-1,-1,-1],"loss_changes":[1.861789E3,1.1582225E3,1.5156787E2,7.825751E2,1.2964597E2,1.03358734E2,3.753003E1,9.4316284E1,3.3091455E2,4.865517E1,1.7424072E1,0E0,8.887551E1,2.3361206E1,0E0,4.2043518E1,6.4383545E1,2.4994814E2,0E0,1.4529785E1,4.0374657E1,1.0314148E1,1.3572237E1,6.1963512E1,6.440605E0,6.5318604E0,2.9543686E1,7.4431335E1,3.1870337E2,2.8411865E0,1.7766449E1,2.993598E2,1.2085645E2,2.8122597E1,1.4781979E1,9.922477E0,1.5195316E1,1.0719452E1,0E0,8.654862E0,6.747761E-1,3.6350006E1,1.3756428E1,0E0,7.426545E0,8.972839E0,0E0,3.0754229E1,1.0948639E0,0E0,0E0,0E0,0E0,0E0,0E0,0E0,0E0,0E0,0E0,0E0,0E0,0E0,0E0,0E0,0E0,0E0,0E0,0E0,0E0,0E0,0E0,0E0,0E0,0E0,0E0,0E0,0E0,0E0,0E0,0E0,0E0,0E0,0E0,0E0,0E0,0E0,0E0],"parents":[2147483647,0,0,1,1,2,2,3,3,4,4,5,5,6,6,7,7,8,8,9,9,10,10,12,12,13,13,15,15,16,16,17,17,19,19,20,20,21,21,22,22,23,23,24,24,25,25,26,26,27,27,28,28,29,29,30,30,31,31,32,32,33,33,34,34,35,35,36,36,37,37,39,39,40,40,41,41,42,42,44,44,45,45,47,47,48,48],"right_children":[2,4,6,8,10,12,14,16,18,20,22,-1,24,26,-1,28,30,32,-1,34,36,38,40,42,44,46,48,50,52,54,56,58,60,62,64,66,68,70,-1,72,74,76,78,-1,80,82,-1,84,86,-1,-1,-1,-1,-1,-1,-1,-1,-1,-1,-1,-1,-1,-1,-1,-1,-1,-1,-1,-1,-1,-1,-1,-1,-1,-1,-1,-1,-1,-1,-1,-1,-1,-1,-1,-1,-1,-1],"split_conditions":[7.692308E-2,1E0,1E0,1E0,1E0,1E-1,5.2E1,1.7E1,4E0,1.7E1,2.7E1,5.0683167E-2,1E0,1.9E1,-4.652638E-2,4.428571E0,2.6E1,2.6E1,5.2021816E-2,4.428571E0,4.1E1,4E0,2.6E1,1.6666667E-1,4.2E1,1E0,2.6E1,5E0,